{"mlp_extractor.policy_net.0.weight": [[-0.43648597598075867, 0.0388408862054348, -0.1402900069952011, -0.0717494934797287, 0.24350278079509735], [-0.1258404552936554, 0.024847382679581642, 0.2829020321369171, 0.009595595300197601, 0.14599651098251343], [0.1520158052444458, -0.09701479971408844, -0.2700691223144531, 0.1453629583120346, -0.3336281180381775], [0.20715570449829102, 0.0501432940363884, 0.2603105306625366, 0.18717773258686066, 0.11703913658857346], [-0.0806339904665947, -0.5115795731544495, 0.0821210965514183, -0.15625372529029846, 0.14268773794174194], [0.143166646361351, 0.311185359954834, 0.18626712262630463, -0.05423266068100929, 0.11533995717763901], [0.05159376561641693, 0.05535326153039932, 0.3141605257987976, -0.18520276248455048, 0.015546089969575405], [-0.06561525166034698, 0.11415031552314758, 0.10809371620416641, 0.1135285273194313, -0.08898676931858063], [0.23464342951774597, -0.04351764917373657, 0.08385767787694931, -0.0027111300732940435, -0.11856301128864288], [0.38147684931755066, -0.21041274070739746, 0.18840795755386353, -0.2812751829624176, 0.05809839442372322], [-0.15426436066627502, -0.02992827817797661, 0.11037658154964447, 0.3839873969554901, 0.3187502324581146], [-0.12228623777627945, -0.10547854006290436, -0.013225923292338848, -0.3756016492843628, 0.22113510966300964], [0.019119732081890106, 0.10459236800670624, -0.14344799518585205, 0.030842812731862068, 0.22562217712402344], [-0.18131424486637115, -0.05013597384095192, 0.07095985859632492, 0.04432491958141327, -0.07113629579544067], [0.07147032767534256, -0.1449228674173355, 0.01694801263511181, -0.04725123569369316, 0.15275800228118896], [0.043959200382232666, 0.13069091737270355, -0.347270667552948, -0.1580149233341217, 0.16667918860912323], [0.10211489349603653, -0.1474076509475708, -0.0004343249020166695, -0.02675970084965229, 0.07489807158708572], [-0.05558503419160843, 0.06544317305088043, -0.26824551820755005, 0.15302632749080658, 0.017958931624889374], [0.0601138137280941, -0.18497349321842194, -0.0362238772213459, 0.14330455660820007, -0.06333670765161514], [-0.20006020367145538, 0.25350144505500793, -0.24043527245521545, 0.08099153637886047, 0.032327182590961456], [-0.15099959075450897, 0.17442481219768524, 0.1021939218044281, 0.43899112939834595, -0.37788406014442444], [0.006441314704716206, 0.04503357410430908, -0.22012357413768768, -0.0651826560497284, -0.2614922523498535], [-0.07113531976938248, 0.3656367361545563, -0.02062409557402134, -0.30753961205482483, -0.11165429651737213], [0.015016762539744377, 0.23702077567577362, -0.013125941157341003, -0.033836908638477325, 0.027478590607643127], [0.06292121857404709, 0.5166166424751282, 0.22615009546279907, 0.12012669444084167, 0.07679944485425949], [0.09671515971422195, -0.029667967930436134, -0.05226946249604225, 0.17308485507965088, 0.061478160321712494], [0.19953979551792145, -0.0019426267826929688, 0.2894209623336792, -0.0070630223490297794, -0.27583765983581543], [0.07209758460521698, -0.2961089015007019, 0.18423393368721008, -0.06250646710395813, -0.061665840446949005], [-0.11010408401489258, 0.0609770230948925, -0.19980576634407043, -0.06326833367347717, 0.31487345695495605], [0.2490653246641159, 0.2036157101392746, -0.0306488499045372, 0.19933652877807617, -0.02367638237774372], [-0.11046966910362244, -0.08815111964941025, 0.1373453438282013, 0.047320958226919174, -0.11089131236076355], [0.010717116296291351, -0.042087070643901825, -0.28342175483703613, 0.09725665301084518, -0.17838865518569946], [-0.06219566985964775, -0.1910422444343567, 0.015809357166290283, 0.14117595553398132, -0.057698238641023636], [-0.40396544337272644, -0.002099346136674285, 0.06058600917458534, -0.2587408721446991, -0.00038824239163659513], [0.22911961376667023, -0.2797395884990692, 0.0152279669418931, 0.004760008305311203, 0.18521420657634735], [-0.16766440868377686, -0.24483606219291687, 0.03877779468894005, 0.24051201343536377, 0.06011231616139412], [0.1512550264596939, -0.18648335337638855, -0.22729304432868958, 0.005424167029559612, 0.07396502792835236], [0.07864583283662796, 0.031118309125304222, 0.0716499611735344, -0.3591780364513397, -0.08009711652994156], [0.2555638551712036, -0.036373838782310486, -0.09337742626667023, 0.06411769241094589, 0.3441546559333801], [-0.14323227107524872, 0.04004911333322525, 0.12722179293632507, 0.13979272544384003, -0.1262689232826233], [0.25497251749038696, -0.14847105741500854, -0.02884545736014843, 0.11351218074560165, -0.013949399814009666], [0.15654242038726807, 0.06199880316853523, 0.3177144229412079, -0.07341460883617401, -0.10343945026397705], [0.06481212377548218, -0.012234878726303577, 0.00847478024661541, 0.07186679542064667, 0.2078806757926941], [0.26496389508247375, 0.03755297139286995, -0.07734403759241104, -0.18324467539787292, 0.026614109054207802], [0.09871615469455719, -0.13395020365715027, -3.4935790608869866e-05, -0.10752903670072556, 0.1030655950307846], [0.13584938645362854, 0.17957845330238342, 0.046886466443538666, 0.0012923780595883727, 0.4544009268283844], [-0.138604998588562, -0.03226671740412712, 0.32680827379226685, -0.009666474536061287, -0.14862588047981262], [-0.275558203458786, -0.2701675295829773, 0.26832330226898193, 0.17879065871238708, -0.018298273906111717], [0.09879866242408752, 0.10249840468168259, -0.20690177381038666, 0.1785321980714798, 0.06337007135152817], [-0.0981568768620491, 0.13557592034339905, 0.2308662086725235, 0.0842781513929367, -0.34557032585144043], [-0.018024327233433723, -0.0794452652335167, 0.19187821447849274, 0.07545020431280136, 0.10745182633399963], [0.09241543710231781, -0.07927709817886353, 0.37236732244491577, 0.043214380741119385, 0.07945308089256287], [-0.13364657759666443, -0.26243939995765686, 0.07492075115442276, 0.0697207823395729, 0.041674014180898666], [-0.09067725390195847, 0.20928609371185303, 0.03198070451617241, 0.24969534575939178, 0.12608791887760162], [0.10348817706108093, -0.136052206158638, -0.14620520174503326, -0.1297944039106369, -0.05839234218001366], [0.09410039335489273, -0.045287419110536575, -0.1341097503900528, -0.22867152094841003, -0.3743596076965332], [-0.3516206741333008, -0.36892059445381165, -0.10978645831346512, 0.16760042309761047, -0.08716769516468048], [0.19665074348449707, -0.07941616326570511, 0.24784620106220245, 0.1309272199869156, 0.23113900423049927], [0.03650312498211861, -0.06371874362230301, -0.09047108888626099, -0.2820923328399658, 0.14691390097141266], [0.24391697347164154, -0.48686546087265015, -0.12900668382644653, 0.26745229959487915, 0.14904019236564636], [-0.01010079588741064, -0.2715737223625183, -0.07424627989530563, -0.13954725861549377, -0.14214664697647095], [-0.4205785095691681, 0.06857792288064957, 0.2545827627182007, -0.31034165620803833, 0.31564512848854065], [0.2151278555393219, 0.11003540456295013, -0.16518940031528473, -0.19858011603355408, 0.00472973333671689], [-0.08022915571928024, 0.007468939293175936, -0.14140330255031586, 0.36732086539268494, 0.1414112150669098]], "mlp_extractor.policy_net.0.bias": [0.00478027667850256, -0.025204457342624664, 0.008282164111733437, 0.0010527187259867787, -0.0036208713427186012, 0.005863558501005173, -0.003940464463084936, -0.022609783336520195, -0.007167565170675516, -0.038662075996398926, 0.020982570946216583, -0.006396240554749966, 0.01924929954111576, 0.020988214761018753, 0.05414893105626106, 0.010507273487746716, 0.0049018580466508865, 0.011265437118709087, 0.004930445924401283, 0.020500509068369865, -0.047701649367809296, -0.0016553063178434968, 0.03695577755570412, 0.01006899494677782, 0.02285158447921276, 0.019925691187381744, 0.05191543325781822, 0.012477540411055088, 0.02762259915471077, -0.018925806507468224, -0.006575966253876686, -0.01080268993973732, -0.01639825664460659, 0.032624803483486176, -0.0045766825787723064, -0.024836208671331406, -0.02153250016272068, -0.010405777022242546, -0.017745262011885643, -0.01822155900299549, -0.0043344697915017605, 0.04551131650805473, -0.030433841049671173, -0.003816518932580948, 0.03465589880943298, 0.031051110476255417, 0.03499658405780792, 0.04794606566429138, 0.0016052392311394215, -0.05362648889422417, 0.0005051231128163636, 0.005655908491462469, 0.024896837770938873, 0.008697248995304108, 0.031003659591078758, 0.04606521129608154, 0.023920446634292603, -0.02751331403851509, 0.05273005738854408, -0.04526534304022789, 0.0249628908932209, 0.024320241063833237, 0.026614785194396973, 9.97376482700929e-05], "mlp_extractor.policy_net.2.weight": [[0.07433385401964188, -0.028250135481357574, -0.08876008540391922, 0.20883461833000183, -0.17909829318523407, 0.03403756394982338, -0.03400281444191933, 0.04730004444718361, -0.15938730537891388, -0.14696548879146576, -0.12381847202777863, 0.15367451310157776, 0.22399646043777466, 0.10643304139375687, -0.3684404492378235, 0.14091210067272186, -0.07368002831935883, -0.06512139737606049, 0.12662427127361298, -0.22332437336444855, -0.06368150562047958, -0.12807214260101318, 0.04905512183904648, 0.055151648819446564, -0.012907427735626698, -0.41970089077949524, 0.06185310706496239, 0.14084310829639435, 0.1581096649169922, 0.013992165215313435, -0.19437749683856964, 0.4081180691719055, -0.2860511541366577, 0.1544361114501953, -0.13324086368083954, -0.057080090045928955, -0.06433456391096115, 0.014287133701145649, 0.1383643001317978, -0.2990858256816864, -0.08558390289545059, 0.404183566570282, -0.02783186174929142, -0.391000896692276, 0.1332075148820877, -0.0579797625541687, 0.002159274648874998, -0.09763536602258682, 0.16842931509017944, -0.043366193771362305, 0.34628915786743164, -0.2905011773109436, -0.06000558286905289, 0.05590745061635971, -0.07877354323863983, 0.1259429007768631, -0.04042806476354599, 0.15545211732387543, -0.2778184413909912, 0.1168716624379158, 0.10649313777685165, -0.2039777785539627, -0.2868150770664215, -0.07605946809053421], [0.2891678810119629, 0.08897468447685242, 0.13567720353603363, 0.09329891949892044, 5.3835054131923243e-05, 0.437356561422348, -0.005670201499015093, 0.18964926898479462, -0.1206405758857727, -0.12460649758577347, 0.3157629370689392, 0.21535535156726837, -0.10719405859708786, -0.3241230845451355, 0.09401625394821167, -0.2701973617076874, -0.07022759318351746, 0.024722496047616005, 0.08591197431087494, 0.14536090195178986, 0.02458738163113594, -0.05304127559065819, -0.0212568249553442, 0.14537841081619263, 0.005548523738980293, 0.030716774985194206, -0.23726831376552582, -0.024201521649956703, 0.011395194567739964, -0.061088696122169495, -0.04042251780629158, -0.33555129170417786, -0.060223065316677094, 0.2091865986585617, 0.2281629741191864, 0.33907464146614075, 0.21052619814872742, -0.26760128140449524, 0.15247482061386108, -0.17071883380413055, 0.00026370660634711385, 0.01306065358221531, 0.22583156824111938, 0.1259276270866394, -0.029804548248648643, 0.07479138672351837, 0.04335672780871391, 0.16781620681285858, 0.146465003490448, -0.11233296990394592, 0.08715660870075226, -0.3041251599788666, 0.11566334217786789, 0.164217010140419, 0.39318180084228516, 0.1541600376367569, -0.05411294102668762, 0.28454095125198364, -0.20024091005325317, -0.07946278899908066, -0.006296343170106411, 0.12126422673463821, -0.13100552558898926, 0.29995736479759216], [-0.027725782245397568, 0.21043460071086884, -0.058903492987155914, 0.24205578863620758, 0.11874227225780487, -0.07279106974601746, -0.32397621870040894, 0.02249753661453724, -0.20533764362335205, -0.018319427967071533, 0.14566780626773834, 0.015767566859722137, -0.17110662162303925, -0.06599416583776474, 0.2834031283855438, -0.05745529383420944, 0.019439253956079483, -0.09639885276556015, -0.21137724816799164, -0.0712815523147583, -0.18311744928359985, 0.017844239249825478, -0.18193867802619934, 0.03015139326453209, 0.3048553168773651, 0.15065541863441467, -0.019753621891140938, 0.015530266799032688, 0.11764487624168396, -0.40565210580825806, 0.1386977583169937, -0.01458344329148531, -0.1254686862230301, -0.16983811557292938, -0.23571501672267914, 0.014379916712641716, -0.2558566927909851, 0.15427814424037933, -0.1523708552122116, -0.18396548926830292, 0.1544572412967682, -0.143966406583786, 0.06652633845806122, -0.4093877673149109, 0.31805750727653503, 0.15980470180511475, 0.05534341558814049, 0.44743701815605164, 0.22913002967834473, 0.21114665269851685, 0.04948008432984352, 0.19258254766464233, -0.164134681224823, -0.1870007961988449, 0.15037575364112854, -0.06520981341600418, 0.1663799285888672, -0.037714987993240356, -0.05800425261259079, 0.25529760122299194, 0.12260635197162628, -0.002589369658380747, -0.288038969039917, 0.05846549943089485], [-0.3183312714099884, 0.17031331360340118, 0.14675071835517883, -0.13277265429496765, 0.11638601869344711, -0.26067042350769043, 0.03793231025338173, -0.15657420456409454, -0.03336889669299126, -0.027458632364869118, -0.3360527455806732, -0.049588561058044434, 0.12640491127967834, 0.024325786158442497, 0.3199825584888458, -0.052937883883714676, -0.3719683587551117, -0.006567107047885656, -0.2283894121646881, -0.18937687575817108, 0.10740108042955399, -0.3087864816188812, 0.007158857770264149, 0.1633366495370865, 0.007969653233885765, -0.12316101044416428, -0.1389361172914505, -0.47344887256622314, -0.021258119493722916, -0.08802110701799393, -0.07289443165063858, -0.17258873581886292, -0.07683293521404266, 0.13597677648067474, -0.039561036974191666, -0.14865323901176453, -0.28328943252563477, -0.0025593263562768698, -0.004557243548333645, 0.06770523637533188, 0.17969195544719696, 0.03498552367091179, 0.01977710798382759, -0.37077319622039795, 0.03055528923869133, -0.3106211721897125, 0.031555939465761185, -0.11876704543828964, -0.15236742794513702, -0.33178380131721497, -0.013178598135709763, -0.2360261082649231, 0.040078241378068924, 0.3128682076931, 0.28086450695991516, 0.1262696236371994, -0.007846487686038017, -0.002585102105513215, -0.11829043179750443, -0.21038846671581268, -0.05109124630689621, -0.09648657590150833, 0.23846115171909332, 0.2126493901014328], [0.008710796944797039, 0.14294008910655975, -0.029079709202051163, -0.018410643562674522, -0.1299552023410797, -0.09200940281152725, -0.6290582418441772, 0.05256348475813866, 0.11118748784065247, -0.11764638125896454, -0.09513487666845322, -0.10609997063875198, 0.13304615020751953, 0.11281611770391464, -0.4638974666595459, -0.12183208018541336, 0.07702799141407013, -0.05800696462392807, 0.21323354542255402, 0.02018616907298565, 0.0007003725040704012, 0.03669581934809685, 0.15109685063362122, -0.11426716297864914, -0.1350647658109665, 0.13831287622451782, -0.12639062106609344, -0.02673325501382351, -0.04049820825457573, 0.22763502597808838, -0.16192948818206787, -0.0031923565547913313, -0.0796714499592781, -0.01437967550009489, -0.2504708766937256, 0.3395342230796814, -0.2603372633457184, 0.12683476507663727, -0.15448720753192902, -0.05251844972372055, -0.05108175799250603, -0.3107905983924866, -0.005566130392253399, -0.051832444965839386, -0.0026547741144895554, -0.10090283304452896, 0.06485091894865036, 0.13436415791511536, -0.28699836134910583, 0.06392135471105576, -0.276043564081192, -0.14199043810367584, -0.12095843255519867, 0.021251654252409935, 0.05409368872642517, -0.21871210634708405, -0.154052734375, 0.19606998562812805, 0.12590278685092926, -0.4110349118709564, 0.061497218906879425, -0.05232178792357445, -0.2837720513343811, 0.24873360991477966], [0.056930314749479294, -0.12029710412025452, 0.056613508611917496, -0.4099838137626648, 0.0031987514812499285, -0.2016359567642212, 0.215565487742424, -0.3210999667644501, -0.19236557185649872, -0.002918519778177142, 0.12084084749221802, -0.07454380393028259, 0.018194491043686867, 0.3356511890888214, -0.10848665982484818, 0.12182048708200455, -0.0024908524937927723, -0.0265726950019598, -0.032159000635147095, 0.06866609305143356, -0.1816241592168808, -0.09919659793376923, 0.0349913015961647, -0.005522933788597584, 0.09547867625951767, 0.1292267143726349, -0.10870545357465744, -0.1966239959001541, 0.20044992864131927, -0.28266340494155884, -0.38980504870414734, -0.16684377193450928, 0.040239885449409485, -0.24744394421577454, -0.10057172179222107, 0.17317278683185577, -0.2879343330860138, -0.11962613463401794, 0.07991369068622589, 0.3411882519721985, -0.21995756030082703, 0.08391429483890533, 0.3739718198776245, 0.10100240260362625, -0.1849338561296463, 0.14145231246948242, 0.18658311665058136, -0.20679575204849243, 0.08052679896354675, 0.16303807497024536, 0.3542720079421997, -0.19465786218643188, 0.050327230244874954, 0.06875316053628922, -0.0004085070395376533, -0.22500751912593842, 0.04506094381213188, 0.1500169187784195, 0.16540414094924927, 0.17261093854904175, 0.1264011710882187, -0.06859984993934631, -0.1767885386943817, 0.09804382920265198], [-0.005407004151493311, -0.06157978996634483, 0.40405869483947754, -0.051626790314912796, -0.07430615276098251, -0.25647565722465515, -0.15315479040145874, 0.08686280250549316, -0.03350548446178436, -0.24283179640769958, 0.288278728723526, -0.028209252282977104, 0.1984671801328659, 0.013481209054589272, 0.20488294959068298, -0.27660590410232544, 0.22450529038906097, -0.029212739318609238, -0.1768161505460739, 0.12323503941297531, 0.13356263935565948, 0.05258623883128166, -0.07522383332252502, -0.025942208245396614, -0.12810473144054413, 0.029256580397486687, 0.20795170962810516, 0.3877292573451996, -0.006406593136489391, 0.131146639585495, -0.08473528921604156, 0.09245599806308746, 0.0021984309423714876, 0.1853126436471939, -0.18003328144550323, -0.03704657405614853, 0.07350583374500275, 0.44845297932624817, 0.2354728877544403, 0.24389979243278503, 0.20702198147773743, 0.28272131085395813, 0.6026974320411682, 0.1616499274969101, -0.0702614113688469, -0.010426613502204418, 0.014660858549177647, 0.047739140689373016, 0.01515110582113266, -0.36745673418045044, -0.17968568205833435, 0.04430767893791199, -0.038499318063259125, -0.16898004710674286, 0.020987622439861298, 0.01269744336605072, 0.1563047468662262, -0.1464909166097641, -0.14178086817264557, 0.033792201429605484, -0.01328728161752224, 0.04277867451310158, -0.05931885167956352, 0.054045941680669785], [-0.00357773806899786, -0.05431687831878662, 0.02510090544819832, -0.215345099568367, 0.3777189552783966, 0.3543148338794708, -0.057595495134592056, 0.09073075652122498, 0.29096734523773193, -0.004444833379238844, -0.047995682805776596, 0.12831898033618927, 0.26027435064315796, -0.19466093182563782, -0.0999806746840477, -0.2051355242729187, -0.10149397701025009, -0.14886124432086945, -0.17646463215351105, 0.16806118190288544, -0.13561037182807922, -0.10452619940042496, -0.025759778916835785, -0.38548094034194946, 0.09490274637937546, -0.06082981452345848, -0.0517364963889122, -0.045424096286296844, 0.39861780405044556, 0.05284242704510689, -0.22725671529769897, -0.05963502451777458, 0.041503168642520905, -0.2653219997882843, -0.1967248022556305, -0.08158186823129654, -0.20875129103660583, 0.10768332332372665, 0.17641949653625488, 0.21396228671073914, -0.018749838694930077, 0.281732976436615, -0.24369151890277863, 0.1609790325164795, 0.18652674555778503, -0.26352545619010925, -0.184333935379982, 0.07600055634975433, 0.030384819954633713, 0.10607966035604477, 0.15435880422592163, 0.0037483617197722197, -0.4062913954257965, 0.16620677709579468, 0.043132390826940536, 0.15337792038917542, 0.07428082823753357, 0.04075552895665169, 0.06272588670253754, -0.10275974869728088, -0.02221135050058365, 0.3327411711215973, 0.20351001620292664, -0.08798691630363464], [-0.11235439032316208, -0.3126288056373596, 0.23572878539562225, -0.020300114527344704, -0.08044612407684326, -0.2615460455417633, -0.24322088062763214, 0.1737334132194519, -0.19427722692489624, 0.07309363782405853, -0.25919145345687866, 0.0926104336977005, -0.13759148120880127, -0.11243389546871185, -0.01827671378850937, 0.055849649012088776, -0.05981743708252907, -0.04058423265814781, 0.11841259151697159, 0.1456548273563385, 0.07359766960144043, -0.08658885955810547, 0.14403694868087769, -0.1553441286087036, 0.16033196449279785, -0.009116452187299728, -0.30470967292785645, -0.09479382634162903, -0.1693699210882187, 0.3211778700351715, 0.10187792032957077, 0.18122225999832153, 0.06595255434513092, -0.2377440631389618, -0.0006088417139835656, -0.30886173248291016, 0.2161393165588379, -0.21469494700431824, 0.3035030663013458, 0.1542220413684845, -0.19393953680992126, -0.04429158195853233, 0.035339560359716415, 0.3336670696735382, 0.421602725982666, 0.21209989488124847, -0.11936187744140625, 0.22151511907577515, 0.05850866809487343, -0.2818078100681305, 0.11688214540481567, 0.03780115395784378, -0.10148033499717712, -0.06429466605186462, 0.19533653557300568, -0.1549951583147049, -0.025650586932897568, 0.019169088453054428, -0.017186271026730537, 0.19592227041721344, 0.23622001707553864, -0.11980503797531128, 0.12776689231395721, 0.21417689323425293], [-0.056529175490140915, -0.3434754014015198, 0.027571415528655052, -0.09368102252483368, 0.09962868690490723, 0.04788399115204811, 0.04042535275220871, -0.23453322052955627, -0.022686373442411423, 0.04974966123700142, 0.23035313189029694, -0.33342674374580383, 0.25292032957077026, 0.17097929120063782, 0.03170831874012947, -0.231863334774971, -0.3609822392463684, -0.28590041399002075, -0.10792243480682373, 0.001281811622902751, -0.17609088122844696, 0.04535387456417084, 0.05508749186992645, 0.07754724472761154, 0.48703503608703613, 0.0677756518125534, -0.2038544863462448, 0.01470576785504818, -0.22650960087776184, 0.07758129388093948, 0.008064460940659046, -0.061146654188632965, -0.4063929319381714, 0.081269770860672, 0.19759304821491241, 0.031023958697915077, 0.27415603399276733, -0.00995512306690216, -0.17267906665802002, 0.0686035007238388, -0.0610017254948616, 0.28213655948638916, -0.1718752235174179, -0.10615180432796478, 0.13833852112293243, -0.035968516021966934, -0.30214637517929077, -0.08946302533149719, 0.006127864588052034, 0.132395938038826, -0.14113010466098785, -0.06745799630880356, 0.1178729310631752, -0.1756030172109604, -0.16805757582187653, 0.041997723281383514, 0.0035731622483581305, -0.19416671991348267, 0.02495223470032215, -0.286456435918808, 0.20088405907154083, 0.009558510035276413, -0.17319801449775696, 0.25013595819473267], [-0.08830733597278595, 0.0396026149392128, -0.2138858586549759, 0.036665841937065125, -0.3013496994972229, -0.14442531764507294, -0.15580551326274872, -0.09035451710224152, 0.13442811369895935, 0.08478029072284698, -0.13859474658966064, 0.0010110154980793595, -0.01433807797729969, -0.08576511591672897, 0.3375498056411743, -0.18227383494377136, -0.022622814401984215, 0.040325798094272614, 0.03836565464735031, -0.1514492630958557, -0.1898965984582901, 0.09453733265399933, -0.26351165771484375, -0.19918836653232574, -0.08463499695062637, -0.36534079909324646, -0.1542963832616806, 0.16160552203655243, -0.2147890329360962, 0.022041164338588715, 0.05642910674214363, -0.17469726502895355, 0.06887208670377731, -0.3187098205089569, 0.1133769303560257, 0.3408740162849426, 0.19610078632831573, 0.2818717956542969, 0.16465893387794495, -0.08920565247535706, 0.03920784592628479, 0.17333604395389557, -0.12380935996770859, 0.1911514848470688, -0.22111009061336517, -0.04246697947382927, -0.14919108152389526, 0.06367556750774384, -0.2754235565662384, -0.04855682700872421, 0.027232589200139046, -0.05443665385246277, -0.06642993539571762, 0.09051009267568588, 0.06568239629268646, 0.20810464024543762, 0.09454910457134247, 0.1229296624660492, 0.3173828125, 0.3991335332393646, -0.08899012207984924, -0.3321351706981659, -0.35597750544548035, 0.1287553459405899], [-0.2663724422454834, -0.12136079370975494, 0.2389666587114334, 0.14212745428085327, 0.4119686782360077, -0.13662496209144592, 0.02056306041777134, 0.32704269886016846, -0.22566790878772736, -0.10645374655723572, -0.1070050522685051, -0.21846376359462738, -0.10676682740449905, 0.12920735776424408, 0.002631936687976122, -0.018409689888358116, 0.09993349015712738, 0.0780758336186409, 0.105875663459301, -0.05973333492875099, -0.02686559595167637, 0.013193388469517231, -0.353274405002594, 0.09271864593029022, 0.08035489916801453, -0.11897654086351395, 0.03366238996386528, 0.27617204189300537, 0.006612008903175592, -0.1970391422510147, -0.025058316066861153, -0.1003713309764862, 0.1852322667837143, 0.22910171747207642, 0.06482043862342834, -0.00704614631831646, 0.06589679419994354, -0.27389198541641235, 0.1708434820175171, 0.03304773569107056, 0.2501896917819977, -0.02906643971800804, -0.025587456300854683, 0.22012266516685486, 0.17170825600624084, -0.02145000733435154, 0.08167938143014908, -0.18208752572536469, -0.3566811680793762, 0.2029653638601303, -0.19442254304885864, 0.20449836552143097, -0.17158682644367218, -0.030537890270352364, -0.2636363208293915, 0.06136767566204071, 0.10947904735803604, 0.6471032500267029, -0.05901778116822243, -0.025600837543606758, 0.043779753148555756, -0.012674902565777302, -0.1981857866048813, 0.02858525700867176], [-0.2912217378616333, -0.10090738534927368, -0.24910463392734528, -0.2508924901485443, -0.18556946516036987, 0.04751062020659447, 0.22541020810604095, 0.054508909583091736, -0.07368539273738861, -0.15550391376018524, -0.10337954014539719, -0.04047203063964844, -0.06924907863140106, -0.34906327724456787, 0.059689898043870926, -0.11390834301710129, -0.21659669280052185, -0.03079177252948284, 0.30921828746795654, -0.2482878714799881, 0.055976737290620804, 0.2580065429210663, -0.16601550579071045, -0.15041425824165344, 0.05735817179083824, 0.07506555318832397, 0.445738822221756, -0.2296273559331894, 0.2667655944824219, -0.055064208805561066, -0.02253565937280655, 0.03235115110874176, -0.10814004391431808, -0.002629515016451478, -0.16098810732364655, 0.15135537087917328, 0.09142450243234634, -0.12095925956964493, -0.29893776774406433, 0.23610371351242065, -0.25579532980918884, 0.1332976222038269, -0.04453464224934578, 0.03683497756719589, 0.2025102972984314, -0.06253234297037125, 0.46432289481163025, 0.29451537132263184, 0.13716356456279755, -0.14740534126758575, -0.199259415268898, -0.1453736275434494, 0.08714090287685394, -0.00841748807579279, -0.02954917587339878, -0.01397700421512127, 0.15539537370204926, 0.02142651379108429, -0.08298654854297638, -0.21060939133167267, 0.08307254314422607, -0.2500818073749542, -0.17060944437980652, -0.043416667729616165], [-0.24638386070728302, -0.1715165078639984, 0.15039321780204773, -0.03465019166469574, 0.3202814757823944, 0.15847884118556976, 0.11996286362409592, -0.2446974515914917, 0.08262263238430023, 0.014906077645719051, -0.04856936261057854, 0.35912054777145386, 0.0367172509431839, -0.17932528257369995, 0.15202246606349945, -0.05421571433544159, 0.034088682383298874, 0.08386669307947159, 0.008048308081924915, -0.13992755115032196, -0.28333231806755066, -0.121750608086586, -0.05640200525522232, 0.043533675372600555, -0.1749916970729828, -0.04181063547730446, -0.34158769249916077, 0.005988588090986013, 0.07934898138046265, 0.025873733684420586, -0.23532317578792572, 0.14700227975845337, 0.14016684889793396, 0.08821401745080948, -0.058793094009160995, 0.04203905537724495, 0.17294307053089142, 0.23788434267044067, 0.1964941918849945, -0.16985338926315308, 0.011484143324196339, 0.04702511802315712, -0.24468371272087097, 0.016450129449367523, -0.1700534075498581, 0.034953005611896515, 0.17732544243335724, -0.04094509780406952, -0.0030060966964811087, -0.059135571122169495, 0.050734639167785645, 0.3040953576564789, 0.22397419810295105, -0.39730024337768555, 0.229681134223938, -0.48398441076278687, -0.08367461711168289, -0.04220854490995407, -0.14470335841178894, -0.3599677085876465, 0.11006511747837067, -0.14647281169891357, -0.2706835865974426, -0.08631165325641632], [-0.13326223194599152, 0.07052277773618698, 0.47273537516593933, 0.16129757463932037, -0.1224215030670166, 0.011411493644118309, -0.23140807449817657, 0.028567951172590256, -0.3318997025489807, -0.3709515929222107, 0.1791737973690033, -0.0034806490875780582, -0.04037126898765564, -0.13925379514694214, -0.21628832817077637, 0.20834936201572418, 0.09418005496263504, -0.07034896314144135, 0.05958445370197296, 0.1718113273382187, -0.11158011108636856, 0.22582674026489258, -0.021039459854364395, -0.13530263304710388, -0.20822982490062714, -0.019354909658432007, -0.06724803894758224, -0.024799901992082596, 0.07751420140266418, -0.4576696753501892, 0.034932322800159454, -0.08801659941673279, -0.04922163486480713, -0.17902596294879913, -0.047163840383291245, 0.057915281504392624, 0.13548614084720612, -0.1301506906747818, 0.022573836147785187, 0.0348517931997776, -0.26614612340927124, 0.2825269401073456, -0.3390792906284332, -0.15996795892715454, -0.06334615498781204, -0.029534392058849335, -0.12945084273815155, -0.11041174083948135, -0.3499784469604492, -0.10867571085691452, -0.06027662009000778, -0.010432682000100613, 0.217916801571846, 0.19259145855903625, 0.0162391047924757, 0.08882101625204086, 0.2599327564239502, -0.3892704248428345, 0.06272923201322556, -0.10049545019865036, 0.045734383165836334, 0.0869474858045578, 0.16114479303359985, -0.06786374002695084], [0.1685519516468048, 0.2781320810317993, -0.1314510852098465, 0.025727270171046257, -0.014149743132293224, -0.30432042479515076, 0.1414327472448349, 0.25006112456321716, -0.1238783746957779, 0.08629930764436722, 0.02795318514108658, 0.021829329431056976, 0.09181031584739685, -0.10405395179986954, -0.026165129616856575, -0.07958727329969406, -0.17780126631259918, -0.23495562374591827, -0.2994079291820526, 0.2960653603076935, -0.18057051301002502, 0.1706809401512146, 0.11507030576467514, -0.016014529392123222, -0.24775607883930206, 0.0064595951698720455, -0.027026858180761337, -0.5172150135040283, -0.0050146253779530525, -0.028562428429722786, 0.1280665248632431, -0.05150577798485756, 0.37448209524154663, 0.07885704934597015, -0.022948432713747025, -0.0588533915579319, 0.013299217447638512, -0.008710728026926517, 0.26949042081832886, -0.02297339215874672, -0.07632672041654587, -0.02642517350614071, 0.004990692716091871, -0.07972452044487, -0.002114838920533657, 0.02962510846555233, -0.1923101395368576, -0.055606380105018616, 0.2062366008758545, 0.06911778450012207, 0.018948862329125404, -0.026163937523961067, -0.017440995201468468, 0.256413072347641, -0.42096441984176636, -0.09165244549512863, 0.03256074711680412, -0.1007770523428917, -0.10067841410636902, -0.3445066213607788, 0.19712236523628235, -0.17277181148529053, -0.4339619576931, -0.11045905947685242], [-0.008885739371180534, 0.11489647626876831, -0.03893112763762474, 0.03411280736327171, 0.287521630525589, -0.07425400614738464, 0.10985612124204636, 0.08151176571846008, 0.07281440496444702, -0.007608664222061634, -0.07037781924009323, 0.020907582715153694, 0.23764857649803162, 0.22772479057312012, 0.02131371572613716, 0.2872699499130249, -0.23256373405456543, -0.18728891015052795, 0.2719878554344177, -0.03239358216524124, 0.321066290140152, 0.15427905321121216, -0.20205016434192657, 0.06661481410264969, -0.1058720126748085, 0.2822892963886261, -0.18472878634929657, 0.07026690244674683, -0.09900679439306259, -0.170301154255867, 0.03300713747739792, 0.1728597730398178, -0.3502103090286255, -0.4095008671283722, 0.1056947261095047, 0.3190765082836151, 0.08826091140508652, 0.1880367249250412, 0.3376532793045044, -0.07583577930927277, 0.22160881757736206, -0.07176404446363449, 0.14508768916130066, 0.37288373708724976, 0.10874639451503754, 0.060019902884960175, 0.08897732198238373, -0.13640013337135315, 0.21233394742012024, 0.1339837908744812, -0.1448381543159485, 0.1245630532503128, -0.06177764758467674, 0.2986242175102234, 0.205788716673851, 0.11868844926357269, -0.09062600880861282, -0.18222729861736298, -0.19758573174476624, -0.11057934165000916, -0.0001594176865182817, -0.1319189816713333, 0.053428709506988525, -0.21191994845867157], [0.041835248470306396, 0.2993358373641968, -0.17996945977210999, -0.1411232054233551, -0.28596368432044983, -0.03154642507433891, -0.12863081693649292, -0.29869112372398376, -0.3048047423362732, 0.2371504157781601, -0.14386224746704102, -0.04003819078207016, -0.11242865771055222, -0.16138122975826263, -0.09262397885322571, 0.029270319268107414, 0.10765960067510605, 0.0989227443933487, -0.021205391734838486, 0.04448702186346054, -0.21856679022312164, 0.4464721977710724, -0.3057577311992645, 0.008755066432058811, 0.3542020320892334, 0.275369256734848, -0.19239991903305054, 0.11931828409433365, -0.10488013178110123, 0.20885761082172394, -0.18552765250205994, -0.1813271939754486, -0.1786714643239975, 0.4044647812843323, -0.1479475349187851, -0.1649789959192276, 0.13201554119586945, -0.04847419261932373, 0.3807844817638397, -0.00852993968874216, 0.15694989264011383, 0.13827772438526154, 0.012379557825624943, -0.06084022298455238, 0.017040129750967026, -0.10302906483411789, 0.25404438376426697, -0.10631908476352692, 0.034394875168800354, 0.013995763845741749, 0.10648714751005173, 0.0926431193947792, -0.09614308178424835, 0.11719752103090286, 0.1440160870552063, 0.17411737143993378, -0.07981442660093307, 0.026300771161913872, 0.12306609004735947, -0.16464608907699585, 0.12818986177444458, 0.20228151977062225, 0.07346579432487488, -0.15497589111328125], [-0.3380786180496216, -0.18909259140491486, -0.17150333523750305, 0.22764088213443756, 0.10181397944688797, 0.09525889903306961, -0.22658048570156097, 0.09165077656507492, 0.012888672761619091, 0.022296078503131866, 0.17756418883800507, 0.13145820796489716, -0.054752741008996964, 0.019033631309866905, 0.03519999235868454, 0.26241427659988403, -0.1235894113779068, 0.1064523458480835, 0.06254736334085464, -0.12781111896038055, -0.3081299662590027, -0.105189748108387, -0.04975851625204086, 0.06165856495499611, 0.04424135014414787, 0.053873442113399506, -0.02887103706598282, -0.045864321291446686, -0.0969838947057724, 0.2201773226261139, -0.07272939383983612, -0.03611314669251442, 0.4130907952785492, -0.18372823297977448, 0.03085746057331562, 0.07852304726839066, -0.025722261518239975, 0.06865757703781128, 0.15711134672164917, -0.2331123799085617, -0.22093994915485382, 0.16593368351459503, 0.5420616269111633, -0.1416303515434265, -0.07929261773824692, 0.05707614868879318, 0.13057895004749298, 0.1750982254743576, -0.13296003639698029, 0.296752393245697, -0.1838012933731079, -0.23083798587322235, 0.05843844264745712, -0.0962287038564682, -0.1821478307247162, 0.26334694027900696, 0.08120504766702652, -0.08512360602617264, 0.09855913370847702, -0.20092961192131042, 0.10500697046518326, -0.09962782263755798, 0.4439857304096222, -0.1594214290380478], [-0.07705029100179672, 0.24276842176914215, -0.2906839847564697, 0.41031014919281006, 0.16508138179779053, 0.10841239243745804, 0.07526181638240814, -0.0364583283662796, -0.11146842688322067, -0.12505799531936646, -0.2181818187236786, 0.2553904950618744, -0.19451293349266052, 0.14875677227973938, -0.17132051289081573, -0.10527268797159195, -0.23518645763397217, 0.20150019228458405, -0.04735444858670235, 0.49284306168556213, 0.08105099201202393, -0.1592898815870285, 0.022117696702480316, 0.06644956767559052, 0.3431883752346039, 0.3518082797527313, -0.018686752766370773, -0.17009799182415009, 0.2056976705789566, -0.10752520710229874, 0.06806976348161697, 0.2950340211391449, -0.1248634085059166, -0.06960409879684448, -0.15411199629306793, -0.10020636767148972, 0.05269618704915047, 0.1690903753042221, -0.021495265886187553, 0.13026446104049683, -0.08168646693229675, 0.18736210465431213, 0.029980164021253586, 0.18123191595077515, -0.3407403528690338, -0.3116377294063568, -0.050065938383340836, -0.056348565965890884, -0.029463276267051697, -0.1575096696615219, -0.025601167231798172, 0.002052497351542115, 0.2370123416185379, -0.04947228729724884, -0.20361512899398804, -0.022280262783169746, 0.07258669286966324, 0.11500106751918793, 0.20172235369682312, 0.013852545991539955, -0.16581885516643524, -0.17549391090869904, -0.03206608444452286, 0.22006507217884064], [-0.038433197885751724, -0.18176576495170593, 0.09725775569677353, 0.19433929026126862, -0.2842376232147217, 0.22102701663970947, -0.019400034099817276, 0.05994158983230591, 0.07693011313676834, 0.1791776567697525, 0.19595131278038025, -0.32907214760780334, 0.01381988450884819, 0.1270851492881775, -0.3169398307800293, -0.17007923126220703, -0.2992522418498993, 0.011194420047104359, -0.27390623092651367, -0.45857200026512146, -0.15817564725875854, -0.01781010441482067, -0.013900533318519592, 0.29149964451789856, -0.10450983792543411, 0.21030622720718384, -0.21009846031665802, -0.17006701231002808, 0.03667068853974342, -0.02555803582072258, 0.002137198578566313, 0.068794384598732, 0.006547083146870136, -0.12404369562864304, -0.29979225993156433, -0.183797225356102, 0.10145435482263565, -0.1006542518734932, 0.040249064564704895, -0.051510535180568695, -0.059954363852739334, -0.022960012778639793, -0.004973071627318859, 0.1273173689842224, -0.26941409707069397, -0.02318398840725422, 0.12629660964012146, 0.02567027136683464, 0.16255639493465424, -0.24175992608070374, -0.23382055759429932, 0.22949859499931335, -0.15868599712848663, 0.36418017745018005, 0.05677705630660057, -0.22143712639808655, 0.22731029987335205, 0.14641474187374115, -0.01790003478527069, 0.2450421154499054, -0.1975129395723343, 0.09570235013961792, -0.015086584724485874, -0.18358346819877625], [0.024834832176566124, -0.075479656457901, 0.01013502012938261, -0.008970710448920727, -0.09734514355659485, 0.23284079134464264, 0.15510141849517822, -0.05415752902626991, -0.011254716664552689, -0.025192415341734886, -0.1295742690563202, -0.18251194059848785, 0.026426810771226883, 0.08063523471355438, -0.07580988854169846, 0.1679200977087021, 0.2623363435268402, -0.2811890244483948, -0.4514579772949219, 0.25934088230133057, 0.18786180019378662, 0.21690401434898376, -0.43071138858795166, -0.24095985293388367, 0.014183973893523216, -0.009299088269472122, -0.04902665689587593, -0.12450172752141953, 0.04203375428915024, 0.20385783910751343, -0.09580865502357483, 0.2340436428785324, 0.15214303135871887, -0.09293173998594284, -0.04402497783303261, 0.24423755705356598, 0.32103651762008667, -0.0862751230597496, -0.030798155814409256, 0.036083899438381195, 0.1555166095495224, -0.1404620110988617, 0.08168355375528336, -0.2716428339481354, 0.022815877571702003, 0.06032834202051163, -0.29987189173698425, -0.047208335250616074, -0.05500120297074318, 0.02931605651974678, -0.11069660633802414, -0.1841750144958496, 0.05460090562701225, -0.18524649739265442, 0.3053952157497406, -0.18033334612846375, 0.25806179642677307, 0.30564069747924805, -0.11675524711608887, -0.00509869959205389, -0.13626441359519958, -0.32350867986679077, 0.2679682672023773, -0.08019343763589859], [0.0890476405620575, -0.20259493589401245, 0.023351838812232018, 0.26022469997406006, -0.011867008171975613, -0.29538506269454956, 0.043527208268642426, 0.11924346536397934, -0.056428030133247375, 0.07266093790531158, -0.301085501909256, -0.1218458041548729, 0.009910164400935173, -0.12903790175914764, 0.0007621904951520264, -0.21497665345668793, 0.09352190792560577, -0.1691177934408188, -0.050611454993486404, 0.09430071711540222, 0.23556305468082428, -0.3065986931324005, 0.24794228374958038, -0.03556358441710472, 0.16449208557605743, 0.04515771195292473, -0.16626925766468048, 0.06134674325585365, 0.4771935045719147, 0.12809434533119202, 0.19579991698265076, -0.11956452578306198, -0.15762180089950562, 0.17925545573234558, 0.1485287994146347, 0.14755289256572723, 0.03563490882515907, 0.0462464913725853, 0.0033632966224104166, 0.038039907813072205, -0.14733578264713287, 0.10803420096635818, -0.004352665971964598, -0.1691323220729828, -0.3692084550857544, 0.23426540195941925, 0.3037870526313782, 0.15395915508270264, -0.30373692512512207, 0.4051001965999603, -0.14264991879463196, -0.005714264698326588, -0.05887318775057793, 0.1720781922340393, 0.18566080927848816, -0.027743104845285416, -0.0031308066099882126, -0.10909153521060944, -0.048374660313129425, 0.15847596526145935, 0.1395203024148941, -0.07090822607278824, -0.02518751285970211, -0.402141809463501], [0.11038962006568909, -0.18570125102996826, -0.06566547602415085, -0.2686806321144104, -0.2686697840690613, -0.0918969213962555, -0.12577645480632782, 0.2324845790863037, 0.13678038120269775, -0.1587020456790924, 0.036615125834941864, -0.10713817924261093, -0.36104723811149597, 0.13645730912685394, -0.12111818045377731, 0.09078555554151535, 0.15265052020549774, 0.39914262294769287, 0.1121191456913948, 0.051713280379772186, 0.06988968700170517, 0.08822982758283615, -0.03412282094359398, 0.10058175772428513, 0.5051628351211548, -0.3670215606689453, -0.11104245483875275, -0.1511354148387909, 0.17119623720645905, -0.003651165869086981, 0.10355877876281738, -0.01279942225664854, 0.3156973719596863, -0.24894416332244873, 0.08713043481111526, 0.07367264479398727, 0.021204892545938492, 0.4345722198486328, -0.10312339663505554, -0.14158301055431366, 0.23165617883205414, 0.08489016443490982, -0.034785546362400055, 0.08151262253522873, -0.034101586788892746, 0.0008606527699157596, 0.0002919283288065344, -0.07747727632522583, -0.048008136451244354, 0.11787924915552139, -0.033488210290670395, 0.1960267871618271, 0.16469717025756836, 0.20123887062072754, 0.06320572644472122, -0.04718821495771408, 0.14055299758911133, -0.05066593736410141, -0.5358187556266785, -0.11493510752916336, 0.0555422343313694, 0.14808635413646698, 0.010401890613138676, 0.02796209789812565], [0.44245004653930664, -0.35482317209243774, -0.18424656987190247, -0.1738213300704956, 0.07336875796318054, 0.11886650323867798, -0.24070943892002106, 0.06628330051898956, 0.08108464628458023, -0.08734415471553802, -0.23249860107898712, 0.28326791524887085, -0.18249629437923431, 0.16662241518497467, 0.08908543735742569, -0.022940391674637794, -0.13392895460128784, -0.19239163398742676, -0.1837843656539917, 0.02150125615298748, 0.0761561319231987, 0.19980213046073914, 0.159976527094841, 0.03497839719057083, -0.19275535643100739, -0.013438229449093342, -0.0785384476184845, 0.17493335902690887, 0.034885670989751816, -0.3130239248275757, -0.026298871263861656, 0.023167842999100685, 0.08773701637983322, -0.04275026172399521, 0.28374430537223816, -0.30524343252182007, 0.21293650567531586, 0.13139957189559937, -0.197966068983078, -0.14324574172496796, -0.048869792371988297, 0.008224220015108585, 0.1543491631746292, -0.18738533556461334, 0.09457973390817642, -0.19288615882396698, 0.3201979994773865, -0.21184177696704865, -0.015475728549063206, -0.13979360461235046, -0.20481343567371368, -0.08644510805606842, -0.1688593477010727, 0.03742130100727081, 0.028484679758548737, 0.08789052069187164, 0.3003945052623749, 0.1229238286614418, 0.2815665900707245, -0.09839757531881332, 0.29377827048301697, -0.00421058339998126, -0.0821361318230629, 0.05093175172805786], [-0.088725745677948, -0.06448794156312943, 0.008146560750901699, 0.06256591528654099, 0.02821996808052063, 0.07303836196660995, 0.01959209516644478, -0.03283742070198059, 0.012025730684399605, 0.06558394432067871, 0.0864926129579544, 0.2552196681499481, 0.18929332494735718, 0.22901253402233124, 0.10227548331022263, 0.28465813398361206, 0.06900957971811295, -0.32963278889656067, -0.04497046396136284, 0.3348032236099243, 0.030965063720941544, 0.13520298898220062, 0.21204158663749695, 0.3005404472351074, 0.052443478256464005, -0.22401368618011475, 0.30666622519493103, -0.3111248314380646, -0.002161407144740224, 0.4307432770729065, 0.01983334869146347, -0.26666146516799927, -0.22852979600429535, -0.13578438758850098, -0.16998782753944397, 0.10835305601358414, -0.17508837580680847, -0.3378795385360718, 0.029712917283177376, -0.24900062382221222, 0.1421726644039154, 0.06754336506128311, -0.1633674055337906, 0.04026295244693756, -0.16425186395645142, -0.2571696937084198, 0.4049950838088989, 0.03587516397237778, -0.0889618918299675, -0.05167306959629059, 0.04273238033056259, 0.2664252519607544, -0.037086475640535355, -0.06046443432569504, 0.02156772091984749, -0.04029465466737747, 0.36898764967918396, -0.08145882934331894, 0.010254972614347935, 0.09079378098249435, 0.13896684348583221, 0.026966001838445663, -0.09076329320669174, 0.18789032101631165], [0.10727078467607498, 0.044944193214178085, 0.028042109683156013, -0.05891638621687889, 0.17739476263523102, -0.18972662091255188, -0.1270095556974411, 0.04333540424704552, -0.024586748331785202, 0.0035501017700880766, -0.03405096009373665, 0.26781371235847473, 0.05435469374060631, -0.17452821135520935, -0.2888299524784088, 0.25449249148368835, -0.1666547805070877, 0.4035014808177948, -0.6150063276290894, -0.09155669063329697, -0.19866229593753815, 0.052971284836530685, 0.06037222966551781, 0.08286979049444199, -0.04698638617992401, -0.1485193818807602, 0.2649024426937103, -0.11384763568639755, -0.24313846230506897, -0.11329050362110138, -0.024466566741466522, 0.015203469432890415, -0.36810606718063354, 0.1158001646399498, 0.16745875775814056, 0.2721862196922302, 0.052967462688684464, -0.04110543802380562, -0.13985030353069305, 0.2386295050382614, 0.14764896035194397, 0.2218296080827713, -0.10506145656108856, 0.2713659405708313, -0.17580312490463257, 0.08223603665828705, -0.052751000970602036, 0.21959052979946136, 0.08955983072519302, 0.09427455067634583, -0.09019634127616882, -0.07098564505577087, -0.17403142154216766, 0.02756453864276409, 0.012684372253715992, -0.25249436497688293, -0.08669128268957138, 0.1081245020031929, -0.01208880078047514, -0.008801300078630447, 0.28485631942749023, -0.11968650668859482, 0.3068371117115021, 0.02344214916229248], [-0.28285741806030273, -0.2186606377363205, -0.22582706809043884, 0.030048804357647896, -0.2630308270454407, -0.25391054153442383, 0.09716831892728806, 0.05943981930613518, 0.12464792281389236, 0.13379299640655518, 0.34014391899108887, 0.22851650416851044, -0.08404336869716644, 0.11805449426174164, 0.02726360224187374, 0.0762881338596344, 0.2944056987762451, -0.024171777069568634, -0.11385844647884369, -0.10665293782949448, 0.09711731970310211, -0.285131573677063, 0.12221372872591019, -0.33094650506973267, -0.02251920849084854, 0.3699229955673218, 0.11777891963720322, 0.049225449562072754, -0.10147713869810104, -0.10908591002225876, -0.36645936965942383, 0.1645895540714264, -0.06283631920814514, 0.069456547498703, 0.22762443125247955, -0.004613456316292286, 0.2205868661403656, -0.05206465348601341, 0.3233919143676758, 0.10616745799779892, 0.2078891396522522, -0.16083255410194397, -0.2637139856815338, -0.14504913985729218, -0.05313349515199661, -0.1308225840330124, -0.04974278807640076, 0.32272106409072876, 0.012691887095570564, 0.04101962596178055, -0.07080213725566864, 0.04823700711131096, 0.13597367703914642, 0.20372678339481354, -0.024642037227749825, 0.26831936836242676, 0.11175528168678284, 0.18153418600559235, -0.16622565686702728, -0.023530099540948868, 0.07743934541940689, 0.2350011020898819, -0.17545856535434723, 0.17219030857086182], [0.15213879942893982, -0.18630574643611908, 0.11665081977844238, -0.18519581854343414, -0.15577495098114014, 0.229055717587471, 0.06448260694742203, 0.23251327872276306, -0.3972433805465698, -0.03694659098982811, -0.1758284717798233, 0.32245001196861267, -0.1979302316904068, 0.20586469769477844, 0.2597726881504059, 0.1318470537662506, -0.17043213546276093, 0.016046207398176193, -0.2037874311208725, -0.054695822298526764, -0.322435200214386, -0.08278842270374298, 0.12879864871501923, -0.25688228011131287, 0.09165676683187485, -0.015330192632973194, -0.03634996339678764, -0.06172187998890877, -0.05973760038614273, 0.14289718866348267, -0.0276254341006279, 0.15558823943138123, -0.20025764405727386, 0.010486815124750137, -0.20676949620246887, 0.21432726085186005, -0.013536072336137295, -0.10223459452390671, -0.1636379212141037, -0.03265349939465523, 0.10639990866184235, -0.1528785228729248, 0.20281405746936798, 0.0735212191939354, 0.1572590172290802, 0.004161090590059757, -0.05683404952287674, 0.0027553201653063297, -0.43366536498069763, -0.025927314534783363, -0.10249826312065125, 0.017165061086416245, -0.02083568274974823, 0.0016665980219841003, -0.1455257683992386, 0.16354630887508392, -0.1978476196527481, -0.1887877881526947, -0.09600459039211273, -0.032576464116573334, -0.44599416851997375, 0.15296602249145508, -0.304753839969635, -0.2986888289451599], [-0.2359260767698288, -0.08106493949890137, -0.004643217194825411, -0.07730580866336823, 0.09573587775230408, 0.07730495929718018, -0.15019342303276062, -0.17872200906276703, 0.036999840289354324, -0.19519612193107605, 0.1075587049126625, -0.015477508306503296, -0.1339840590953827, 0.05855588987469673, 0.16592387855052948, -0.05600697547197342, 0.4728401005268097, 0.07591412216424942, -0.4907381236553192, -0.20232805609703064, -0.14507846534252167, 0.1863935887813568, 0.2733144164085388, 0.19057802855968475, 0.06247290223836899, 0.02922930009663105, -0.07581046968698502, 0.17549176514148712, 0.2993885278701782, 0.09788444638252258, 0.4324709177017212, 0.09488429129123688, -0.10496786236763, 0.019988272339105606, -0.03717048466205597, 0.14744091033935547, -0.01194657851010561, -0.09339915961027145, 0.17491979897022247, 0.10929905623197556, -0.30376192927360535, -0.20930799841880798, -0.16441723704338074, 0.030685100704431534, 0.10885845869779587, -0.09390299767255783, 0.21518391370773315, -0.2113758623600006, 0.2380828708410263, -0.025439905002713203, 0.07181070744991302, -0.1447710394859314, -0.09124365448951721, 0.19064106047153473, -0.06632100045681, 0.3454815447330475, -0.20330533385276794, -0.023353857919573784, -0.048847515136003494, -0.1516672968864441, -0.13516809046268463, -0.308663547039032, -0.08377770334482193, 0.15174350142478943], [0.1552024632692337, 0.014112353324890137, 0.22421032190322876, -0.11351200193166733, 0.005008300766348839, 0.05155730992555618, -0.2780972719192505, 0.2613901197910309, -0.013563890941441059, 0.4914490878582001, 0.07282474637031555, 0.0902417004108429, 0.1553892344236374, 0.15090228617191315, 0.27745845913887024, 0.051600001752376556, 0.20480456948280334, 0.09494852274656296, 0.13526062667369843, 0.0058452351950109005, -0.10254734009504318, -0.04408634081482887, -0.19138003885746002, 0.15735603868961334, -0.06542842090129852, 0.38776570558547974, 0.11644231528043747, -0.3261081874370575, 0.2724422216415405, 0.16766908764839172, -0.06071264669299126, 0.08525355160236359, 0.04569495841860771, 0.1529656946659088, 0.08866313099861145, 0.15561290085315704, -0.035964563488960266, 0.2022157460451126, -0.09851657599210739, -0.04560675099492073, -0.07453054189682007, 0.36064380407333374, -0.32441776990890503, 0.036615803837776184, 0.24195197224617004, 0.2403344213962555, -0.07446034997701645, -0.3088456690311432, 0.049562111496925354, -0.154188871383667, -0.30543214082717896, -0.11758103966712952, 0.16019809246063232, -0.07378099113702774, -0.012857615016400814, 0.15955990552902222, -0.07209417223930359, 0.14769618213176727, 0.04960930719971657, 0.24938122928142548, 0.0781736969947815, -0.0671076774597168, 0.009589215740561485, -0.01977657526731491], [0.11900806427001953, -0.07324478775262833, 0.2390979677438736, 0.19433043897151947, -0.5154631733894348, 0.013413764536380768, 0.2469942420721054, -0.2732856273651123, 0.017866365611553192, -0.12090341001749039, 0.06714634597301483, 0.10444311797618866, 0.041454292833805084, -0.1476065218448639, 0.10350865870714188, -0.060471534729003906, -0.017027849331498146, -0.093104287981987, -0.1429678052663803, -0.08807000517845154, 0.09109696000814438, -0.19404546916484833, -0.11597451567649841, -0.2741881012916565, 0.06856699287891388, 0.2271450012922287, -0.05839775130152702, 0.07878705859184265, -0.06672050803899765, -0.08693680167198181, 0.31303778290748596, 0.19866341352462769, 0.2824084758758545, -0.07882164418697357, -0.1287160962820053, 0.054447270929813385, -0.27961522340774536, -0.16395679116249084, -0.04780758172273636, -0.25649476051330566, 0.36980316042900085, 0.2063479721546173, -0.05057847127318382, 0.3603355884552002, 0.05488767847418785, -0.19260719418525696, 0.11527454107999802, -0.2420685589313507, 0.00358265801332891, 0.1693991720676422, -0.1957428902387619, -0.0962008386850357, -0.15294496715068817, -0.1094672828912735, -0.009680993854999542, -0.019581925123929977, -0.26876357197761536, 0.047130752354860306, -0.006800258997827768, -0.0788915827870369, 0.40656596422195435, 0.040927499532699585, 0.1002647876739502, 0.10956091433763504], [-0.024315105751156807, -0.19067604839801788, 0.17476804554462433, -0.12149633467197418, -0.06683364510536194, -0.0076868305914103985, -0.15356995165348053, 0.3805004060268402, -0.2335226684808731, 0.3046437203884125, -0.07862712442874908, 0.10550783574581146, 0.02661234512925148, -0.02144719660282135, -0.13335180282592773, 0.09513916075229645, -0.0761331245303154, -0.12892687320709229, 0.07181423902511597, 0.002096301643177867, -0.0004553650796879083, 0.0800725668668747, -0.08071253448724747, -0.25957784056663513, -0.11674991250038147, -0.06685089319944382, -0.3536408543586731, 0.35302039980888367, 0.05686318501830101, 0.009842699393630028, 0.16647155582904816, -0.11568431556224823, 0.14552444219589233, 0.09820201247930527, 0.09227338433265686, 0.14901970326900482, -0.13037726283073425, 0.05785515904426575, -0.08499503880739212, 0.19210684299468994, 0.3022301197052002, 0.02778569608926773, -0.004963618237525225, -0.15848585963249207, -0.0720469281077385, -0.36195990443229675, 0.2100253701210022, 0.08298952877521515, 0.4115903675556183, 0.20422738790512085, 0.03817196935415268, 0.16008293628692627, 0.42492687702178955, 0.006906338036060333, -0.2162734866142273, -0.09805101901292801, -0.02031109482049942, -0.08885332942008972, 0.057291291654109955, 0.1648106873035431, -0.27053654193878174, -0.24409233033657074, 0.20380447804927826, 0.24324090778827667], [-0.023414544761180878, -0.03528033569455147, -0.2374938428401947, 0.10255773365497589, 0.2882916331291199, 0.08387339860200882, 0.10327326506376266, 0.36290380358695984, -0.13968074321746826, -0.11332617700099945, 0.15806342661380768, -0.37869855761528015, -0.2949651777744293, 0.028654351830482483, -0.04160388931632042, 0.3892858028411865, -0.17633068561553955, -0.05228056386113167, -0.03499713912606239, -0.11849997192621231, -0.10035054385662079, -0.009678077884018421, 0.39278918504714966, -0.2892160713672638, -0.04721233621239662, 0.12586979568004608, 0.14002661406993866, -0.03956632316112518, -0.0083039291203022, 0.12005579471588135, 0.1195828914642334, -0.21610844135284424, -0.046979065984487534, -0.07697352021932602, -0.2148226946592331, -0.1658191978931427, -0.12991824746131897, 0.1445678174495697, 0.09895456582307816, 0.10212038457393646, 0.25144433975219727, 0.16618283092975616, -0.19247885048389435, -0.057975009083747864, -0.23384231328964233, 0.06154714152216911, -0.014131870120763779, -0.28917333483695984, 0.07345430552959442, -0.2507557272911072, 0.06302443146705627, -0.26113900542259216, 0.07337529212236404, -0.1829637885093689, 0.4535423517227173, -0.011261523701250553, -0.14374679327011108, 0.014894966036081314, 0.18995462357997894, -0.1047554463148117, 0.19117788970470428, -0.002174833556637168, -0.1645018607378006, -7.456533785443753e-05], [-0.04005845636129379, -0.20509770512580872, -0.35371437668800354, 0.07942017167806625, 0.20746849477291107, -0.15479978919029236, -0.33396822214126587, -0.028790555894374847, -0.029635973274707794, 0.22259604930877686, 0.0074352091178298, -0.26506873965263367, 0.11465875059366226, -0.32055145502090454, -0.1418265402317047, -0.020580030977725983, 0.042699187994003296, -0.09049748629331589, -0.16212370991706848, -0.06671969592571259, 0.10228228569030762, -0.06446127593517303, -0.2912599444389343, -0.010626024566590786, -0.14702542126178741, -0.22755149006843567, -0.10764364153146744, -0.29191529750823975, 0.1286565065383911, -0.08516538143157959, 0.010809901170432568, 0.32984280586242676, 0.010236513800919056, 0.11037654429674149, -0.0814080759882927, 0.18027745187282562, 0.0501435287296772, -0.2502664029598236, -0.12392998486757278, 0.004340858198702335, 0.15452852845191956, -0.1127934455871582, 0.24705462157726288, 0.320064514875412, -0.11644569039344788, -0.09161169826984406, 0.01598650962114334, -0.20917725563049316, 0.02915205992758274, -0.10257413238286972, 0.21710169315338135, 0.03422237187623978, 0.23548059165477753, -0.24523629248142242, 0.04077795892953873, 0.36467018723487854, 0.015749813988804817, -0.2427070587873459, 0.024235723540186882, 0.02798343263566494, 0.13056428730487823, 0.3412437438964844, -0.1547737866640091, 0.058635711669921875], [-0.026585662737488747, -0.11847491562366486, 0.14052268862724304, -0.05756770074367523, 0.0023482830729335546, 0.2275760918855667, -0.0505271852016449, -0.12459076195955276, -0.0258012767881155, 0.382773220539093, -0.21608233451843262, -0.23164506256580353, -0.2978667914867401, -0.006927684880793095, 0.15608815848827362, 0.13784636557102203, 0.12322808802127838, 0.12335521727800369, -0.02285340614616871, 0.14598660171031952, 0.28793710470199585, -0.09752724319696426, -0.07433212548494339, 0.11457720398902893, -0.12084399163722992, -0.05113939940929413, -0.03826918452978134, 0.26033398509025574, -0.2450907975435257, -0.05114389583468437, 0.2004585862159729, 0.38959500193595886, 0.06735445559024811, -0.009230758994817734, -0.006520408205688, 0.21569593250751495, -0.24894297122955322, 0.043609634041786194, 0.11671457439661026, -0.06650011986494064, 0.06436868757009506, 0.2925195097923279, -0.08795145899057388, -0.041830357164144516, 0.039048969745635986, 0.37013712525367737, 0.17281286418437958, 0.3402734100818634, -0.021812113001942635, -0.040654439479112625, 0.11105730384588242, -0.24096648395061493, 0.013945701532065868, 0.2722516357898712, -0.18196263909339905, -0.12028530240058899, 0.32730910181999207, -0.0007617066148668528, 0.17901135981082916, -0.30983731150627136, -0.11068440973758698, 0.2658974826335907, -0.2152877151966095, 0.10064177960157394], [-0.024956291541457176, 0.012275763787329197, 0.012004304677248001, 0.19492167234420776, -0.12855054438114166, -0.1940377652645111, -0.054116807878017426, -0.2149452418088913, 0.538429856300354, 0.12641237676143646, 0.2069610059261322, -0.13065363466739655, -0.12475650012493134, -0.15365444123744965, 0.1623396873474121, 0.32922688126564026, -0.11183428019285202, 0.18338699638843536, 0.005309069063514471, 0.34765151143074036, -0.21205821633338928, -0.06319719552993774, -0.025587141513824463, -0.11204074323177338, -0.15208247303962708, -0.1748228520154953, -0.16539643704891205, 0.07359976321458817, 0.4298326075077057, -0.045792754739522934, -0.026390423998236656, -0.2019125521183014, -0.33130180835723877, -0.07218462228775024, -0.07146477699279785, -0.11591020971536636, 0.2758999466896057, -0.29406726360321045, 0.07526062428951263, 0.026069581508636475, 0.26433414220809937, 0.10766623914241791, 0.15632447600364685, -0.06678473204374313, 0.33921149373054504, -0.0035189578775316477, 0.09282063692808151, -0.07409434020519257, 0.05876218155026436, -0.11882607638835907, -0.2545044720172882, -0.18285153806209564, 0.042553674429655075, 0.022823626175522804, -0.18382814526557922, -0.23384989798069, -0.2164166271686554, 0.07191235572099686, 0.01902974210679531, -0.05595213174819946, -0.1853402853012085, 0.04258141294121742, -0.07462185621261597, -0.011262287385761738], [-0.08278591185808182, 0.3371582627296448, 0.011196788400411606, 0.017109230160713196, 0.2837825417518616, 0.24901610612869263, 0.1364278942346573, -0.077484630048275, 0.10040520131587982, -0.2911548614501953, -0.11722913384437561, -0.15804781019687653, -0.06780614703893661, 0.3532802164554596, -0.19925697147846222, 0.049777597188949585, 0.24497750401496887, -0.013313520699739456, -0.07677900791168213, -0.21414993703365326, 0.07332540303468704, -0.0011997107649222016, -0.00941539742052555, -0.3329639732837677, -0.06405514478683472, -0.15414272248744965, -0.1290062814950943, -0.3137959837913513, -0.07521666586399078, 0.24111305177211761, 0.12527087330818176, 0.015804819762706757, 0.0945996418595314, 0.2242906391620636, 0.12260056287050247, -0.013589476235210896, 0.09059835970401764, 0.1036297082901001, -0.07174137979745865, -0.12138018012046814, -0.13361752033233643, 0.29350751638412476, 0.23912827670574188, -0.03398040309548378, 0.22785525023937225, -0.05561663210391998, 0.2033522129058838, 0.30733755230903625, 0.024369828402996063, 0.13440731167793274, -0.18353314697742462, 0.18394991755485535, 0.26400333642959595, 0.2988191246986389, -0.07125671952962875, -0.088767871260643, -0.15804146230220795, -0.10097450762987137, 0.13208486139774323, 0.37556177377700806, 0.17682690918445587, 0.15531067550182343, -0.223104789853096, 0.09884056448936462], [0.0445137619972229, -0.11657150089740753, 0.3956427276134491, -0.2770768105983734, 0.07194669544696808, 0.042507413774728775, 0.2605261206626892, -0.04836180433630943, -0.10803324729204178, -0.05208593234419823, 0.11820518970489502, -0.13150207698345184, -0.13875259459018707, -0.30523157119750977, -0.03702970966696739, 0.23983053863048553, -0.12820154428482056, 0.2870134711265564, 0.11364515125751495, 0.10934232920408249, 0.021804360672831535, -0.013096044771373272, -0.1804732382297516, -0.03396253660321236, -0.22870725393295288, -0.011619113385677338, -0.08745426684617996, -0.20028086006641388, 0.0937727764248848, 0.26778456568717957, -0.024196326732635498, 0.11275862902402878, -0.2885024845600128, 0.10585080832242966, 0.054745376110076904, -0.29009321331977844, -0.01678643748164177, 0.2572830319404602, 0.06058983877301216, -0.1592382788658142, -0.018733376637101173, -0.25668713450431824, -0.04663069173693657, 0.006211006082594395, -0.26808226108551025, -0.18421398103237152, -0.07996071130037308, 0.01936444267630577, 0.11744080483913422, 0.33936384320259094, -0.21369124948978424, -0.1857798546552658, -0.37252506613731384, -0.09200374782085419, -0.021686265245079994, 0.2753344774246216, 0.2645908296108246, -0.13115495443344116, 0.10974378883838654, 0.13970768451690674, 0.040775369852781296, -0.10813973098993301, -0.14980310201644897, 0.2125716209411621], [0.3079391419887543, 0.15697038173675537, -0.018471775576472282, 0.24663877487182617, 0.02036214806139469, -0.08855688571929932, -0.11022263020277023, 0.059430334717035294, 0.0063688792288303375, -0.20845994353294373, -0.16629138588905334, -0.1275828778743744, -0.08800052851438522, 0.24072302877902985, 0.4552689492702484, -0.07317177206277847, 0.05397777631878853, -0.062044594436883926, 0.18144409358501434, -0.2290114313364029, -0.16299572587013245, 0.11211776733398438, 0.19803597033023834, -0.039933547377586365, -0.009948034770786762, -0.19471435248851776, -0.178302600979805, -0.13602977991104126, -0.08752789348363876, 0.011076266877353191, -0.15175162255764008, 0.11495857685804367, -0.06174776330590248, 0.08942557126283646, -0.15856604278087616, 0.05243042856454849, 0.0007446642848663032, -0.07370521873235703, 0.17454494535923004, 0.23280379176139832, -0.09274053573608398, -0.04889795184135437, -0.2459430992603302, 0.193678617477417, -0.09407086670398712, -0.22061102092266083, 0.05474364385008812, 0.03334493935108185, 0.27036041021347046, 0.27910783886909485, -0.13852526247501373, -0.47224223613739014, 0.13381128013134003, -0.2818889319896698, -0.10806995630264282, -0.14796008169651031, 0.3989196717739105, -0.016699815168976784, -0.1494372934103012, 0.020874811336398125, -0.049339037388563156, 0.27483221888542175, 0.23581409454345703, -0.09465590864419937], [-0.10846374928951263, -0.3090086281299591, -0.32906559109687805, 0.0658615455031395, -0.03172249346971512, 0.10479989647865295, -0.19564595818519592, -0.24351072311401367, -0.2638903558254242, -0.15283696353435516, 0.12580278515815735, -0.0574411079287529, -0.0931740403175354, 0.05601150542497635, -0.047561004757881165, -0.19985565543174744, 0.0182254146784544, 0.04666983336210251, 0.07152741402387619, 0.06435444951057434, -0.09656307846307755, -0.19556157290935516, -0.2655298709869385, -0.20247536897659302, -0.21997125446796417, 0.17973692715168, 0.10659117251634598, 0.03671151399612427, 0.08225604891777039, 0.1771785318851471, 0.2109670490026474, -0.25532373785972595, -0.1956378072500229, 0.2030702531337738, 0.4527669847011566, 0.015838133171200752, -0.33729246258735657, 0.10636033862829208, 0.20259495079517365, -0.19533908367156982, 0.16923300921916962, -0.09903833270072937, 0.02812657319009304, 0.2595229148864746, 0.20468707382678986, -0.024831704795360565, -0.1953524500131607, -0.13996390998363495, 0.01263920497149229, -0.14014402031898499, 0.10712037235498428, -0.06734077632427216, -0.027341457083821297, 0.13188762962818146, -0.1387590914964676, -0.41276517510414124, 0.31074440479278564, -0.058402858674526215, -0.21499699354171753, 0.07526993006467819, -0.0638379156589508, -0.09886493533849716, 0.15595053136348724, -0.15972279012203217], [-0.07124398648738861, -0.011147469282150269, 0.24070246517658234, 0.15232709050178528, -0.13014139235019684, -0.04748312383890152, 0.05565197393298149, -0.055223386734724045, 0.10148382186889648, 0.2368476539850235, -0.14393965899944305, 0.3103574216365814, 0.048496063798666, 0.41962143778800964, -0.1605851799249649, 0.08160991966724396, -0.3262980580329895, 0.0804482102394104, -0.06496390700340271, -0.3235270380973816, 0.19085381925106049, 0.15117748081684113, -0.11019859462976456, -0.023830542340874672, 0.0566713772714138, -0.10934356600046158, 0.27284005284309387, 0.03494958207011223, 0.4551517963409424, 0.055717095732688904, 0.3719674050807953, -0.3005717694759369, 0.05521988868713379, 0.14855247735977173, -0.19202883541584015, 0.006759079173207283, 0.17747806012630463, 0.12913314998149872, 0.11914369463920593, -0.013550637289881706, -0.08086909353733063, -0.22113381326198578, 0.07795792073011398, 0.10671189427375793, 0.034392014145851135, 0.06438016891479492, -0.3238859176635742, 0.12377146631479263, 0.0068137249909341335, 0.1211853101849556, 0.20879937708377838, -0.14604096114635468, 0.13706520199775696, -0.11938799917697906, 0.11608234792947769, 0.028394630178809166, 0.177241250872612, -0.008427384309470654, 0.21597708761692047, -0.25067761540412903, 0.12374283373355865, 0.2267717570066452, -0.11585699021816254, 0.052333954721689224], [0.1167784109711647, -0.24618478119373322, -0.06885030120611191, 0.24161572754383087, -0.06946980953216553, 0.1798010617494583, -0.07542908936738968, -0.14008884131908417, -0.06656093895435333, -0.1860046237707138, 0.10414393991231918, 0.02597561664879322, 0.10718841850757599, -0.05086137354373932, 0.2734625041484833, -0.06422621756792068, -0.15657347440719604, 0.05531254783272743, 0.09869613498449326, -0.12881338596343994, 0.07444377988576889, 0.5257501602172852, 0.110356904566288, -0.041868019849061966, 0.01772264391183853, -0.13219065964221954, 0.053967706859111786, -0.17488937079906464, 0.32515305280685425, 0.03673383593559265, -0.30611568689346313, 0.29345181584358215, 0.028099501505494118, 0.12688735127449036, 0.2509501278400421, -0.13822533190250397, -0.285895973443985, -0.182683065533638, 0.27498507499694824, 0.2405124008655548, 0.38605165481567383, 0.019182581454515457, 0.000531722151208669, -0.013467030599713326, -0.15779933333396912, 0.3772452771663666, -0.1637546271085739, 0.07242924720048904, -0.05955413728952408, 0.03143065422773361, -0.08774354308843613, 0.2816205620765686, -0.020944830030202866, 0.176508828997612, 0.02215680666267872, -0.033049702644348145, -0.22591084241867065, -0.06431350111961365, 0.27922555804252625, -0.09771065413951874, -0.041501205414533615, -0.13410992920398712, 0.10597673803567886, 0.25045663118362427], [0.03615830838680267, -0.1813269406557083, -0.1760522723197937, 0.05902894586324692, -0.1173764169216156, 0.2988770306110382, -0.08537684381008148, -0.24196036159992218, -0.2655574083328247, 0.11238362640142441, 0.05707931891083717, 0.07102559506893158, 0.008066806942224503, 0.21334317326545715, -0.13821908831596375, 0.07540248334407806, 0.2596156597137451, -0.1544623076915741, 0.08140268176794052, 0.08522429317235947, 0.16157416999340057, -0.18826359510421753, -0.025708690285682678, 0.29998791217803955, -0.2476174235343933, -0.24817639589309692, -0.07866882532835007, -0.33787769079208374, -0.09187600016593933, -0.2966540455818176, 0.1426738053560257, -0.29058849811553955, -0.03643578290939331, -0.01668221317231655, -0.17769278585910797, -0.38186585903167725, -0.028796561062335968, 0.19824911653995514, 0.017890406772494316, 0.4368915259838104, 0.0940268486738205, 0.15541139245033264, -0.04493744671344757, 0.16287361085414886, 0.051967110484838486, -0.09442119300365448, -0.03308772295713425, 0.3132235109806061, -0.035478655248880386, 0.2308925986289978, -0.17976872622966766, -0.07443586736917496, -0.028158828616142273, -0.15627233684062958, 0.13062456250190735, 0.17102649807929993, -0.2964980900287628, 0.062087319791316986, -0.08107542991638184, -0.13620905578136444, -0.06676372140645981, -0.19303667545318604, -0.09142348170280457, -0.1596718579530716], [-0.07414998859167099, -0.16282939910888672, 0.1547478437423706, 0.04962088540196419, 0.07913369685411453, -0.206547811627388, 0.23876860737800598, -0.08607929199934006, -0.2021072804927826, -0.14306262135505676, 0.03874487057328224, -0.08083882182836533, -0.04983320087194443, -0.07510433346033096, 0.01849181391298771, -0.17135879397392273, 0.11421021819114685, -0.21896161139011383, 0.1476442962884903, 0.06023084372282028, -0.2768397331237793, 0.02483910322189331, 0.24475911259651184, 0.2539762556552887, -0.15260547399520874, -0.025844193994998932, -0.058762066066265106, -0.09069333225488663, 0.10458999127149582, 0.18409518897533417, -0.046145886182785034, 0.11689215898513794, -0.06851227581501007, -0.13122281432151794, -0.12776216864585876, 0.09229035675525665, 0.19162419438362122, 0.40470537543296814, -0.342578262090683, -0.20169894397258759, 0.4241815507411957, -0.09492093324661255, 0.003892012406140566, 0.12629085779190063, 0.13320522010326385, 0.015705987811088562, -0.06621406227350235, 0.20849831402301788, 0.13738186657428741, -0.02350768819451332, 0.2939344346523285, -0.02228103205561638, 0.20291513204574585, 0.2509590685367584, -0.0995023176074028, 0.14453385770320892, -0.02056349813938141, 0.3890470862388611, 0.37787994742393494, -0.09357800334692001, 0.1081085205078125, 0.058015450835227966, 0.32757729291915894, -0.22150804102420807], [0.3386308252811432, -0.22594429552555084, -0.06543857604265213, -0.28443285822868347, 0.19454176723957062, -0.16172057390213013, -0.19962409138679504, -0.04847201332449913, 0.033761560916900635, -0.10329587757587433, 0.09505093097686768, -0.11849071085453033, 0.02604035846889019, 0.1139032170176506, 0.12540338933467865, -0.07011915743350983, 0.10759072005748749, 0.1969953179359436, 0.23224438726902008, -0.0422365739941597, 0.1516306847333908, -0.24881669878959656, 0.020954027771949768, -0.17783820629119873, 0.07631782442331314, 0.12028350681066513, 0.14583924412727356, -0.1420898139476776, -0.058237794786691666, -0.1417187750339508, 0.06345456838607788, -0.05032521113753319, 0.09759629517793655, 0.2520146369934082, -0.4616737365722656, 0.15978197753429413, 0.3827839195728302, -0.3543374836444855, 0.14174093306064606, -0.3346644937992096, 0.1283617615699768, 0.27065157890319824, -0.025929110124707222, -0.0333065465092659, -0.11472723633050919, -0.09472732990980148, -0.20759476721286774, 0.1297282576560974, 0.18667861819267273, -0.0064826346933841705, 0.10449595004320145, 0.21595363318920135, -0.22827889025211334, 0.08280003815889359, 0.0184021033346653, -0.04796290025115013, 0.019786860793828964, -0.12369965016841888, 0.22123195230960846, -0.15755541622638702, -0.20888850092887878, -0.3787696659564972, 0.1392647624015808, -0.0006987196975387633], [-0.14167290925979614, -0.13797441124916077, -0.29463374614715576, -0.27932000160217285, -0.06853679567575455, -0.12460701167583466, 0.005484183318912983, 0.1867855042219162, 0.1664898693561554, -0.2895352244377136, 0.2708088457584381, 0.21706900000572205, 0.15606015920639038, -0.17463117837905884, 0.18567337095737457, 0.33043310046195984, -0.10636006295681, -0.10313992947340012, 0.11694258451461792, 0.008064520545303822, 0.13255318999290466, 0.18413951992988586, -0.024340707808732986, 0.2674831449985504, -0.025772083550691605, 0.11352822184562683, -0.26172077655792236, 0.01837882585823536, -0.08882556110620499, 0.004212271422147751, 0.46958526968955994, 0.21182218194007874, 0.04642380774021149, 0.2996295392513275, -0.1947372853755951, 0.060122255235910416, -0.14159564673900604, 0.04319293797016144, 0.02052609808743, 0.11824185401201248, -0.241133451461792, 0.16160020232200623, 0.06530924886465073, -0.12048390507698059, 0.030657747760415077, -0.1913084089756012, -0.23278795182704926, 0.013961545191705227, -0.2355787456035614, 0.20205669105052948, 0.051170215010643005, 0.016392914578318596, 0.0697856992483139, 0.11009886115789413, 0.15211433172225952, -0.29582852125167847, 0.030652977526187897, 0.32094642519950867, 0.1180557832121849, 0.2367485910654068, -0.07698067277669907, 0.2567909061908722, -0.07147138565778732, -0.1143454760313034], [-0.23355673253536224, -0.051958903670310974, -0.24102376401424408, -0.1039283350110054, 0.013019241392612457, 0.05533832684159279, 0.1354983150959015, 0.024365201592445374, -0.4366028904914856, 0.11431270092725754, -0.1916734129190445, 0.011803708039224148, 0.46664443612098694, -0.10658445209264755, 0.07347241789102554, -0.17548656463623047, 0.08059235662221909, 0.16357122361660004, -0.1087101399898529, 0.13808198273181915, -0.037675052881240845, -0.005956733133643866, 0.20279566943645477, -0.15172219276428223, 0.01005029957741499, -0.2536340355873108, 0.2902624309062958, -0.05028526484966278, -0.03049621544778347, -0.14683865010738373, 0.11441455036401749, -0.13104084134101868, -0.22166036069393158, -0.281187504529953, -0.25415998697280884, -0.177654430270195, 0.022200439125299454, -0.02295542322099209, 0.12800711393356323, -0.2849922478199005, -0.2175946980714798, -0.03385227173566818, 0.06951799243688583, -0.1230342835187912, -0.15517204999923706, 0.1270507276058197, -0.060044027864933014, -0.2138579934835434, 0.30375269055366516, 0.15695756673812866, -0.4391029477119446, -0.04028922691941261, 0.1612994372844696, 0.15919138491153717, 0.10457977652549744, -0.19436749815940857, -0.1429608166217804, 0.1631590873003006, 0.06899811327457428, -0.08441580086946487, -0.0746186226606369, 0.3609677255153656, 0.027838289737701416, 0.21331459283828735], [0.23280490934848785, 0.16738970577716827, -0.11418455094099045, -0.03477555885910988, -0.023785538971424103, 0.013897356577217579, 0.10125398635864258, -0.11368191242218018, 0.04514092206954956, -0.07619761675596237, 0.1814374029636383, 0.03916566073894501, 0.08089078962802887, -0.08515337109565735, 0.03737928345799446, 0.06743398308753967, -0.19078414142131805, 0.1824876070022583, -0.2109505981206894, -0.04040679335594177, 0.19453510642051697, -0.18372061848640442, 0.12445734441280365, -0.22667695581912994, -0.09904041141271591, -0.11172354966402054, -0.2668507695198059, 0.03710009157657623, -0.030019111931324005, 0.13534817099571228, -0.08774306625127792, -0.1883399784564972, -0.3277788758277893, -0.017940454185009003, -0.36134353280067444, -0.1534222662448883, -0.3577768802642822, -0.10593321919441223, -0.08507076650857925, 0.05581125244498253, -0.24190248548984528, -0.008069457486271858, -0.056612350046634674, 0.10041965544223785, 0.10282208025455475, 0.32177770137786865, -0.09287184476852417, -0.13133423030376434, 0.04959876462817192, -0.023789923638105392, -0.11692355573177338, 0.4101311266422272, 0.4328756630420685, -0.018780726939439774, -0.07310572266578674, 0.3768056631088257, 0.3609060049057007, 0.32016193866729736, -0.003749436466023326, -0.2119278609752655, 0.19781531393527985, -0.2645747661590576, 0.10957186669111252, -0.0603841133415699], [-0.17814095318317413, 0.3217567801475525, 0.0607755184173584, -0.21450844407081604, -0.12419407814741135, 0.1578260064125061, -0.03085414506494999, 0.2426762729883194, -0.09688465297222137, 0.11266788840293884, 0.30134618282318115, 0.03464534506201744, 0.025499237701296806, -0.1336136907339096, 0.045208726078271866, 0.0481070876121521, 0.24309389293193817, -0.11918846517801285, -0.05171997845172882, -0.17301222681999207, 0.20083655416965485, -0.2619054913520813, 0.046669892966747284, 0.13941340148448944, 0.43398725986480713, -0.25360342860221863, -0.11698859930038452, 0.12954990565776825, 0.15674415230751038, -0.1294918805360794, -0.27015402913093567, 0.11822015792131424, -0.05633527785539627, 0.07939684391021729, 0.22544598579406738, -0.08386208117008209, -0.03762887418270111, -0.13067863881587982, 0.097260020673275, -0.13883565366268158, 0.17861217260360718, -0.1847858726978302, 0.06077589839696884, 0.2992696464061737, 0.11094024777412415, -0.15597999095916748, -0.18327270448207855, -0.045303452759981155, 0.05638144910335541, -0.11891614645719528, -0.19937030971050262, -0.18322403728961945, 0.057183653116226196, 0.028437137603759766, 0.02360408380627632, -0.24259306490421295, 0.13147979974746704, -0.21873073279857635, 0.5305362343788147, -0.06781759858131409, 0.11880923062562943, -0.24168799817562103, -0.036058519035577774, -0.27172932028770447], [-0.09105351567268372, 0.15239238739013672, -0.012716958299279213, -0.15007241070270538, -0.0005899742827750742, -0.01952025480568409, -0.13086803257465363, 0.0776897594332695, 0.04756999760866165, 0.015569723211228848, 0.14968588948249817, -0.14919568598270416, 0.33282068371772766, 0.03876785561442375, 0.08682546019554138, 0.03001238964498043, -0.13915331661701202, -0.05114240199327469, -0.28485774993896484, 0.06504049152135849, -0.005036798305809498, 0.18925148248672485, 0.10563221573829651, -0.14146336913108826, -0.02826291136443615, 0.20442628860473633, 0.0116134537383914, -0.013488292694091797, 0.10082634538412094, -0.13924026489257812, -0.15871772170066833, 0.048730362206697464, -0.07254552096128464, 0.11403246223926544, -0.03915325179696083, -0.5729710459709167, 0.07198094576597214, -0.016408581286668777, -0.1402847319841385, -0.4106317460536957, 0.06791836768388748, 0.07484912127256393, -0.12224425375461578, 0.4670509994029999, -0.030551515519618988, 0.2346334308385849, 0.23317475616931915, 0.11595119535923004, -0.29025936126708984, 0.28731605410575867, 0.32962682843208313, -0.3013436794281006, 0.16010096669197083, 0.006790733430534601, 0.08001115918159485, -0.04058815911412239, -0.03311404958367348, 0.0050061834044754505, -0.19153444468975067, -0.05133023485541344, -0.3087463676929474, -0.21937298774719238, 0.08556506037712097, 0.277702659368515], [-0.16754257678985596, -0.13144373893737793, -0.14095759391784668, -0.10732356458902359, 0.04701346904039383, 0.2709696590900421, 0.04232462868094444, -0.028310630470514297, -0.029548687860369682, -0.1909020096063614, -0.1506030112504959, -0.0735507681965828, 0.13704966008663177, -0.07970224320888519, -0.10102776437997818, 0.01625063084065914, -0.21808001399040222, 0.16291877627372742, -0.15991336107254028, 0.08434833586215973, 0.46298980712890625, 0.12271958589553833, 0.2742394208908081, 0.1631792038679123, 0.02564241737127304, 0.10736998915672302, -0.1582440435886383, 0.043319471180438995, -0.03088724985718727, -0.07410142570734024, -0.14887939393520355, -0.34593239426612854, 0.23883287608623505, 0.030782470479607582, -0.30900415778160095, 0.24761183559894562, 0.07499390840530396, 0.19650916755199432, 0.22075557708740234, -0.07214055210351944, 0.23965339362621307, -0.14565443992614746, -0.18348224461078644, -0.04541061818599701, 0.09953047335147858, 0.14934824407100677, 0.0982314720749855, 0.07600497454404831, -0.08937571942806244, -0.12786418199539185, -0.028795886784791946, -0.23537984490394592, 0.048612698912620544, -0.1655525416135788, -0.4984225034713745, 0.027771759778261185, -0.07895934581756592, -0.11783114075660706, -0.08855469524860382, 0.4773155450820923, 0.1981867551803589, 0.012100928463041782, 0.03337531164288521, -0.174356609582901], [0.198480024933815, -0.0010749134235084057, 0.02299630455672741, -0.1998036950826645, 0.2205316424369812, -0.2846885323524475, -0.10226796567440033, 0.019855771213769913, -0.1995944231748581, 0.003568447893485427, 0.3318208158016205, 0.1373869776725769, -0.3368619978427887, 0.1899450272321701, 0.037976350635290146, -0.38207295536994934, -0.049149949103593826, 0.06088723614811897, -0.09005024284124374, -0.1481783092021942, 0.3325710594654083, 0.2004726082086563, -0.4374275505542755, 0.07946080714464188, -0.12085618823766708, -0.05790748819708824, -0.023736989125609398, 0.12758934497833252, 0.08080112934112549, 0.2707134187221527, 0.010063039138913155, 0.08945640176534653, -0.08261431753635406, -0.4456433355808258, -0.01041653286665678, -0.1286175400018692, -0.047730959951877594, -0.23374494910240173, 0.09666179120540619, -0.16102388501167297, -0.06500232219696045, 0.06687960028648376, -0.18568384647369385, -0.20378924906253815, -0.13950671255588531, -0.19880779087543488, 0.04954987019300461, 0.21971777081489563, -0.14030048251152039, -0.05096115916967392, -0.034994449466466904, -0.2327883541584015, 0.23083041608333588, -0.04786895215511322, -0.13182629644870758, -0.09059488773345947, -0.3808039128780365, 0.059023380279541016, -0.014882178977131844, 0.05509894713759422, 0.09799899160861969, 0.10135547071695328, -0.023112963885068893, -0.1873372346162796], [-0.007487121503800154, 0.2068314552307129, 0.16428570449352264, -0.3171330392360687, -0.25082865357398987, 0.25051942467689514, -0.3152094781398773, 0.0337909534573555, 0.1231456771492958, -0.18615283071994781, -0.026169486343860626, -0.13237281143665314, -0.07240143418312073, -0.09096498042345047, 0.05432918295264244, -0.11052350699901581, -0.15316236019134521, -0.1781209260225296, -0.020522119477391243, -0.12169414013624191, 0.027655059471726418, -0.34893926978111267, 0.007515595760196447, -0.037213630974292755, -0.06853737682104111, 0.03883229196071625, 0.2629784643650055, -0.2892688810825348, -0.017104720696806908, -0.0985007956624031, 0.2503246068954468, 0.1348487287759781, -0.2698539197444916, -0.12149208039045334, 0.19212807714939117, 0.021762477234005928, 0.2675454020500183, 0.15565399825572968, 0.4682430028915405, 0.0733705684542656, 0.14329953491687775, -0.09234660118818283, 0.058205053210258484, -0.15900681912899017, -0.05050681531429291, 0.11730488389730453, 0.27485671639442444, -0.15953756868839264, -0.09423050284385681, 0.18288658559322357, 0.29129236936569214, 0.3021261692047119, 0.14274244010448456, -0.26949527859687805, -0.23621872067451477, -0.05751584470272064, -0.10468225926160812, 0.27603811025619507, 0.16748294234275818, -0.009926898404955864, 0.04178549721837044, 0.09243970364332199, 0.15321461856365204, -0.011564440093934536], [0.11912009119987488, -0.3126061260700226, 0.112966388463974, 0.13814875483512878, -0.0877644494175911, -0.0018567058723419905, -0.18995633721351624, 0.10628854483366013, 0.1948150396347046, -0.4628368020057678, -0.34846729040145874, 0.06181514263153076, 0.048591237515211105, -0.2110699862241745, 0.13421157002449036, 0.1370709091424942, 0.11876550316810608, 0.04881122335791588, -0.21114371716976166, 0.017414305359125137, -0.01117645762860775, -0.20519734919071198, -0.45583540201187134, 0.2496115118265152, 0.019139042124152184, 0.2043931633234024, 0.23450100421905518, 0.11204753071069717, -0.18231715261936188, 0.18956045806407928, -0.2957456707954407, -0.21572622656822205, 0.0002540068235248327, -0.04004296287894249, -0.08772217482328415, -0.20166444778442383, 0.042132649570703506, -0.059553299099206924, -0.06238862872123718, 0.061514824628829956, 0.010667487978935242, -0.0938941091299057, -0.13748548924922943, 0.06846507638692856, 0.11808158457279205, 0.04756023362278938, -0.054238464683294296, -0.13294057548046112, 0.18902096152305603, 0.25625964999198914, 0.0713038295507431, -0.08264144510030746, 0.3539847135543823, 0.3007552921772003, 0.08728320151567459, -0.04093952104449272, -0.07930982112884521, -0.23418211936950684, 0.24901677668094635, -0.01871819980442524, -0.043662507086992264, 0.03420103341341019, -0.2753404676914215, -0.05692156404256821], [-0.05023038014769554, -0.08971787989139557, 0.1478528529405594, 0.03397534042596817, 0.15520673990249634, 0.18680915236473083, -0.16931864619255066, 0.006277028471231461, 0.21281753480434418, 0.060459040105342865, 0.22520267963409424, 0.1256856918334961, 0.28939107060432434, 0.22247129678726196, 0.05238334834575653, -0.14091427624225616, -0.04020087048411369, 0.15557704865932465, 0.23524628579616547, 0.2685459554195404, -0.16758765280246735, 0.038678672164678574, -0.2023385763168335, -0.3062605857849121, 0.2877461314201355, -0.18820615112781525, 0.0439983531832695, -0.02536056935787201, -0.3242562711238861, -0.05363928899168968, 0.3815859854221344, 0.17228059470653534, 0.0631856843829155, 0.09316985309123993, -0.11076252907514572, -0.15352430939674377, -0.009698810987174511, -0.012825548648834229, -0.10880760848522186, 0.24080705642700195, 0.10261385142803192, -0.3479703962802887, -0.02712399698793888, -0.17834733426570892, -0.2887025475502014, 0.11121350526809692, 0.3141961097717285, 0.04667956382036209, 0.0005675539723597467, -0.13029633462429047, 0.10646352171897888, -0.23139306902885437, 0.11325372755527496, 0.3040623962879181, -0.01407548412680626, 0.03572164475917816, 0.008001643233001232, 0.11005405336618423, -0.04265908896923065, 0.09665039926767349, 0.2928760349750519, -0.13863296806812286, -0.1480759084224701, -0.39435890316963196], [-0.09839146584272385, -0.054760709404945374, -0.04428746923804283, -0.19448891282081604, 0.18892110884189606, -0.19710423052310944, 0.0969652384519577, -0.07090520858764648, 0.27860888838768005, -0.10832859575748444, -0.06484464555978775, 0.4261581003665924, -0.3582073450088501, -0.02747775800526142, -0.37471434473991394, -0.098474882543087, 0.0005716271116398275, -0.5906628966331482, 0.07080154865980148, -0.04734871909022331, -0.1134929358959198, 0.002883425448089838, -0.09786569327116013, -0.014677216298878193, 0.15231862664222717, -0.13376586139202118, -0.05722840875387192, -0.212361142039299, -0.08846290409564972, -0.14098264276981354, 0.052947595715522766, -0.06195613369345665, -0.142430379986763, 0.20603175461292267, -0.2831383943557739, -0.07926974445581436, -0.16610117256641388, 0.0658344104886055, 0.09387272596359253, -0.12911400198936462, 0.08080020546913147, -0.02549932710826397, -0.0681486427783966, 0.028196947649121284, -0.20281316339969635, 0.5389916300773621, -0.014410323463380337, -0.16884814202785492, 0.11330211907625198, -0.09189144521951675, -0.3158509135246277, -0.1870184987783432, 0.01840164326131344, -0.01740848273038864, -0.12176305800676346, 0.08671249449253082, 0.027857733890414238, -0.07944495975971222, 0.02311154641211033, 0.10161422938108444, -0.20468401908874512, 0.038556233048439026, 0.17111963033676147, 0.18679802119731903], [-0.4565902054309845, 0.1364929974079132, 0.05609419569373131, -0.26385805010795593, -0.15814557671546936, 0.1599930077791214, -0.35637080669403076, -0.04547446221113205, 0.04437321797013283, -0.05762794241309166, -0.18332086503505707, -0.12126848101615906, -0.41232791543006897, 0.263964980840683, 0.2165985107421875, 0.06553200632333755, -0.2788810133934021, -0.23371511697769165, 0.03724987432360649, 0.31352877616882324, 0.01260763593018055, -0.04033651575446129, 0.004177027381956577, 0.02875600941479206, -0.2026548534631729, -0.06231532618403435, 0.12326383590698242, 0.3148640990257263, 0.09883613139390945, 0.029065372422337532, -0.08923529088497162, 0.07490833848714828, 0.16668961942195892, 0.15376676619052887, 0.017414862290024757, 0.06409948319196701, -0.008257863111793995, -0.13138706982135773, -0.21630723774433136, -0.10738011449575424, -0.07382030785083771, 0.06395760178565979, 0.02033250778913498, 0.16832539439201355, -0.3528773784637451, 0.025830911472439766, -0.2984605133533478, 0.12590758502483368, 0.32115089893341064, 0.11210095882415771, -0.09441207349300385, 0.17266277968883514, -0.034895408898591995, 0.08951204270124435, 0.05407041683793068, 0.08921097218990326, -0.18114879727363586, 0.09833452105522156, -0.2550477683544159, 0.16373176872730255, 0.2749597132205963, 0.02698679082095623, -0.027180345728993416, -0.2559375464916229], [-0.18671688437461853, -0.15618938207626343, 0.20723769068717957, -0.055401965975761414, 0.050002750009298325, 0.04795558750629425, 0.07221415638923645, 0.04613271728157997, 0.3771401345729828, 0.2305588722229004, -0.1671966314315796, 0.010078813880681992, -0.22103331983089447, -0.07836073637008667, -0.19888074696063995, -0.4675808846950531, 0.052277885377407074, 0.2367517054080963, -0.0029920353554189205, 0.1212395429611206, -0.01462006475776434, 0.3322974741458893, 0.39531785249710083, 0.025383438915014267, -0.11884313821792603, 0.13997170329093933, 0.12747208774089813, -0.20247574150562286, -0.2120787501335144, -0.18243920803070068, -0.03775930032134056, 0.05097227171063423, -0.2146473377943039, -0.031647276133298874, -0.03789897263050079, -0.04131736233830452, -0.27593734860420227, -0.16963507235050201, 0.1909210979938507, -0.10488491505384445, 0.19265589118003845, 0.14494885504245758, 0.24932825565338135, -0.01742137409746647, 0.20345692336559296, -0.21238569915294647, -0.22350750863552094, -0.13590380549430847, -0.05715380609035492, 0.3057737946510315, 0.046017829328775406, -0.02284405194222927, 0.3233136534690857, -0.14831198751926422, 0.25250956416130066, 0.06186703220009804, 0.13471117615699768, -0.02376363053917885, 0.03164419159293175, 0.13946563005447388, 0.020303253084421158, -0.20272128283977509, -0.06518307328224182, -0.2277471274137497], [-0.09817953407764435, 0.30205997824668884, -0.2566629648208618, -0.2498876303434372, -0.07685446739196777, -0.06963261216878891, 0.05166109651327133, 0.023043543100357056, -0.12299846112728119, -0.2027503252029419, 0.05941921845078468, 0.13744494318962097, 0.11850642412900925, 0.21908453106880188, -0.19577845931053162, -0.3238847851753235, -0.12176335602998734, 0.2202022522687912, 0.05581629276275635, 0.09061887115240097, -0.2400207370519638, -0.22002889215946198, 0.005156479775905609, 0.2339637130498886, -0.253996878862381, 0.011841821484267712, -0.07840102165937424, 0.24124017357826233, 0.07701671868562698, 0.2218182533979416, 0.16567669808864594, 0.18092623353004456, 0.2615449130535126, -0.10219235718250275, 0.05192357301712036, 0.0075534796342253685, 0.19030185043811798, -0.29106760025024414, -0.014795823022723198, 0.260913223028183, 0.4389265477657318, 0.11121728271245956, -0.14259007573127747, -0.09565483778715134, 0.2126612663269043, 0.2735846936702728, 0.13321222364902496, -0.07150762528181076, -0.028535164892673492, 0.2113793045282364, -0.1301192194223404, -0.07697116583585739, -0.043190620839595795, -0.07367821037769318, 0.2844255864620209, 0.11624988913536072, 0.31137341260910034, -0.25630250573158264, 0.09504136443138123, 0.06648743152618408, -0.06197187677025795, 0.020228348672389984, -0.061321888118982315, 0.03074728325009346], [0.1868453174829483, 0.11376731097698212, -0.0815238282084465, -0.03982468694448471, 0.19141286611557007, 0.23441629111766815, -0.02634347602725029, -0.15854834020137787, -0.07900886982679367, 0.3238668441772461, 0.043120063841342926, 0.0802399218082428, -0.1585572063922882, -0.2430814802646637, 0.18015199899673462, 0.009663420729339123, 0.10137970745563507, -0.1241554543375969, 0.15459424257278442, -0.23344454169273376, -0.10616647452116013, -0.07601513713598251, 0.0648818090558052, 0.06649992614984512, -0.11670005321502686, 0.09799135476350784, 0.11896990984678268, 0.19240015745162964, 0.10708865523338318, 0.05863383412361145, -0.059248004108667374, 0.08040644228458405, -0.10095082968473434, -0.04845400154590607, -0.3890795409679413, -0.10536357015371323, 0.28086182475090027, -0.024824675172567368, -0.002732208464294672, 0.22654080390930176, 0.1960436850786209, -0.13524822890758514, 0.16158181428909302, 0.05081065371632576, 0.025203362107276917, -0.0856003612279892, -0.27500584721565247, -0.21785253286361694, -0.37501537799835205, 0.14965078234672546, 0.0022903564386069775, -0.049986582249403, 0.11081081628799438, 0.4191655218601227, -0.10065769404172897, -0.22115285694599152, 0.09456484019756317, -0.18181754648685455, -0.2810238301753998, 0.11940932273864746, 0.424383282661438, -0.1631491482257843, 0.1553623229265213, 0.3954906463623047], [-0.2513856887817383, 0.01031053252518177, -0.09428125619888306, -0.0476352758705616, -0.2076282650232315, 0.12857884168624878, 0.12306211143732071, 0.4084012508392334, 0.11513850092887878, -0.1058029904961586, -0.2409067302942276, 0.10107291489839554, 0.14294160902500153, 0.17770852148532867, 0.18500815331935883, -0.07947271317243576, 0.4302300214767456, 0.21853689849376678, 0.036243684589862823, -0.13157148659229279, -0.02182796224951744, 0.12040399014949799, -0.1945374310016632, -0.024623284116387367, -0.17789621651172638, 0.17862369120121002, -0.4318881034851074, -0.13988426327705383, 0.09615220874547958, -0.07122302055358887, 0.058517880737781525, -0.17093752324581146, -0.4256228804588318, -0.08411476016044617, -0.03956788778305054, -0.1351490616798401, 0.020830368623137474, -0.23784677684307098, -0.2676851749420166, -0.02063678950071335, 0.11138642579317093, 0.10956160724163055, 0.1302260458469391, -0.09590476006269455, -0.26101115345954895, 0.1751834899187088, -0.18478353321552277, 0.03640271723270416, 0.024868018925189972, -0.15506687760353088, 0.22672432661056519, -0.05881321802735329, -0.2782287895679474, -0.1139146089553833, -0.25459691882133484, -0.03498629108071327, 0.008662800304591656, -0.12169041484594345, 0.02177242562174797, -0.18127474188804626, 0.28973668813705444, 0.09447592496871948, 0.036893509328365326, 0.0939054787158966], [-0.35369136929512024, 0.06321614980697632, 0.04284999147057533, 0.27954235672950745, 0.008614377118647099, -0.05037185922265053, -0.20920111238956451, -0.07982070744037628, -0.15476958453655243, 0.060836222022771835, 0.34051749110221863, 0.281026154756546, -0.2241964042186737, 0.019668249413371086, 0.08592060208320618, -0.15226298570632935, -0.077115498483181, 0.11754222214221954, -0.00795634463429451, -0.04182092100381851, 0.5298596620559692, 0.05465332791209221, 0.09206295013427734, -0.25637286901474, -0.06138434261083603, -0.082260861992836, -0.08767689764499664, -0.20642249286174774, -0.18954907357692719, 0.13606414198875427, -0.19500945508480072, -0.05016353726387024, 0.03336958959698677, 0.04815411567687988, -0.08670525252819061, 0.08487281948328018, 0.23807959258556366, 0.11829482764005661, -0.3445022404193878, 0.12263616919517517, -0.012814348563551903, 0.11618685722351074, -0.009601760655641556, -0.050269510596990585, 0.1341249942779541, 0.10948899388313293, 0.14126791059970856, -0.5043688416481018, 0.17882996797561646, 0.287799209356308, 0.20436961948871613, 0.0017386514227837324, -0.3174511790275574, 0.14524883031845093, -0.013869204558432102, -0.1568772792816162, 0.04417268931865692, 0.03154364973306656, 0.08310402184724808, 0.008282287046313286, -0.16210690140724182, 0.06964916735887527, -0.02411075122654438, -0.06475561112165451], [0.02257549576461315, 0.14608387649059296, 0.19647246599197388, -0.1116173192858696, 0.18576884269714355, -0.037404268980026245, -0.3032225966453552, -0.39975690841674805, -0.06592485308647156, -0.05760873481631279, -0.150974839925766, 0.14559385180473328, 0.1672176867723465, -0.3297373056411743, -0.07643914967775345, 0.21900132298469543, 0.1626947969198227, -0.06420433521270752, 0.1399177759885788, -0.31733325123786926, 0.13226418197155, 0.061614736914634705, 0.23431162536144257, -0.06525503844022751, 0.18377941846847534, 0.27280667424201965, -0.02661912702023983, 0.023839304223656654, 0.026254305616021156, 0.1763623207807541, 0.16742616891860962, -0.10245013982057571, 0.1614285111427307, -0.29787588119506836, 0.3222532272338867, -0.17087355256080627, 0.05560098960995674, -0.1844126284122467, -0.12072120606899261, 0.06309517472982407, 0.36403384804725647, 0.19778236746788025, 0.152424156665802, 0.04604218527674675, -0.26464948058128357, 0.042194243520498276, -0.22343359887599945, 0.03426087647676468, 0.11450479179620743, -0.05210212245583534, -0.07023855298757553, -0.06742734462022781, 0.06547931581735611, -0.04095107316970825, -0.1757728010416031, 0.04963020980358124, 0.22123171389102936, 0.25769278407096863, -0.20077309012413025, 0.012512107379734516, -0.24537932872772217, 0.04460196569561958, -0.3108181655406952, -0.23308943212032318]], "mlp_extractor.policy_net.2.bias": [-0.008483530953526497, -0.00967952236533165, 0.004077802412211895, 0.0020246885251253843, 0.00212817988358438, 0.012622558511793613, -0.014494728296995163, -0.008664337918162346, -0.002020140178501606, -0.016991406679153442, -0.01323182974010706, -0.005206429865211248, -0.0022857734002172947, 0.017237214371562004, 0.010128694586455822, -0.008224237710237503, 0.005974668078124523, 0.014827193692326546, -0.009066004306077957, 0.0019221906550228596, -0.004112643655389547, -0.007078900467604399, 0.008605282753705978, -0.008280844427645206, 0.004603988490998745, -0.006854117847979069, 0.00890370737761259, 0.021888697519898415, -0.004207214340567589, -0.0038914144970476627, 0.00021110587113071233, 0.008883930742740631, -0.007931004278361797, -0.008337902836501598, 0.010281057097017765, -0.011701829731464386, 0.00836397148668766, 0.01917303167283535, -0.012022793292999268, -0.004357520956546068, 0.020412955433130264, 0.00566102983430028, 0.0023841194342821836, 0.0022320032585412264, 0.005575069226324558, 0.0074128457345068455, -0.001440341118723154, 0.017582304775714874, 0.013048090972006321, -0.0013384901685640216, 0.017122020944952965, 0.009672463871538639, -0.013853375799953938, -0.00917135365307331, -0.023258700966835022, 0.002041693776845932, -0.009750868193805218, 0.004633922129869461, -0.0019922161009162664, -0.00018270654254592955, -0.012510538101196289, -0.009045776911079884, -0.00816386565566063, 0.009113314561545849], "mlp_extractor.value_net.0.weight": [[0.04026349261403084, -0.03488766774535179, -0.06486014276742935, -0.29469045996665955, -0.26485562324523926], [-0.31176555156707764, 0.1212729662656784, -0.05765915289521217, -0.24823595583438873, 0.1131928488612175], [-0.05597018450498581, -0.16850244998931885, -0.0017107478342950344, 0.033295873552560806, 0.08255212008953094], [0.15275046229362488, -0.03239922970533371, -0.03613225370645523, 0.0058102915063500404, -0.031741172075271606], [0.2785419225692749, 0.1961839348077774, 0.39881548285484314, 0.23459261655807495, -0.03380918875336647], [0.22137701511383057, 0.17536891996860504, 0.14295393228530884, 0.22397974133491516, 0.05592487007379532], [-0.07994217425584793, -0.03608531504869461, -0.14858777821063995, 0.2649135887622833, 0.35825613141059875], [-0.02152797020971775, 0.3420177698135376, -0.13066785037517548, -0.20641101896762848, 0.10414060950279236], [-0.1939890831708908, -0.1889319270849228, -0.12526796758174896, -0.14260132610797882, -0.03654435649514198], [0.21659252047538757, 0.09122446924448013, -0.011868535540997982, 0.03310738503932953, -0.32891854643821716], [-0.3948233425617218, -0.14834734797477722, -0.007020318880677223, 0.0534682422876358, -0.3131577670574188], [0.19223156571388245, -0.09125199913978577, 0.06518319249153137, 0.0023791855201125145, -0.03239515796303749], [-0.11826261132955551, -0.09133022278547287, -0.2686101496219635, 0.09290453046560287, -0.05008285492658615], [0.07335740327835083, -0.30925610661506653, 0.010527263395488262, -0.03616255521774292, 0.3722926378250122], [0.037181444466114044, -0.05148329585790634, -0.23392190039157867, 0.05146094039082527, -0.06202016398310661], [0.11403178423643112, -0.13658924400806427, 0.09454690665006638, -0.22740048170089722, 0.08040191978216171], [-0.25096800923347473, -0.03391723707318306, -0.3445501923561096, 0.04462477192282677, 0.25431203842163086], [0.2131473422050476, 0.017112528905272484, 0.3121142089366913, 0.14818823337554932, -0.07156422734260559], [0.040389399975538254, -0.16889402270317078, 0.15917398035526276, 0.1824575513601303, 0.04126964136958122], [-0.055660706013441086, -0.43126606941223145, 0.03544182702898979, -0.20858287811279297, 