{"mlp_extractor.policy_net.0.weight": [[0.3275414705276489, -0.1260310560464859, -0.0289829820394516, 0.01735343039035797, -0.018129857257008553], [-0.0399930439889431, -0.06740932911634445, -0.34975820779800415, 0.351849764585495, 0.26500752568244934], [0.2150985151529312, 0.21797548234462738, -0.16530780494213104, -0.24610377848148346, -0.021525675430893898], [-0.21026764810085297, 0.025240441784262657, -0.16848307847976685, -0.08688806742429733, 0.2691155672073364], [0.0009437486296519637, -0.04870663210749626, 0.215818852186203, -0.15424887835979462, 0.1888805627822876], [-0.17393293976783752, -0.2636353373527527, 0.19368736445903778, 0.12896792590618134, 0.2478930503129959], [-0.35771721601486206, 0.2194884866476059, 0.048175059258937836, 0.0735757127404213, -0.45033830404281616], [-0.003370273159816861, -0.3120613098144531, -0.04045850783586502, -0.27734920382499695, 0.16463947296142578], [-0.04654596373438835, 0.12109144777059555, -0.3448280692100525, 0.23474808037281036, -0.17418043315410614], [-0.13747136294841766, -0.18813566863536835, 0.05968599021434784, 0.23598690330982208, -0.09882881492376328], [-0.2776578962802887, -0.15130463242530823, -0.10777243971824646, -0.2321353405714035, -0.034895822405815125], [-0.18274559080600739, 0.0006868159980513155, -0.18220749497413635, -0.19523800909519196, -0.06509188562631607], [0.008966338820755482, 0.006436367053538561, 0.1396452784538269, 0.14231714606285095, -0.23307645320892334], [0.17104172706604004, -0.0962919071316719, 0.01584114134311676, -0.07108265906572342, -0.14859454333782196], [-0.1449931412935257, 0.21873854100704193, -0.18260154128074646, -0.29631611704826355, -0.026376353576779366], [-0.13475896418094635, 0.24398058652877808, -0.1772727072238922, -0.011848651804029942, 0.13940134644508362], [-0.08876720070838928, 0.33260002732276917, -0.11352383345365524, -0.05023159459233284, 0.17430980503559113], [0.0670757070183754, 0.049945518374443054, 0.3593089282512665, -0.38409101963043213, 0.15588714182376862], [-0.2226160168647766, -0.2101278156042099, 0.12562115490436554, 0.1244029626250267, -0.4261854887008667], [-0.3475850820541382, 0.16891944408416748, 0.20509091019630432, -0.06171344593167305, -0.030638903379440308], [-0.1718929558992386, 0.302918016910553, -0.22400547564029694, 0.04809911176562309, 0.16264231503009796], [0.04218161851167679, -0.04838399961590767, -0.16677556931972504, 0.02059382200241089, 0.06457801908254623], [-0.026273313909769058, 0.06417220085859299, 0.45699432492256165, -0.0974181666970253, 0.18066568672657013], [-0.017172252759337425, -0.25022056698799133, -0.010165990330278873, -0.30407917499542236, -0.13224130868911743], [0.13442176580429077, 0.20645053684711456, 0.27657026052474976, -0.10941141843795776, 0.11373144388198853], [0.16890113055706024, -0.21052862703800201, 0.04191382974386215, -0.023967916145920753, 0.07854034006595612], [-0.4335179328918457, 0.1956123560667038, 0.02820632979273796, -0.13816140592098236, 0.08714275062084198], [-0.21954624354839325, 0.2350514978170395, -0.14416861534118652, -0.1786159723997116, 0.019682327285408974], [0.11655884981155396, -0.24449031054973602, -0.09682151675224304, -0.29090946912765503, -0.16930606961250305], [0.16702285408973694, -0.09338351339101791, -0.3098609745502472, -0.12460733205080032, 0.15874254703521729], [-0.09635685384273529, -0.11322211474180222, -0.2705460786819458, -0.12542137503623962, -0.06026824936270714], [0.18863056600093842, -0.03824729099869728, -0.48850303888320923, 0.008639597333967686, 0.08159039914608002], [-0.35929074883461, 0.07001318037509918, 0.0038236635737121105, -0.1614057570695877, 0.27340418100357056], [0.18459951877593994, 0.21868114173412323, -0.013975228182971478, -0.35755065083503723, 0.16059662401676178], [0.0740034356713295, 0.01599820703268051, -0.24467898905277252, 0.06526561081409454, 0.31698209047317505], [-0.13399842381477356, -0.21634888648986816, -0.02234003134071827, -0.004501040559262037, 0.08758822828531265], [0.05680195987224579, -0.11210913211107254, -0.03435477241873741, 0.09780000895261765, 0.19952578842639923], [-0.285539448261261, 0.05599967762827873, 0.1794549524784088, 0.03051340952515602, 0.008597660809755325], [-0.021418601274490356, 0.15646924078464508, 0.11859767884016037, 0.30923089385032654, 0.1131284236907959], [0.15775971114635468, 0.07899385690689087, 0.12170325219631195, 0.11220034211874008, 0.15730175375938416], [-0.3287341892719269, 0.04815028980374336, 0.2141880989074707, 0.009870470501482487, -0.08788932859897614], [0.011666162870824337, -0.3719036281108856, 0.06688620895147324, 0.12961553037166595, -0.018191054463386536], [0.048681922256946564, 0.20872239768505096, -0.07202544808387756, -0.05074054375290871, -0.1312245875597], [-0.07352662831544876, 0.3188117742538452, 0.10302788019180298, -0.005747122224420309, 0.17739370465278625], [0.0023961400147527456, 0.12207897752523422, -0.06300865113735199, 0.03671221435070038, -0.28783848881721497], [-0.11031284183263779, -0.42830225825309753, -0.2022031545639038, -0.09505242854356766, 0.00962674617767334], [-0.20529702305793762, -0.07813850790262222, -0.159113347530365, -0.23585127294063568, 0.0505843386054039], [-0.005017450544983149, -0.36510801315307617, -0.21618904173374176, -0.15064267814159393, -0.17946121096611023], [-0.00600242568179965, 0.05001305043697357, 0.13359478116035461, -0.008489562198519707, 0.4485152065753937], [-0.29201367497444153, -0.31668370962142944, 0.13134609162807465, 0.19259411096572876, 0.42544665932655334], [-0.07797829806804657, 0.0660976767539978, 0.004101872444152832, 0.06407847255468369, -0.14587654173374176], [-0.3747439384460449, -0.04743295535445213, -0.14326618611812592, 0.11495008319616318, 0.1403929591178894], [0.1525544375181198, 0.17577821016311646, -0.03425135463476181, 0.14569900929927826, 0.21147172152996063], [0.16703128814697266, 0.034765951335430145, 0.07622076570987701, -0.0766044333577156, -0.07535583525896072], [-0.031865473836660385, 0.07839525490999222, 0.003162908833473921, -0.21219541132450104, -0.0004229499609209597], [-0.029689431190490723, 0.10719162970781326, -0.0028691773768514395, -0.11290445923805237, -0.17241202294826508], [0.164044588804245, 0.1610317826271057, 0.0611845999956131, 0.01965228281915188, -0.01638258621096611], [0.22087016701698303, 0.1860724687576294, -0.02849600836634636, 0.4146534502506256, 0.06137004867196083], [0.05238563194870949, -0.08663851022720337, -0.200232595205307, -0.1854051947593689, -0.019236493855714798], [-0.2070133090019226, -0.01950908452272415, -0.16177354753017426, 0.34128043055534363, 0.018989555537700653], [-0.07950350642204285, -0.11388695985078812, -0.21228089928627014, -0.1261332631111145, -0.04370669275522232], [-0.1564367264509201, -0.30193203687667847, 0.23171651363372803, 0.07462449371814728, 0.16263511776924133], [-0.03915444388985634, 0.0034398864954710007, -0.0779249370098114, 0.10876282304525375, -0.028293848037719727], [0.22114045917987823, -0.04916923865675926, 0.08999551087617874, -0.2135346680879593, -0.031125294044613838]], "mlp_extractor.policy_net.0.bias": [-0.049081701785326004, 0.028668224811553955, -0.027315523475408554, 0.010607792995870113, 0.007078749593347311, 0.043379541486501694, 0.061667121946811676, 0.009509864263236523, -0.017804306000471115, 0.0019576963968575, 0.004736961796879768, -0.006542060989886522, 0.006498552858829498, -0.012347429059445858, -0.0024240463972091675, 0.027771398425102234, 0.013424892909824848, 0.0013793172547593713, 0.046688247472047806, 0.0387246310710907, 0.0029439639765769243, 0.0010608639568090439, 0.01138857752084732, -0.023797430098056793, 0.028297623619437218, -0.018119286745786667, 0.025648826733231544, -0.010174649767577648, -0.008383965119719505, -0.013004197739064693, -0.024863766506314278, 0.015877993777394295, 0.018236223608255386, -0.005026064347475767, -0.013358062133193016, 0.0003909888328053057, 0.03330182284116745, 0.05075891688466072, 0.0068321190774440765, 0.011505921371281147, -0.026606516912579536, 0.01586628332734108, -0.02562851831316948, 0.04704129323363304, 0.014016090892255306, 0.001321611925959587, -0.0004302090674173087, 0.0016678129322826862, -0.009878897108137608, 0.037384890019893646, -0.012768562883138657, -0.023634565994143486, 0.008838056586682796, -0.007192407734692097, 0.021824557334184647, 0.018938960507512093, -0.00079079729039222, 0.027150064706802368, -0.014177265577018261, -0.015399143099784851, -0.008065272122621536, 0.0165646243840456, -0.029071060940623283, -0.040848687291145325], "mlp_extractor.policy_net.2.weight": [[-0.0023210528306663036, 0.1472603976726532, -0.09308462589979172, -0.18504351377487183, -0.21368230879306793, -0.03766230493783951, -0.25795817375183105, 0.12475644052028656, 0.2349296659231186, 0.13209614157676697, -0.0025244553107768297, -0.17775903642177582, -0.06317514181137085, 0.1944984644651413, -0.41958296298980713, 0.2986242473125458, -0.09660232812166214, -0.05579596012830734, -0.14757603406906128, -0.10875309258699417, 0.09088078141212463, 0.13426338136196136, 0.031689126044511795, 0.18537284433841705, 0.2813771963119507, 0.04212826490402222, 0.3488522469997406, 0.10562096536159515, -0.1562311351299286, -0.20750898122787476, -0.13699817657470703, 0.11428917944431305, -0.08440471440553665, -0.18938255310058594, -0.06154194474220276, 0.1453254669904709, 0.14108547568321228, -0.20723867416381836, -0.4093985855579376, -0.23636651039123535, 0.22600117325782776, -0.012304313480854034, 0.03316280245780945, 0.03603310510516167, 0.006171863060444593, -0.04799261689186096, 0.14410820603370667, -0.11869795620441437, 0.4162892997264862, 0.10638780891895294, 0.07941631227731705, -0.08277290314435959, 0.12484947592020035, -0.10504642128944397, -0.14378412067890167, -0.18072934448719025, -0.07589052617549896, 0.047207288444042206, -0.019393179565668106, 0.1737910509109497, 0.37052732706069946, 0.2052098512649536, -0.17611579596996307, -0.12006495147943497], [0.0463065579533577, -0.0076738884672522545, -0.3574219048023224, -0.1715874820947647, 0.028928836807608604, 0.027637140825390816, 0.08866257965564728, 0.12213808298110962, -0.18059691786766052, 0.013991311192512512, 0.025571851059794426, 0.24968494474887848, 0.23784328997135162, -0.11550777405500412, 0.3263535797595978, 0.07354895770549774, 0.22026720643043518, -0.11822392791509628, -0.05580371618270874, -0.08972961455583572, -0.043867990374565125, -0.1831618994474411, 0.040592584758996964, 0.08410599827766418, 0.07034731656312943, 0.22052548825740814, 0.03682000935077667, 0.13019022345542908, -0.14699451625347137, -0.06602074950933456, 0.12239144742488861, -0.2036120444536209, -0.28766244649887085, -0.404185950756073, -0.2739279568195343, -0.08415911346673965, 0.13545328378677368, 0.20667773485183716, 0.014625126495957375, -0.23792850971221924, 0.23639734089374542, 0.03561576083302498, 0.16652195155620575, -0.03355375677347183, 0.044625770300626755, 0.10862480849027634, 0.21549645066261292, -0.09551706165075302, 0.0319315530359745, -0.24942483007907867, 0.1157115176320076, 0.24837613105773926, -0.03372887149453163, 0.28925323486328125, 0.13014432787895203, 0.47825345396995544, -0.09260595589876175, 0.39401111006736755, 0.08229273557662964, 0.1873151808977127, 0.08870907872915268, -0.08296845108270645, 0.1148863434791565, -0.1329575926065445], [-0.06442736089229584, -0.07070113718509674, -0.06527683883905411, 0.12417172640562057, 0.046651680022478104, 0.28319352865219116, 0.1714770644903183, 0.14843831956386566, 0.22965388000011444, 0.4192282557487488, -0.14970916509628296, -0.01265326514840126, -0.12367286533117294, 8.079111285042018e-05, 0.13128021359443665, -0.10139993578195572, -0.03621095046401024, -0.331633061170578, -0.28228503465652466, -0.022389790043234825, 0.34068480134010315, 0.05911780148744583, -0.04639803245663643, -0.11348303407430649, -0.09509766846895218, 0.009970990009605885, 0.19384774565696716, 0.10510171204805374, 0.24822407960891724, 0.08751967549324036, -0.07582353800535202, 0.23616065084934235, -0.2747527062892914, 0.11705541610717773, -0.4290292263031006, -0.10073787719011307, 0.2362346053123474, -0.11624613404273987, 0.07769972831010818, 0.16207480430603027, -0.31718912720680237, -0.05319223925471306, 0.19663412868976593, 0.23382575809955597, -0.06854870170354843, -0.3051069974899292, 0.2564079165458679, -0.13669167459011078, 0.13090750575065613, -0.17120012640953064, -0.0410047248005867, 0.11538045108318329, 0.030071131885051727, -0.20690803229808807, 0.08536865562200546, 0.041511278599500656, 0.17963740229606628, -0.11282191425561905, 0.1769152283668518, -0.12666502594947815, -0.23863770067691803, 0.08813022077083588, -0.04266420379281044, 0.1422540545463562], [0.09511078894138336, 0.17077650129795074, 0.2835165858268738, 0.2055346965789795, 0.13412976264953613, -0.023680824786424637, 0.28458452224731445, -0.15196800231933594, 0.04573075473308563, -0.18622533977031708, 0.06914675235748291, 0.059390123933553696, 0.020951487123966217, -0.12400783598423004, -0.10674552619457245, 0.13813084363937378, -0.01567617990076542, -0.14148913323879242, -0.3013783097267151, -0.003982244059443474, -0.07544616609811783, -0.29143843054771423, 0.1886809766292572, 0.11989990621805191, 0.21084412932395935, -0.27760812640190125, -0.2429424226284027, 0.2534913718700409, 0.13112977147102356, -0.10187685489654541, -0.01733131892979145, 0.21856689453125, -0.41789302229881287, -0.024867737665772438, -0.02608034387230873, 0.309722900390625, 0.06276313960552216, 0.27922460436820984, 0.019124628975987434, 0.16990967094898224, 0.06740376353263855, -0.02554185688495636, -0.3828609883785248, 0.2007509022951126, 0.19158653914928436, -0.046594273298978806, 0.26616108417510986, -0.17219769954681396, -0.11205180734395981, 0.20773327350616455, 0.17450590431690216, -0.2947503626346588, -0.1812642514705658, 0.06778309494256973, 0.10451384633779526, 0.07974161952733994, -0.09967013448476791, -0.10039650648832321, -0.2743099331855774, 0.18627016246318817, 0.022064197808504105, -0.00932508148252964, 0.28310462832450867, -0.22310061752796173], [-0.23661689460277557, -0.13672733306884766, -0.1906673014163971, 0.12495341897010803, -0.1809501200914383, -0.10844872891902924, -0.12347608059644699, 0.01000704150646925, -0.10282061994075775, 0.24567152559757233, 0.17914514243602753, 0.015585731714963913, 0.13596652448177338, -0.19327209889888763, 0.0813605859875679, -0.05553441494703293, -0.11341460049152374, -0.1984148919582367, 0.07986214756965637, -0.4770057797431946, 0.02027267962694168, -0.36373233795166016, 0.02283228375017643, 0.13324463367462158, -0.20606668293476105, -0.14971010386943817, 0.07536491006612778, -0.09927952289581299, 0.12136367708444595, 0.0906134694814682, 0.2669292688369751, 0.04480310156941414, 0.2559918165206909, -0.15070569515228271, -0.04545433074235916, -0.08317563682794571, -0.3310735523700714, -0.09136815369129181, -0.06789124011993408, -0.03169708326458931, -0.10713579505681992, 0.15020523965358734, -0.17993423342704773, -0.06668327003717422, 0.21161042153835297, -0.08089258521795273, 0.18735399842262268, 0.055664848536252975, -0.029644450172781944, -0.0014397534541785717, -0.10181011259555817, 0.16961200535297394, 0.03812755271792412, -0.28217002749443054, 0.2473781704902649, -0.334006130695343, 0.09013955295085907, 0.1620096117258072, -0.14320270717144012, -0.023967524990439415, 0.05586131289601326, 0.2585938572883606, 0.19123657047748566, -0.4682464897632599], [0.12766271829605103, -0.19912035763263702, 0.30035173892974854, 0.0842326432466507, -0.33745306730270386, -0.26672306656837463, 0.03422188013792038, -0.12927751243114471, -0.2756602466106415, 0.03441572189331055, -0.0835462361574173, 0.11894403398036957, 0.2485765963792801, 0.02103831060230732, 0.11372610181570053, 0.08241928368806839, -0.0026744287461042404, -0.17552150785923004, -0.24535931646823883, 0.1953539401292801, 0.2454085797071457, 0.07770945876836777, -0.07765185832977295, 0.05332711338996887, -0.06223778799176216, -0.029219793155789375, 0.22159752249717712, -0.042043399065732956, -0.20142537355422974, -0.1484612226486206, -0.011905509047210217, 0.0007389233796857297, 0.1951836794614792, 0.259604275226593, 0.3258165419101715, -0.07809917628765106, 0.02112611196935177, -0.20616625249385834, 0.1655120700597763, -0.02910267934203148, 0.21927696466445923, -0.47921648621559143, -0.17399652302265167, -0.18685752153396606, 0.12094538658857346, -0.04483378678560257, 0.024486767128109932, -0.03066948428750038, 0.33817267417907715, -0.1839022934436798, 0.02056136354804039, 0.0389627106487751, -0.12555256485939026, -0.07457748800516129, 0.15522363781929016, 0.46618568897247314, 0.16859351098537445, -0.23489104211330414, -0.16534949839115143, -0.03730988875031471, 0.06454293429851532, 0.021219929680228233, 0.13581353425979614, 0.022032946348190308], [-0.11576288193464279, 0.0694890096783638, -0.036057520657777786, 0.056712403893470764, 0.352994441986084, -0.20388095080852509, 0.0264350026845932, 0.14928947389125824, -0.21430735290050507, -0.11290054023265839, 0.17577439546585083, 0.17389242351055145, 0.2256685346364975, 0.227164164185524, -0.16346007585525513, 0.0632752850651741, -0.3503417670726776, -0.02252504602074623, -0.24002738296985626, -0.037388429045677185, 0.0509636364877224, -0.06132875382900238, -0.014163271524012089, 0.1570652723312378, -0.15537326037883759, 0.21386587619781494, 0.0448327362537384, -0.19248183071613312, -0.19390372931957245, -0.06305941194295883, -0.09072745591402054, -0.18089595437049866, 0.028485659509897232, 0.176228865981102, -0.32191407680511475, 0.06615526229143143, 0.005091951694339514, 0.06742635369300842, -0.17384593188762665, -0.11921483278274536, -0.27478402853012085, -0.13719290494918823, 0.08670741319656372, 0.17852693796157837, -0.11545626819133759, -0.20866672694683075, -0.19569450616836548, 0.08303346484899521, -0.023835528641939163, 0.02974492311477661, -0.42303499579429626, -0.07823725789785385, -0.4197729825973511, -0.26604965329170227, -0.0594136007130146, -0.05877428129315376, 0.019487669691443443, 0.25810226798057556, -0.06842166185379028, -0.27941012382507324, 0.29738566279411316, -0.038062624633312225, 0.24910391867160797, 0.2336280196905136], [-0.015668727457523346, -0.11684588342905045, -0.057163797318935394, 0.3687281906604767, -0.04493212327361107, -0.1661009043455124, 0.05072696879506111, -0.08810033649206161, -0.03368330001831055, 0.18545420467853546, 0.008994147181510925, -0.0740882009267807, 0.24510568380355835, 0.06685076653957367, 0.01562463492155075, -0.258603572845459, -0.00017589607159607112, 0.053655579686164856, -0.03171336650848389, -0.20177936553955078, 0.15537329018115997, -0.029446929693222046, -0.18035070598125458, -0.06026613712310791, 0.03463176637887955, -0.06957069039344788, -0.006692737340927124, 0.07898689806461334, -0.04778998717665672, -0.3741088807582855, -0.03179696574807167, 0.01996552012860775, 0.09269575029611588, 0.13259102404117584, -0.22449283301830292, 0.1138375774025917, -0.042421694844961166, -0.14436937868595123, -0.3525955080986023, 0.07144594937562943, 0.2813161313533783, 0.10656345635652542, 0.010689131915569305, 0.1502121090888977, 0.3562985062599182, 0.04841494560241699, -0.026056863367557526, 0.12165598571300507, -0.2572804093360901, -0.07999849319458008, -0.3538285195827484, -0.24482253193855286, 0.0671013668179512, 0.2106013000011444, 0.23437908291816711, 0.1734275072813034, -0.33250725269317627, -0.23587219417095184, 0.4249311089515686, 0.0817844420671463, 0.03932635113596916, -0.15041297674179077, -0.23422057926654816, 0.18602275848388672], [0.3813249468803406, -0.1320335566997528, -0.11305209249258041, 0.1803702861070633, -0.1457359939813614, -0.04874582588672638, 0.298066645860672, -0.07711560279130936, -0.013651558198034763, -0.3429931402206421, 0.17828448116779327, 0.06440405547618866, 0.21301129460334778, -0.07127583026885986, 0.08609366416931152, 0.05027462914586067, -0.07859371602535248, 0.18006838858127594, 0.18497619032859802, -0.04724634811282158, 0.08689581602811813, 0.18357722461223602, -0.3555438816547394, 0.03839179500937462, -0.1331714540719986, -0.26031196117401123, 0.4479117691516876, -0.1730414628982544, 0.017219290137290955, 0.12744371592998505, -0.2741045653820038, -0.08834164589643478, -0.18584564328193665, -0.026479708030819893, -0.11057756841182709, -0.3196765184402466, 0.08456463366746902, 0.07806498557329178, -0.002857805695384741, -0.024227924644947052, -0.045254528522491455, -0.04814787209033966, 0.364239901304245, 0.16373373568058014, 0.21270841360092163, 0.26236966252326965, -0.05350964516401291, -0.12721043825149536, 0.027662452310323715, 0.22422878444194794, 0.08739535510540009, -0.3088822662830353, 0.042587943375110626, -0.06547671556472778, -0.09830604493618011, -0.14720168709754944, -0.036332905292510986, -0.054768405854701996, -0.05052292346954346, 0.12809036672115326, -0.15871107578277588, -0.030035708099603653, 0.19345761835575104, -0.39631134271621704], [0.21061047911643982, -0.41663235425949097, -0.10538380593061447, -0.32663166522979736, 0.1415218561887741, 0.1830926537513733, 0.11527664959430695, 0.049004390835762024, -0.09143742173910141, 0.0273866169154644, 0.11448308080434799, -0.014746062457561493, -0.12203719466924667, 0.11746332794427872, -0.16397503018379211, -0.005572125781327486, 0.0621468611061573, 0.03900139778852463, 0.30851736664772034, 0.4602484107017517, 0.11745585501194, -0.29416224360466003, -0.10314907133579254, 0.3245624601840973, -0.19517546892166138, -0.015368456020951271, -0.03923606872558594, 0.2595663368701935, 0.5008453130722046, -0.07089570164680481, 0.2818434238433838, 0.1904226541519165, 0.22682619094848633, -0.16011852025985718, -0.06767529994249344, -0.020707879215478897, -0.22553807497024536, 0.03355320170521736, -0.2719000279903412, -0.006524293217808008, 0.1425425261259079, -0.23965595662593842, -0.019588368013501167, 0.2706979513168335, -0.14274060726165771, 0.06424781680107117, -0.013974439352750778, -0.18988282978534698, 0.09622208774089813, -0.020334571599960327, -0.19873589277267456, -0.17847523093223572, 0.08438023179769516, 0.009322850033640862, 0.02091696485877037, 0.15228667855262756, 0.07520895451307297, -0.05698782578110695, -0.1337967962026596, -0.049177348613739014, 0.06193498894572258, -0.12073783576488495, 0.1148306354880333, 0.03292017802596092], [0.08820602297782898, -0.0899786725640297, -0.14700807631015778, -0.11355340480804443, -0.17234840989112854, -0.004452813882380724, 0.13292640447616577, -0.07225260138511658, -0.06039921194314957, 0.0368620827794075, 0.1790141761302948, -0.025661597028374672, -0.10327253490686417, -0.13330905139446259, -0.03213043138384819, 0.11476869136095047, 0.22316257655620575, -0.1631932109594345, -0.01693641021847725, -0.18108916282653809, -0.03607356920838356, 0.08477021008729935, -0.21672329306602478, -0.2033308744430542, -0.13030505180358887, -0.11306976526975632, -0.08859684318304062, 0.2272443175315857, -0.09620270878076553, -0.07645570486783981, -0.24746958911418915, -0.0924011692404747, 0.33725935220718384, -0.14271113276481628, -0.09234919399023056, 0.11697684228420258, -0.038482096046209335, 0.16427788138389587, 0.11913757771253586, 0.10732141137123108, 0.0439920499920845, 0.3663763403892517, -0.033652424812316895, -0.21630151569843292, -0.4844363331794739, -0.044346410781145096, 0.16937945783138275, -0.16658857464790344, 0.11865648627281189, 0.0966576561331749, 0.14325904846191406, -0.5385963916778564, -0.5317423939704895, -0.14271827042102814, 0.25929495692253113, 0.0860145166516304, 0.12239154428243637, 0.09888915717601776, 0.06977441161870956, -0.0841105580329895, 0.04537709802389145, 0.07349042594432831, -0.21875114738941193, 0.12259586155414581], [0.08233080059289932, 0.4419177770614624, 0.031681306660175323, 0.27095267176628113, 0.23663057386875153, -0.063696950674057, -0.06608052551746368, 0.15924419462680817, 0.2136973887681961, -0.2511136531829834, 0.18315893411636353, 0.03820221498608589, 0.04669789969921112, 0.10682699829339981, 0.269057959318161, -0.033916689455509186, 0.3262215256690979, 0.20493298768997192, 0.22019533812999725, -0.1376713067293167, 0.3230421543121338, -0.14309853315353394, 0.12825199961662292, -0.06880906969308853, 0.12817858159542084, 0.22241748869419098, 0.2842802405357361, 0.28280505537986755, 0.0288334209471941, -0.0004126467974856496, -0.11880968511104584, 0.07372229546308517, 0.057098884135484695, 0.0630117803812027, -0.16066572070121765, -0.15239852666854858, -0.3092590272426605, -0.047342635691165924, 0.27897343039512634, -0.0142692094668746, 0.2234928011894226, 0.20546604692935944, -0.21765318512916565, -0.06499234586954117, -0.2379503697156906, -0.16658107936382294, -0.029945503920316696, -0.019563473761081696, 0.29528453946113586, -0.010915142484009266, -0.07999050617218018, -0.1310252994298935, 0.2613981068134308, -0.18480758368968964, 0.025090012699365616, 0.10379285365343094, -0.23233675956726074, -0.0878947302699089, -0.259020060300827, -0.12420421093702316, -0.00858315546065569, 0.03949269652366638, 0.11418221890926361, -0.01172009389847517], [-0.0711386576294899, 0.2261195331811905, 0.1747046858072281, -0.2641999125480652, -0.3596731126308441, 0.19044017791748047, -0.36867573857307434, -0.25735366344451904, -0.1650327742099762, 0.04574168100953102, 0.06469391286373138, -0.018784167245030403, -0.060633186250925064, 0.2668386399745941, 0.22886668145656586, 0.25085917115211487, 0.03937293589115143, -0.13140086829662323, -0.004277697764337063, -0.11989373713731766, 0.031155871227383614, 0.04894176498055458, -0.33933717012405396, -0.014848826453089714, 0.27117031812667847, 0.397157222032547, 0.06626177579164505, -0.24613948166370392, 0.1176833063364029, -0.1633397340774536, 0.26192569732666016, 0.11236435174942017, -0.2719932198524475, 0.10541295260190964, -0.11339402943849564, -0.33654382824897766, 0.014748334884643555, 0.17172637581825256, -0.06252165883779526, 0.08712895214557648, -0.2421034723520279, 0.25808796286582947, -0.1123073473572731, 0.03871199116110802, -0.16780441999435425, 0.11330518871545792, 0.031653303653001785, -0.11729156970977783, -0.125501349568367, 0.04514395445585251, -0.3112451732158661, -0.08947951346635818, -0.1290954351425171, 0.2696342468261719, 0.02238478697836399, -0.08640387654304504, 0.16187919676303864, -0.3007432222366333, -0.06279563903808594, -0.13793979585170746, 0.1358153074979782, 0.05202160030603409, 0.08165871351957321, -0.03087490051984787], [-0.21067751944065094, 0.11307475715875626, 0.19477017223834991, -0.1400502324104309, 0.14808616042137146, 0.048702262341976166, -0.10349629819393158, -0.0022822734899818897, 0.21529152989387512, 0.22902394831180573, -0.037703827023506165, 0.2876969575881958, -0.0031588184647262096, 0.1906270533800125, -0.12854446470737457, -0.1419895589351654, 0.17445595562458038, -0.13910427689552307, 0.1038748174905777, 0.16545936465263367, 0.2827661633491516, -0.20207887887954712, 0.08938273042440414, 0.22725284099578857, -0.23099255561828613, -0.1762114316225052, 0.18572363257408142, -0.009440286085009575, -0.26098766922950745, -0.28468456864356995, -0.23604145646095276, -0.13982410728931427, -0.3497655689716339, -0.05139584094285965, 0.39400777220726013, -0.16633561253547668, -0.24956446886062622, 0.01746576465666294, -0.10300645232200623, 0.06876575201749802, -0.19359701871871948, 0.06369422376155853, -0.14884164929389954, -0.030882664024829865, -0.11040616035461426, 0.30986133217811584, -0.008550122380256653, 0.06976566463708878, -0.12570875883102417, 0.09798909723758698, 0.0007252910872921348, -0.23879002034664154, 0.009756556712090969, -0.06278897821903229, 0.07626973092556, 0.11365824937820435, 0.012216247618198395, 0.2963581681251526, 0.24768026173114777, -0.13641571998596191, -0.2177474945783615, -0.1343945860862732, -0.11775855720043182, -0.3051829934120178], [0.05028221756219864, -0.30736488103866577, 0.15357449650764465, 0.031568337231874466, 0.05094205215573311, 0.06283054500818253, -0.29194560647010803, 0.6296339631080627, 0.09142527729272842, 0.0705622062087059, -0.06959627568721771, -0.0417296327650547, 0.18127934634685516, 0.2687646448612213, 0.10712043941020966, 0.12226395308971405, 0.14974628388881683, -0.15813782811164856, -0.06660576164722443, -0.2348301261663437, -0.32562288641929626, 0.37497419118881226, -0.09110903739929199, 0.04129081964492798, -0.19608353078365326, -0.10343307256698608, -0.25339433550834656, 0.029302623122930527, 0.13191606104373932, -0.1650209277868271, -0.11365096271038055, 0.2368421107530594, 0.0027800302486866713, 0.32075268030166626, -0.014406803995370865, -0.14940182864665985, 0.010289470665156841, 0.30803269147872925, -0.08273235708475113, 0.09111149609088898, 0.2844415009021759, 0.15413817763328552, -0.14276520907878876, 0.026978420093655586, 0.06021721288561821, -0.023478355258703232, -0.03172498196363449, 0.28499236702919006, 0.2972303330898285, -0.08377552777528763, 0.03145594149827957, -0.006559434812515974, -0.037428513169288635, 0.1613476574420929, -0.0860174223780632, -0.10130687803030014, 0.05438956618309021, 0.10780148208141327, -0.07635059207677841, -0.10376916080713272, -0.1230013370513916, -0.21086198091506958, 0.1712855100631714, -0.1044432520866394], [0.046629343181848526, 0.12644609808921814, -0.3645612597465515, -0.06827997416257858, 0.0259168092161417, -0.011962558142840862, -0.10270914435386658, 0.06073017790913582, 0.13528119027614594, 0.15018649399280548, 0.16698630154132843, 0.028666948899626732, -0.05751223862171173, 0.05404363200068474, -0.19926583766937256, -0.007597571704536676, 0.21119411289691925, 0.402037650346756, -0.4788305163383484, -0.03787977620959282, 0.1051403135061264, 0.044803112745285034, -0.20643046498298645, -0.041477810591459274, -0.11844705790281296, 0.08835544437170029, 0.07224295288324356, 0.1347590982913971, 0.2743339538574219, 0.14782088994979858, 0.06165134161710739, -0.14401893317699432, -0.04580811783671379, 0.1879391223192215, 0.2788994014263153, 0.022276662290096283, -0.011314135044813156, -0.2913016676902771, 0.13915786147117615, -0.14574599266052246, -0.007076791953295469, 0.12006314843893051, -0.07251255959272385, 0.13002368807792664, 0.12329794466495514, 0.26979270577430725, 0.16275490820407867, 0.3118661344051361, -0.18020370602607727, -0.47152507305145264, -0.04680563881993294, -0.07351872324943542, -0.30726513266563416, 0.04845370352268219, -0.09380176663398743, -0.18940800428390503, 0.24941937625408173, -0.042877696454524994, -0.14121024310588837, 0.2653805613517761, 0.028382495045661926, -0.08268500119447708, 0.14339667558670044, 0.10677221417427063], [-0.4262320101261139, -0.0617075152695179, 0.07029969990253448, -0.41266459226608276, 0.2603832483291626, -0.28814494609832764, 0.20248191058635712, -0.14554043114185333, 0.05218670889735222, 0.09597156196832657, 0.007143001072108746, 0.018777376040816307, 0.3701854646205902, 0.027050016447901726, 0.24967613816261292, -0.10189768671989441, 0.0456569604575634, 0.299634724855423, -0.13019776344299316, -0.03753791004419327, -0.33840957283973694, 0.11752024292945862, 0.10192397236824036, -0.036851223558187485, 0.0709470883011818, -0.1049627959728241, 0.24349373579025269, -0.029280271381139755, 0.19065523147583008, 0.10012467205524445, 0.07221454381942749, -0.13364912569522858, 0.042075008153915405, 0.0032186685130000114, 0.05808490514755249, 0.4016844630241394, -0.1415117233991623, 0.036502279341220856, 0.09818705171346664, 0.22144165635108948, -0.13143974542617798, -0.10518006980419159, 0.24637949466705322, 0.19992630183696747, 0.03011470101773739, 0.09855173528194427, 0.11109619587659836, -0.07061905413866043, 0.3677273690700531, -0.09103190898895264, 0.01722429320216179, -0.09582065045833588, 0.015004310756921768, 0.05188753455877304, 0.06517722457647324, 0.006146715488284826, -0.10864514857530594, -0.3296736180782318, 0.1942157745361328, -0.2685767114162445, 0.16434970498085022, -0.026313483715057373, -0.10666655004024506, -0.3608497083187103], [0.012733100913465023, -0.08471935242414474, -0.025633253157138824, -0.12835338711738586, -0.14790306985378265, -0.29358577728271484, 0.030239852145314217, -0.03265591710805893, -0.25253334641456604, -0.020252732560038567, 0.3614881634712219, 0.18913474678993225, 0.06804472208023071, 0.3085474967956543, -0.048336222767829895, 0.004941390361636877, 0.2927014231681824, 0.14258907735347748, 0.03890194371342659, -0.007261855062097311, 0.03717337176203728, 0.14930903911590576, 0.3466729521751404, -0.26225098967552185, -0.30287572741508484, -0.06437297910451889, 0.09002618491649628, -0.09782280772924423, -0.07936529815196991, -0.044319044798612595, 0.11932811886072159, 0.19743840396404266, -0.14895276725292206, -0.12676125764846802, 0.1817610114812851, -0.023842550814151764, 0.11460484564304352, -0.2653016746044159, -0.08567357808351517, 0.24050965905189514, -0.16731803119182587, 0.15038762986660004, -0.061863914132118225, 0.136293426156044, 0.2324974238872528, -0.47456735372543335, 0.05910906940698624, -0.32035237550735474, 0.02376394532620907, 0.1022806167602539, 0.0900297537446022, -0.07478280365467072, 0.13397283852100372, 0.3727996349334717, -0.10260458290576935, -0.08653119951486588, 0.006070153322070837, 0.21288809180259705, -0.11345990002155304, 0.0058847456239163876, -0.17059224843978882, 0.12135504931211472, -0.021702267229557037, 0.2647138237953186], [-0.3242916762828827, 0.2547074258327484, 0.03635978326201439, 0.06532860547304153, -0.2389620840549469, 0.3470064401626587, 0.28567537665367126, 0.32706281542778015, -0.20173361897468567, 0.07219352573156357, 0.12193877249956131, 0.42635151743888855, 0.08313621580600739, -0.29726147651672363, -0.10207760334014893, 0.06379488855600357, 0.073678158223629, 0.07334312051534653, 0.07328140735626221, 0.28385111689567566, 0.038681842386722565, -0.03303786739706993, 0.037561412900686264, 0.041390083730220795, 0.34562060236930847, -0.5396645069122314, 0.10028347373008728, 0.16314706206321716, -0.18494686484336853, 0.029209883883595467, 0.08143381774425507, -0.2239265739917755, 0.16703025996685028, -0.000364219507900998, -0.05136854946613312, -0.1445954591035843, 0.24960052967071533, -0.08593443036079407, 0.1335361897945404, 0.07733602076768875, 0.10497935116291046, 0.17652222514152527, -0.02331925369799137, 0.2189033478498459, 0.03282248228788376, 0.04774893820285797, -0.020280160009860992, 0.10676979273557663, 0.09521910548210144, 0.20978060364723206, -0.03640316426753998, -0.008601385168731213, 0.20976442098617554, 0.17060519754886627, 0.20171616971492767, -0.17834848165512085, 0.14885829389095306, -0.001966936979442835, -0.12785160541534424, -0.22753241658210754, 0.20581777393817902, -0.16084729135036469, 0.04655415192246437, 0.08778407424688339], [-0.24965894222259521, -0.2354825884103775, -0.13635219633579254, 0.10379067063331604, -0.2554090619087219, 0.22848106920719147, -0.03923831135034561, -0.20551854372024536, 0.1910300850868225, 0.015795787796378136, 0.05390692502260208, 0.13809841871261597, -0.20253631472587585, -0.005547627806663513, 0.4070897400379181, 0.11332597583532333, -0.2585473358631134, -0.06110142543911934, -0.3206510841846466, 0.058163855224847794, 0.22521571815013885, 0.16807636618614197, 0.36431002616882324, 0.12384284287691116, -0.24779248237609863, 0.18092098832130432, 0.0019201756222173572, 0.2609712481498718, -0.03588450700044632, -0.010559288784861565, 0.1301371306180954, -0.3767738342285156, 0.011687052436172962, 0.04507164657115936, -0.12128632515668869, 0.027649398893117905, -0.11195207387208939, 0.21314719319343567, 0.1398351639509201, 0.19867992401123047, 0.37956807017326355, -0.04976522922515869, -0.020294329151511192, -0.02604040689766407, 0.1538037806749344, 0.10393191128969193, -0.1313018649816513, -0.19203738868236542, -0.09357678145170212, 0.2547647953033447, 0.027044828981161118, -0.24043536186218262, 0.10018669813871384, -0.015691163018345833, -0.284258097410202, -0.16461119055747986, -0.014101824723184109, 0.11752437800168991, -0.2520429491996765, -0.018371880054473877, 0.06447956711053848, -0.11224854737520218, -0.23371554911136627, -0.05681491270661354], [-0.25703001022338867, 0.20843176543712616, -0.26734253764152527, -0.25439709424972534, 0.18782497942447662, 0.20824915170669556, 0.11633515357971191, -0.05688818544149399, 0.031367357820272446, -0.19457021355628967, -0.11189566552639008, 0.05531861633062363, 0.06680930405855179, 0.039800986647605896, -0.1278882920742035, -0.059768080711364746, -0.1876131147146225, -0.2550220787525177, 0.0861690416932106, 0.11078539490699768, -0.005724729970097542, 0.1395418345928192, -0.2896467447280884, -0.010224038735032082, 0.04770815372467041, -0.21122699975967407, 0.18029029667377472, -0.1809035688638687, -0.01804540678858757, -0.4105865955352783, 0.06728577613830566, 0.18472273647785187, 0.17965789139270782, 0.08866802603006363, -0.19880622625350952, 0.007352694869041443, -0.1203216016292572, 0.20490886270999908, 0.1671883910894394, 0.1182933896780014, -0.015948740765452385, 0.12632592022418976, -0.11589611321687698, -0.2597663700580597, 0.3755794167518616, 0.08366028964519501, 0.24941758811473846, 0.00044915027683600783, -0.2002653181552887, -0.29319608211517334, 0.2660476267337799, -0.18677447736263275, 0.2449713796377182, -0.12325768917798996, -0.1894722729921341, 0.18566514551639557, -0.036111440509557724, 0.10726411640644073, -0.4308151602745056, -0.03321848437190056, -0.04234125092625618, 0.2512534558773041, -0.08793794363737106, 0.1695740967988968], [0.32018354535102844, 0.043142396956682205, 0.040223024785518646, -0.012308536097407341, 0.1913503259420395, 0.0499097965657711, 0.10633149743080139, -0.15390920639038086, 0.017715711146593094, 0.4698109030723572, 0.11590465158224106, 0.18631315231323242, -0.058380961418151855, 0.17536583542823792, 0.359121710062027, -0.09673193097114563, 0.20366236567497253, 0.14203259348869324, -0.0638226643204689, -0.133317232131958, -0.15269988775253296, 0.0920010656118393, 0.0529748909175396, 0.3884791433811188, 0.15635626018047333, -0.37573641538619995, -0.1955999881029129, 0.03460054472088814, -0.38545870780944824, 0.13016942143440247, -0.036973170936107635, 0.3211415112018585, 0.007898878306150436, 0.029046138748526573, -0.2228325456380844, 0.0023308482486754656, -0.19686758518218994, -0.1401781290769577, -0.23034363985061646, -0.10092335939407349, -0.10589762032032013, -0.19199155271053314, 0.18277603387832642, -0.380054771900177, -0.01847870647907257, 0.015762289986014366, -0.15876182913780212, -0.10135042667388916, -0.08640386164188385, -0.2581826448440552, -0.02472321316599846, 0.01946125365793705, -0.11733884364366531, 0.06391601264476776, -0.2265709489583969, -0.1542062610387802, 0.18773749470710754, -0.21064075827598572, -0.20920544862747192, 0.06123752519488335, 0.07611948996782303, -0.06445672363042831, -0.05062111094594002, 0.0708266943693161], [-0.019917674362659454, 0.006982092745602131, -0.07675185054540634, -0.272451788187027, 0.028955833986401558, -0.03703378513455391, 0.12498603016138077, -0.005747651681303978, -0.08936642110347748, -0.2708489000797272, -0.2826415002346039, -0.20452460646629333, 0.09352802485227585, 0.03539450094103813, 0.1319430023431778, -0.3847000002861023, -0.08947184681892395, -0.126383975148201, -0.26590099930763245, -0.25207823514938354, -0.12334144115447998, 0.08701684325933456, 0.09066485613584518, 0.10065726935863495, 0.2687124013900757, -0.14806650578975677, 0.1961752474308014, 0.12429364025592804, 0.07733292877674103, -0.15859535336494446, 0.03571174666285515, 0.1977645456790924, -0.22381040453910828, -0.0140420813113451, 0.19863316416740417, -0.19601786136627197, -0.1912432461977005, -0.34437644481658936, 0.12698166072368622, 0.0009009928326122463, 0.32746028900146484, -0.029187029227614403, 0.1375999003648758, 0.07772615551948547, -0.20677925646305084, 0.03851749002933502, -0.17466017603874207, -0.04885367676615715, -0.12121505290269852, 0.438671737909317, -0.058082688599824905, 0.04703613743185997, -0.0946103110909462, -0.03417914733290672, 0.39262810349464417, -0.09295666962862015, 0.21409688889980316, 0.1918202042579651, -0.18611396849155426, 0.13780440390110016, -0.16016611456871033, -0.034782711416482925, 0.014657506719231606, 0.20157591998577118], [0.04509340226650238, 0.08822058141231537, -0.11994332820177078, 0.22655072808265686, 0.1330680251121521, 0.18686002492904663, 0.005009250715374947, 0.16762994229793549, 0.20437657833099365, -0.033811405301094055, -0.14171655476093292, -0.27956634759902954, 0.38545140624046326, -0.024176403880119324, -0.0004386318032629788, 0.41282203793525696, 0.11496632546186447, -0.10364885628223419, 0.10135910660028458, -0.19229306280612946, 0.2360481470823288, 0.12114239484071732, 0.19693127274513245, 0.17192983627319336, -0.12826867401599884, 0.06637009233236313, 0.03904220834374428, -0.25480008125305176, 0.18840789794921875, -0.09382089227437973, 0.058869920670986176, 0.07756580412387848, 0.023040656000375748, -0.15611723065376282, 0.2902945876121521, 0.32111087441444397, 0.055907465517520905, -0.10178902000188828, 0.12700118124485016, -0.3835670053958893, -0.22556570172309875, -0.06964168697595596, 0.24365831911563873, -0.18239198625087738, 0.1042732298374176, -0.04276254028081894, -0.05190781131386757, -0.13128294050693512, -0.18669497966766357, 0.0757942870259285, -0.0573243610560894, -0.15366220474243164, -0.059967122972011566, 0.3379632234573364, 0.17551638185977936, -0.055909164249897, 0.15881040692329407, -0.09892472624778748, -0.16715383529663086, -0.3620576560497284, 0.007913514040410519, -0.23547375202178955, -0.13311724364757538, 0.11124122887849808], [-0.0789961889386177, -0.15590430796146393, 0.09111148118972778, 0.15793800354003906, -0.15026193857192993, 0.08544022589921951, -0.15683326125144958, -0.3965652287006378, 0.08182856440544128, -0.3113732933998108, 0.2475215345621109, 0.015057196840643883, 0.06918704509735107, 0.2916060984134674, -0.09265872091054916, 0.009721075184643269, -0.11994309723377228, 0.2252132147550583, 0.21789886057376862, -0.09656969457864761, -0.16176185011863708, 0.10301706194877625, -0.2023608684539795, 0.07114396244287491, -0.03160902112722397, -0.01623375713825226, -0.022102978080511093, 0.3709486424922943, -0.16515061259269714, 0.010398407466709614, 0.3125196099281311, 0.04984283074736595, -0.25106674432754517, 0.001506297499872744, -0.07059220969676971, 0.2841656804084778, 0.0940941572189331, 0.044040367007255554, -0.07701648026704788, -0.07404860109090805, -0.21310217678546906, -0.107448048889637, 0.15408866107463837, -0.11189533770084381, -0.007148166187107563, -0.10735583305358887, 0.1614992916584015, 0.362277090549469, 0.21468603610992432, -0.15761272609233856, -0.08114860206842422, 0.12921741604804993, 0.11180280148983002, -0.29288655519485474, 0.34806984663009644, -0.031094444915652275, 0.20489247143268585, 0.15494753420352936, -0.011916260235011578, -0.0870293602347374, -0.17999066412448883, -0.44737914204597473, -0.16276320815086365, 0.12282472848892212], [-0.03802748769521713, 0.010281451977789402, -0.10150747746229172, -0.20809142291545868, -0.2039366066455841, 0.11596463620662689, 0.09906086325645447, -0.1303545981645584, 0.2694534957408905, 0.02719721570611, 0.09364014118909836, 0.08033861219882965, 0.25741124153137207, 0.24164283275604248, -0.011292996816337109, 0.010013315826654434, 0.046476099640131, 0.16346558928489685, -0.18282285332679749, -0.2809222638607025, 0.14958904683589935, -0.12658639252185822, -0.006598397623747587, 0.044328875839710236, 0.028691643849015236, 0.07595206797122955, -0.5290929079055786, -0.12251594662666321, 0.038528092205524445, 0.21639308333396912, -0.15014812350273132, 0.1482258439064026, 0.18451523780822754, -0.1740192025899887, 0.2206236869096756, -0.3664618730545044, 0.24228982627391815, 0.0019726271275430918, -0.14713340997695923, 0.07903371006250381, 0.0180821530520916, -0.2345835268497467, 0.21127885580062866, 0.18971292674541473, -0.08785317838191986, -0.1440725177526474, 0.0268150232732296, 0.4163983166217804, -0.17461737990379333, 0.015980148687958717, 0.11860391497612, -0.10238116979598999, 0.125989630818367, -0.16953514516353607, 0.06438464671373367, 0.2818601429462433, -0.2304309904575348, -0.13598623871803284, -0.23026031255722046, -0.24192550778388977, 0.11151493340730667, 0.10717310011386871, -0.13055317103862762, -0.014115716330707073], [0.14518308639526367, 0.3305865526199341, -0.23128369450569153, -0.03630036115646362, 0.19353142380714417, 0.14215390384197235, -0.3489617705345154, 0.009491058997809887, -0.08120114356279373, -0.005877052433788776, -0.12419011443853378, 0.030051695182919502, -0.007032595109194517, 0.18212947249412537, 0.17380712926387787, 0.03760729357600212, -0.38681405782699585, -0.1757524311542511, -0.0905730202794075, 0.03438526764512062, -0.037413544952869415, 0.029694989323616028, 0.1343391239643097, 0.0020472377073019743, -0.1787720024585724, -0.015975890681147575, -0.09970027953386307, 0.007676081266254187, -0.2646723985671997, 0.17035479843616486, 0.19349215924739838, 0.12400160729885101, 0.39897993206977844, -0.04085757955908775, 0.08325463533401489, -0.1724759340286255, 0.06585820764303207, -0.04794557765126228, 0.03715933486819267, 0.022201213985681534, -0.20630086958408356, -0.2807035744190216, -0.0007337722927331924, 0.13194622099399567, -0.0739714503288269, 0.12556327879428864, 0.25805574655532837, 0.0021418507676571608, 0.2716323435306549, -0.1263812631368637, 0.032325513660907745, -0.36322152614593506, 0.015786169096827507, 0.2284213751554489, 0.2815653085708618, -0.2321479767560959, -0.2621455490589142, -0.15185244381427765, 0.19495287537574768, 0.3371545672416687, -0.24966949224472046, -0.16814397275447845, 0.16672632098197937, 0.10200167447328568], [0.05934634432196617, -0.1533898562192917, -0.07626637816429138, 0.22293098270893097, -0.20532222092151642, -0.19812001287937164, 0.0051136864349246025, 0.004291546996682882, -0.17265021800994873, -0.00916124228388071, -0.5500275492668152, -0.07345640659332275, 0.11189599335193634, -0.02079191617667675, -0.12935864925384521, 0.20360930263996124, -0.011120539158582687, 0.3453003168106079, 0.12648369371891022, 0.14003092050552368, 0.11214695870876312, 0.010218932293355465, 0.3787882626056671, -0.09282176196575165, 0.11819469183683395, -0.13486386835575104, 0.01864491030573845, -0.032026443630456924, -0.1976703554391861, -0.1549883335828781, -0.11585346609354019, 0.030506445094943047, -0.013641675002872944, -0.07815742492675781, -0.10713457316160202, -0.08487672358751297, -0.18727028369903564, 0.31488439440727234, -0.012152445502579212, 0.1654801368713379, 0.06395089626312256, -0.09298790246248245, 0.024595482274889946, 0.24867527186870575, -0.3896499276161194, -0.056672755628824234, 0.3208078145980835, -0.01754414662718773, -0.26900118589401245, -0.3818522095680237, -0.14036011695861816, -0.04037684202194214, 0.07553073018789291, 0.09176558256149292, 0.07444127649068832, -0.1900053173303604, 0.20933668315410614, 0.03955521434545517, -0.23430976271629333, 0.06453940272331238, -0.09059680253267288, 0.1705157607793808, -0.1489136964082718, -0.20737935602664948], [-0.11049915850162506, 0.2824874222278595, 0.008217312395572662, 0.28052932024002075, 0.10300762206315994, 0.04475880041718483, 0.2729131281375885, -0.023982897400856018, -0.020216839388012886, 0.2688252627849579, 0.16656093299388885, -0.03944395110011101, -0.18355733156204224, 0.4166422188282013, -0.03560594841837883, 0.14551018178462982, 0.07146898657083511, 0.0027056951075792313, 0.12453784048557281, -0.0350869819521904, -0.1084337905049324, 0.11386781185865402, -0.25058117508888245, -0.034209124743938446, 0.32236093282699585, 0.01486112829297781, 0.1081080287694931, 0.11758223176002502, 0.16719189286231995, -0.0555400624871254, 0.07231293618679047, -0.23927369713783264, 0.30804622173309326, -0.1354343742132187, 0.005249356850981712, 0.07166969031095505, -0.041272711008787155, 0.10116427391767502, 0.1519777476787567, 0.08684059232473373, 0.18711183965206146, -0.4637660086154938, -0.033061474561691284, 0.08031369000673294, 0.11070778220891953, -0.060744814574718475, -0.0001173923519672826, 0.052688129246234894, -0.05203777551651001, 0.2302420735359192, -0.11939173191785812, 0.09578999876976013, -0.20076555013656616, 0.21350733935832977, -0.030135728418827057, 0.07843094319105148, 0.11342861503362656, 0.35106414556503296, 0.034400250762701035, -0.03866657242178917, -0.423932284116745, 0.33703723549842834, -0.08444223552942276, -0.2865760326385498], [-0.27352654933929443, 0.18102802336215973, 0.004816971719264984, 0.24600547552108765, -0.13105666637420654, -0.37975919246673584, -0.10421918332576752, -0.18213120102882385, 0.09389647841453552, -0.14555475115776062, -0.18156802654266357, 0.03530483692884445, 0.03739621117711067, 0.1124662533402443, 0.006784913595765829, -0.24863199889659882, 0.0407533161342144, -0.061289504170417786, -0.14278602600097656, -0.06904890388250351, 0.15645001828670502, -0.11614296585321426, -0.01779347099363804, -0.1919834166765213, 0.00995678547769785, -0.4260070025920868, -0.10616973787546158, 0.15965549647808075, 0.3774223029613495, 0.20241397619247437, -0.01082113478332758, 0.016932088881731033, 0.1067836657166481, -0.15275441110134125, 0.06600717455148697, -0.1312118023633957, 0.06786969304084778, 0.2996026277542114, -0.33652186393737793, -0.23336203396320343, 0.059746406972408295, -0.11147569864988327, 0.16369695961475372, -0.30391213297843933, -0.014540718868374825, 0.2531904876232147, 0.13701263070106506, -0.2151973843574524, 0.1938018798828125, -0.05824970826506615, -0.11976218223571777, -0.03326171636581421, 0.054480619728565216, 0.15884755551815033, -0.29934537410736084, 0.036930061876773834, 0.20417998731136322, 0.0486125648021698, 0.14061106741428375, -0.19617491960525513, 0.03357890620827675, -0.09061893075704575, 0.3031288683414459, 0.3237217962741852], [0.07551254332065582, -0.15233881771564484, 0.052375346422195435, -0.12784042954444885, 0.06797756999731064, -0.28287652134895325, -0.2620205879211426, 0.10280409455299377, 0.02689884603023529, -0.28438881039619446, 0.2628214955329895, 0.2559344470500946, -0.14759334921836853, -0.20383663475513458, -0.0440470315515995, -0.2166796773672104, -0.1944296509027481, -0.13282355666160583, -0.07034434378147125, -0.08138681948184967, -0.003311064327135682, 0.1226578950881958, -0.004267616663128138, 0.3790411353111267, 0.2872926592826843, 0.15698237717151642, 0.06797114759683609, 0.06686583161354065, -0.018539829179644585, 0.0281669981777668, -0.1357748955488205, 0.11114639788866043, 0.10431528836488724, -0.29203009605407715, 0.07298030704259872, -0.10837801545858383, 0.007611673790961504, 0.011659502051770687, 0.1809716671705246, -0.14302648603916168, 0.11791738867759705, -0.12485037744045258, 0.007162647787481546, 0.07951924204826355, 0.091652050614357, -0.41871994733810425, 0.21611276268959045, 0.13109217584133148, -0.262807160615921, -0.2229146659374237, 0.010140122845768929, -0.1427925080060959, -0.042271971702575684, 0.12663434445858002, -0.24028457701206207, -0.12935742735862732, 0.26172012090682983, -0.2586117684841156, 0.40049779415130615, -0.36154627799987793, -0.17751158773899078, -0.136256143450737, -0.09355349093675613, -0.04110771417617798], [-0.2496839016675949, 0.037066131830215454, 0.05237320438027382, 0.07254938781261444, -0.12190566211938858, -0.24168577790260315, 0.15521562099456787, 0.1928098499774933, 0.00700589083135128, -0.09073882550001144, 0.07306495308876038, -0.5101816058158875, -0.1311052143573761, -0.024923725053668022, 0.20692618191242218, -0.05654147267341614, -0.20023109018802643, 0.08275355398654938, 0.36970627307891846, 0.1233123168349266, 0.12525592744350433, -0.10075011849403381, -0.016535144299268723, 0.18433482944965363, 0.12188407778739929, -0.060637217015028, -0.2524067461490631, 0.16930297017097473, 0.020529799163341522, 0.014541327953338623, -0.038573551923036575, 0.029302546754479408, -0.07546696811914444, 0.2731451690196991, 0.013185374438762665, -0.25232112407684326, -0.103742815554142, -0.339861124753952, 0.060059815645217896, 0.25805097818374634, -0.14971522986888885, -0.12446963787078857, 0.2726554870605469, -0.05762392655014992, 0.1720859408378601, -0.1269770711660385, 0.17353102564811707, -0.012204606086015701, 0.0615859180688858, -0.17912520468235016, 0.22040268778800964, -0.19697387516498566, -0.2707434594631195, 0.26486146450042725, -0.08776036649942398, 0.12934938073158264, 0.05596820265054703, 0.2757742702960968, 0.0719102993607521, 0.06531631946563721, 0.4252648949623108, -0.24271374940872192, 0.004632189869880676, -0.15691950917243958], [0.162349671125412, 0.040260136127471924, 0.11360060423612595, -0.3195148706436157, -0.3884739577770233, 0.08806435018777847, 0.18958191573619843, 0.14393876492977142, 0.30019521713256836, 0.22064396739006042, 0.00626261904835701, -0.05611696094274521, 0.09753555804491043, 0.1528947353363037, 0.261856347322464, -0.029340621083974838, -0.3654063045978546, 0.02129742130637169, 0.33281582593917847, -0.16313163936138153, -0.059412144124507904, -0.10512696951627731, 0.2157144844532013, -0.27598023414611816, 0.12220227718353271, 0.08070240169763565, 0.14109472930431366, 0.013455191627144814, -0.029839741066098213, 0.02629530243575573, -0.24128210544586182, 0.18110781908035278, 0.03415622562170029, -0.2614491581916809, 0.0701393410563469, 0.18549512326717377, 0.062083493918180466, 0.1563844531774521, 0.23475557565689087, -0.12194256484508514, -0.08773926645517349, 0.03575604408979416, -0.41763269901275635, 0.19684168696403503, 0.23743371665477753, 0.1697266399860382, -0.23391804099082947, -0.001967112999409437, -0.04536326602101326, -0.2078212946653366, -0.25185075402259827, -0.1328403502702713, -0.05235329270362854, -0.16118700802326202, -0.06458999216556549, 0.010758929885923862, 0.2298814058303833, 0.14156484603881836, 0.0780344232916832, 0.09461138397455215, 0.0636213943362236, -0.0824398547410965, 0.16427353024482727, 0.29230213165283203], [0.29882171750068665, 0.2630670964717865, 0.24380263686180115, -0.20202846825122833, 0.141351118683815, -0.10267730802297592, -0.21340297162532806, -0.020453771576285362, -0.20897866785526276, 0.08692020177841187, 0.1482468545436859, 0.028921950608491898, 0.11481034010648727, -0.1857401579618454, 0.11258590966463089, 0.2350550889968872, -0.2635814845561981, 0.18490828573703766, 0.04058576747775078, -0.29004257917404175, 0.06067397817969322, 0.10116739571094513, -0.06831245124340057, 0.06871055066585541, -0.2529672086238861, -0.29219475388526917, -0.10018286108970642, 0.25222447514533997, 0.3160574734210968, -0.016622915863990784, -0.0037038170266896486, -0.05377820134162903, -0.20365989208221436, 0.29035428166389465, 0.030610177665948868, -0.038583770394325256, 0.29201462864875793, -0.07961642742156982, 0.04607165604829788, -0.008763537742197514, 0.15853796899318695, -0.3204610049724579, -0.05257447808980942, -0.03125467896461487, -0.15998069941997528, 0.12242063134908676, -0.057885490357875824, -0.16286206245422363, -0.20012982189655304, -0.2818293869495392, 0.14920304715633392, -0.00728968158364296, 0.2526753544807434, -0.019580459222197533, 0.15792089700698853, -0.1084742471575737, -0.03859712928533554, 0.2585242688655853, 0.2288409322500229, -0.24475973844528198, 0.13942718505859375, 0.3150789141654968, -0.19596095383167267, 0.10633073002099991], [0.15293030440807343, -0.0010243150172755122, -0.1442977786064148, 0.006869701202958822, 0.22695037722587585, 0.19437891244888306, 0.06285973638296127, -0.12542499601840973, 0.10460717976093292, -0.11657985299825668, -0.04102499783039093, 0.14644496142864227, -0.11418188363313675, 0.0624423623085022, 0.12808988988399506, 0.27185195684432983, -0.008119465783238411, 0.20072756707668304, -0.204511821269989, -0.014419850893318653, -0.08227439224720001, 0.35747843980789185, -0.06927807629108429, -0.2054673135280609, -0.033917706459760666, -0.0639403834939003, -0.027834858745336533, -0.06185496971011162, 0.12315993756055832, -0.2086276262998581, -0.17499509453773499, 0.06544588506221771, 0.23205657303333282, -0.11510036140680313, 0.10190989822149277, -0.1486341506242752, -0.2465832680463791, -0.07828065007925034, -0.027544405311346054, 0.15734291076660156, -0.16250643134117126, -0.02001151256263256, -0.1972707062959671, -0.10644359886646271, -0.02443568781018257, -0.1603350192308426, 0.3161563575267792, -0.0496676042675972, -0.19262400269508362, 0.2947489023208618, -0.2897354066371918, 0.25399112701416016, 0.2906472086906433, -0.16738761961460114, 0.019958605989813805, 0.14438119530677795, 0.16466839611530304, 0.18425287306308746, 0.3574678301811218, 0.10693401098251343, 0.5037037134170532, -0.28931328654289246, 0.16036076843738556, -0.09328464418649673], [-0.005185535177588463, 0.0899033397436142, -0.19860602915287018, 0.06179432198405266, -0.025858871638774872, -0.2444225549697876, -0.05419835075736046, -0.08369555324316025, 0.4437635838985443, -0.010200181975960732, -0.028585361316800117, 0.04249135032296181, 0.3364664614200592, -0.4809601902961731, 0.15411052107810974, 0.14756853878498077, -0.0018501223530620337, 0.1711188703775406, -0.052341755479574203, 0.18892037868499756, 0.01905141770839691, -0.06690001487731934, -0.2781282365322113, 0.02781262993812561, -0.06175766885280609, 0.042566996067762375, -0.04678642377257347, 0.02794370986521244, -0.03261151909828186, -0.19339711964130402, 0.1650984287261963, 0.16966238617897034, 0.05219174176454544, -0.08161637932062149, -0.24347436428070068, -0.17291350662708282, -0.1483386904001236, -0.04915817081928253, -0.1496608853340149, 0.02138037607073784, -0.2038213014602661, -0.14710664749145508, -0.5609118342399597, 0.16685308516025543, -0.06964246183633804, 0.05617057904601097, -0.1598130315542221, 0.07638518512248993, 0.1837160289287567, 0.3023436963558197, 0.24666453897953033, 0.13523589074611664, -0.14118345081806183, 0.2246582955121994, -0.09038087725639343, -0.024231960996985435, 0.17871104180812836, 0.07987645268440247, -0.019558854401111603, 0.006280190777033567, -0.13839629292488098, 0.0009054281981661916, -0.2760608196258545, 0.14330501854419708], [0.051781922578811646, 0.0028397636488080025, 0.04365147277712822, 0.10988207161426544, -0.36493921279907227, 0.15097898244857788, -0.2491883635520935, 0.02697261981666088, 0.467656672000885, 0.03031226247549057, 0.12358154356479645, 0.016246329993009567, 0.2715529501438141, 0.006103702820837498, -0.22605983912944794, 0.02111941948533058, -0.09277799725532532, -0.00224995706230402, -0.16515949368476868, 0.20045244693756104, -0.4507403075695038, 0.03246837481856346, 0.09955506771802902, 0.10230130702257156, 0.050499431788921356, -0.06081563979387283, 0.0653185322880745, 0.29358914494514465, -0.00015022406296338886, 0.1521945595741272, -0.035347338765859604, -0.12275669723749161, 0.15451300144195557, 0.36307355761528015, -0.03354458883404732, -0.1305549293756485, -0.28924331068992615, -0.010323049500584602, 0.03498265892267227, -0.26001617312431335, -0.1795768141746521, 0.1259526014328003, 0.09213491529226303, -0.03703512251377106, 0.0002758493646979332, -0.20528970658779144, -0.1084941178560257, -0.38753095269203186, -0.2588597238063812, -0.036832090467214584, 0.06446372717618942, -0.1220863088965416, 0.12917278707027435, 0.1482551097869873, 0.21281379461288452, 0.42922869324684143, 0.021018074825406075, 0.02549569122493267, 0.06499610841274261, 0.056096505373716354, -0.09385093301534653, 0.2264227718114853, 0.24573828279972076, -0.03804553672671318], [-0.061821479350328445, 0.12052945047616959, 0.018652889877557755, 0.010135366581380367, 0.23400351405143738, -0.09815123677253723, -0.023745905607938766, -0.12865296006202698, 0.0784829705953598, 0.16026805341243744, 0.04269655793905258, -0.05066981166601181, 0.2705468535423279, 0.2485164850950241, 0.025968141853809357, 0.2915242314338684, -0.25444987416267395, -0.19964134693145752, 0.2989587187767029, 0.10949958860874176, -0.025817710906267166, 0.048086877912282944, 0.20561492443084717, 0.14242300391197205, -0.07817643880844116, -0.29611971974372864, 0.1659267246723175, -0.10905114561319351, 0.22433330118656158, 0.28833135962486267, 0.07523899525403976, -0.32853201031684875, -0.11478704959154129, -0.10855694860219955, -0.02848595753312111, -0.3042623996734619, 0.06777636706829071, 0.025005947798490524, -0.01730659045279026, 0.016721490770578384, 0.26446956396102905, 0.4047224521636963, -0.1863923817873001, -0.013477286323904991, -0.05153605341911316, -0.2035171240568161, 0.16358573734760284, 0.17266473174095154, -0.07028311491012573, 0.1940331757068634, 0.06016017496585846, 0.12206321954727173, -0.2132943570613861, -0.1908831000328064, -0.09538371860980988, 0.2647987902164459, 0.20622189342975616, -0.24623896181583405, -0.028726400807499886, 0.38368186354637146, -0.017951665446162224, -0.05053507909178734, -0.24948476254940033, 0.12335799634456635], [0.07795687764883041, 0.01713329181075096, -0.07266774028539658, -0.037639353424310684, 0.1113886684179306, 0.1246800646185875, 0.13648241758346558, -0.5234348177909851, -0.035872384905815125, 0.3403404653072357, 0.06208113208413124, -0.2469814568758011, -0.2604444921016693, -0.17333224415779114, 0.12941856682300568, -0.16597819328308105, -0.19625890254974365, 0.1518782526254654, -0.010193477384746075, 0.24736371636390686, 0.24942992627620697, 0.1439209133386612, -0.0026755991857498884, 0.06801049411296844, -0.08578221499919891, -0.190711110830307, 0.021201303228735924, -0.12179246544837952, -0.04914455860853195, -0.1680314689874649, -0.05348562076687813, 0.041732966899871826, 0.007631178945302963, 0.09022902697324753, 0.062411971390247345, 0.013496311381459236, -0.04052980616688728, 0.35196807980537415, 0.14445991814136505, -0.5280117392539978, 0.23163661360740662, 0.3849365711212158, -0.06583137810230255, 0.20664598047733307, 0.005135436076670885, -0.31734147667884827, 0.048371609300374985, 0.23036916553974152, 0.23284204304218292, 0.09799851477146149, 0.09782931953668594, 0.023806655779480934, 0.06606264412403107, 0.28258827328681946, 0.1359487622976303, 0.0456656776368618, -0.06116960197687149, 0.1848183423280716, -0.07781628519296646, -0.14620831608772278, 0.05530408397316933, 0.10824941098690033, 0.24524490535259247, -0.15819960832595825], [-0.06362903863191605, 0.12508636713027954, -0.04459194466471672, -0.0958627462387085, 0.01252722181379795, -0.06667476892471313, 0.0533444806933403, 0.08579673618078232, 0.05382813885807991, -0.13802741467952728, -0.17268885672092438, 0.06101101636886597, -0.3088577389717102, -0.19907702505588531, -0.14317931234836578, 0.10744106769561768, -0.21148787438869476, -0.03368494287133217, -0.11624258011579514, -0.12340886890888214, -0.042553965002298355, 0.29954299330711365, -0.15269923210144043, 0.13289190828800201, -0.18242119252681732, -0.05543859302997589, -0.10617244988679886, 0.1377110332250595, 0.026695284992456436, 0.30535608530044556, -0.17967720329761505, 0.03529953584074974, -0.18599417805671692, -0.2661281228065491, 0.08573167771100998, -0.17300651967525482, -0.09485362470149994, 0.02656346932053566, -0.05498189106583595, 0.07181389629840851, -0.22949905693531036, 0.14625060558319092, -0.14836813509464264, -0.08743671327829361, 0.19959194958209991, -0.08212389051914215, -0.2941306233406067, 0.008283723145723343, 0.2987663149833679, -0.22902940213680267, -0.6730466485023499, -0.005878637544810772, -0.014848599210381508, 0.2577661871910095, 0.16606363654136658, 0.24792863428592682, -0.14060379564762115, 0.0022587431594729424, -0.27735409140586853, 0.029441053047776222, -0.050807032734155655, 0.20522645115852356, -0.2935914099216461, -0.04050242155790329], [0.02754998207092285, 0.26721084117889404, -0.34705936908721924, 0.015782169997692108, -0.1758122444152832, -0.4150967597961426, 0.29058775305747986, 0.10951392352581024, 0.1389552354812622, 0.12212394177913666, -0.09466032683849335, 0.07258064299821854, -0.20424218475818634, 0.13814088702201843, 0.181666299700737, -0.003002430545166135, -0.05430561304092407, -0.07114735245704651, 0.19652272760868073, 0.24496902525424957, -0.3434649705886841, 0.16124877333641052, -0.09614963829517365, 0.2453494369983673, -0.2953846752643585, 0.35732099413871765, -0.1398816853761673, 0.07155993580818176, -0.08972838521003723, 0.005282323807477951, -0.1889536827802658, -0.1270405650138855, -0.18635183572769165, 0.09374544769525528, 0.02745955064892769, 0.11830861121416092, 0.05542610585689545, -0.09450479596853256, -0.20856697857379913, -0.00011460134555818513, 0.14191828668117523, 0.020535247400403023, -0.05905669555068016, -0.06318381428718567, 0.03163064271211624, 0.13073113560676575, 0.36237773299217224, 0.06270091235637665, -0.10606437921524048, 0.15460890531539917, 0.005750516429543495, 0.0612194649875164, 0.17480191588401794, -0.11009719967842102, 0.26997822523117065, -0.10661107301712036, 0.11146286129951477, -0.22547562420368195, -0.0754542276263237, -0.3463922142982483, -0.03679198771715164, 0.1073857769370079, 0.2519604563713074, 0.16661739349365234], [0.028815967962145805, -0.28560975193977356, 0.2925843298435211, -0.02152988687157631, -0.0072327349334955215, -0.16654379665851593, -0.31008559465408325, -0.036167167127132416, 0.19381703436374664, -0.1708858758211136, 0.06913410872220993, 0.07695480436086655, -0.26429036259651184, 0.17241841554641724, 0.16873934864997864, 0.00033655299921520054, 0.24073678255081177, -0.035234883427619934, 0.03353163227438927, -0.09569787234067917, 0.0809805691242218, 0.0781899020075798, 0.08337987214326859, 0.157173290848732, 0.16860507428646088, -0.19555096328258514, -0.11202958971261978, -0.2384023219347, 0.13618682324886322, 0.0004666206950787455, -0.35058775544166565, -0.24741895496845245, 0.13403482735157013, 0.02731924131512642, -0.15748494863510132, -0.03611250966787338, -0.19749143719673157, -0.06600991636514664, 0.016422178596258163, -0.1759626418352127, -0.25458648800849915, -0.2060185670852661, 0.11081135272979736, 0.3714447319507599, 0.25049450993537903, 0.2548779249191284, 0.24712727963924408, -0.03916424140334129, 0.06365110725164413, -0.05669432505965233, 0.16651929914951324, 0.24226625263690948, -0.14300553500652313, 0.05060604214668274, 0.37865179777145386, -0.12328527867794037, -0.20553404092788696, 0.07550171762704849, -0.13166822493076324, -0.005738336127251387, 0.090574711561203, 0.09058794379234314, -0.0917930006980896, 0.45146575570106506], [-0.04810250923037529, -0.09683899581432343, -0.203086718916893, -0.07333904504776001, -0.13449624180793762, -0.0935787707567215, 0.012658301740884781, -0.24923434853553772, 0.17746645212173462, 0.06667423248291016, -0.22673550248146057, 0.29358452558517456, -0.01445088628679514, 0.003589216386899352, -0.234550341963768, 0.4245784878730774, -0.10514703392982483, -0.04555504024028778, 0.22381940484046936, -0.21213138103485107, 0.14248473942279816, 0.2697330713272095, -0.0025106456596404314, 0.09339191019535065, 0.16811391711235046, -0.11639557033777237, -0.058406442403793335, 0.004829252604395151, -0.033688515424728394, 0.20809637010097504, 0.18130166828632355, 0.2708956003189087, -0.03693993389606476, 0.12886014580726624, -0.004388417582958937, 0.06373528391122818, -0.17101293802261353, -0.3377944529056549, 0.14623254537582397, 0.10716971755027771, 0.15802396833896637, 0.1491028219461441, 0.0015350132016465068, 0.09247526526451111, -0.08067594468593597, 0.13821956515312195, -0.033101242035627365, -0.09849455207586288, -0.03554796427488327, -0.07545483857393265, 0.0012736729113385081, 0.17923562228679657, -0.32397082448005676, -0.04260016605257988, -0.19607749581336975, 0.08215125650167465, -0.49410516023635864, 0.13263949751853943, 0.16896206140518188, -0.3259124159812927, -0.20435382425785065, -0.17344088852405548, 0.38450950384140015, 0.10192995518445969], [0.19342294335365295, -0.04588251933455467, 0.029286520555615425, 0.2375393658876419, -0.05314578488469124, -0.11814501881599426, -0.014260531403124332, 0.11143525689840317, -0.24378305673599243, -0.01994042657315731, 0.09753947705030441, 0.07165930420160294, -0.1215599775314331, 0.11818435788154602, 0.24476060271263123, 0.3329978287220001, -0.3294326663017273, 0.06371026486158371, -0.3416490852832794, 0.20988494157791138, -0.0880354717373848, -0.12049248814582825, 0.20299316942691803, -0.09702032804489136, 0.17028914391994476, -0.0780406966805458, -0.10550178587436676, 0.0875173807144165, 0.25578582286834717, -0.37854018807411194, 0.01514460425823927, 0.05765797197818756, -0.009664048440754414, -0.3022303283214569, 0.02434873767197132, 0.0009693900938145816, -0.2212156355381012, -0.2504587471485138, -0.11463490128517151, 0.013694889843463898, -0.2339794635772705, 0.2914014756679535, 0.3543596565723419, -0.009819075465202332, 0.0022152443416416645, 0.2419881373643875, -0.22269150614738464, 0.3595335781574249, 0.16851890087127686, -0.13477563858032227, 0.26152700185775757, -0.07324843853712082, 0.06103754788637161, -0.11027944087982178, -0.06370764970779419, 0.1724877655506134, 0.0632825642824173, -0.03844889625906944, 0.09707462787628174, -0.21079908311367035, -0.18821580708026886, 0.19932502508163452, 0.022033745422959328, 0.03050258569419384], [0.012871438637375832, -0.36771148443222046, -0.0058091385290026665, -0.057603783905506134, 0.1505366861820221, 0.1416744887828827, 0.04245946556329727, 0.09897521883249283, 0.2993779480457306, -0.25914013385772705, 0.16881613433361053, -0.09343317896127701, -0.0010830912506207824, 0.09440545737743378, 0.0935630276799202, 0.18459585309028625, -0.12333231419324875, 0.022611254826188087, -0.07233741879463196, 0.03582599759101868, 0.026578083634376526, -0.47645246982574463, -0.0966564267873764, -0.11760805547237396, -0.07529205828905106, -0.24662350118160248, -0.07719989120960236, -0.16055427491664886, -0.39302316308021545, 0.09021598100662231, 0.030813874676823616, 0.0043454281985759735, -0.17142918705940247, 0.11138002574443817, -0.03448561578989029, 0.1471811980009079, 0.027517391368746758, -0.1766718477010727, 0.2873247265815735, 0.028305616229772568, 0.25914454460144043, 0.03412189707159996, 0.021667178720235825, -0.13072413206100464, -0.1636643409729004, 0.16617752611637115, 0.3365946114063263, 0.09997915476560593, 0.14702174067497253, 0.17208071053028107, -0.3766005039215088, 0.006373791955411434, 0.1186617985367775, 0.3354364037513733, -0.1528303027153015, 0.03389634191989899, 0.17056547105312347, -0.024397408589720726, 0.11824732273817062, -0.056706320494413376, -0.01779845729470253, 0.48967215418815613, 0.001429646392352879, 0.06579773873090744], [0.13141857087612152, -0.07473855465650558, 0.004516754299402237, -0.1767045557498932, 0.0465269461274147, -0.3450632095336914, -0.09984108805656433, 0.09794967621564865, 0.1562306433916092, 0.23722973465919495, 0.1208256259560585, -0.144448921084404, -0.256653368473053, -0.46067360043525696, -0.03274794667959213, 0.10716955363750458, 0.16779428720474243, 0.00695581641048193, 0.13587749004364014, -0.17669163644313812, -0.1708647459745407, -0.03887752443552017, 0.17698967456817627, -0.25677889585494995, 0.038225091993808746, -0.36276838183403015, 0.15218183398246765, 0.10058476775884628, -0.06830849498510361, -0.4284350872039795, 0.32973212003707886, -0.348514199256897, -0.12025795876979828, 0.01698283851146698, 0.048359379172325134, -0.1484648436307907, 0.06609051674604416, 0.09437502175569534, 0.0887291431427002, 0.031647466123104095, -0.1170910969376564, -0.3834102153778076, 0.3628959655761719, 0.003425750881433487, 0.027799148112535477, -0.09040026366710663, 0.10027993470430374, 0.200205996632576, -0.0816863551735878, 0.1713845282793045, -0.21676644682884216, -0.1343786120414734, 0.04773065075278282, -0.11490555107593536, -0.12818337976932526, 0.17299488186836243, -0.20918023586273193, -0.19726648926734924, -0.24073047935962677, 0.003097894601523876, -0.0892162024974823, -0.16757962107658386, 0.1939423382282257, 0.10010401159524918], [-0.01970970630645752, -0.22315314412117004, 0.07695380598306656, -0.08786646276712418, 0.17267009615898132, -0.19336679577827454, 0.1766834706068039, 0.23162321746349335, 0.24624425172805786, -0.18278540670871735, -0.35924723744392395, 0.22282195091247559, -0.2376895546913147, 0.2950289845466614, 0.17332306504249573, -0.03143830597400665, -0.01298186182975769, 0.2454008013010025, -0.0051756082102656364, 0.040778931230306625, 0.07840810716152191, -0.010888158343732357, -0.12931539118289948, -0.3099956512451172, 0.11216960102319717, -0.15996456146240234, -0.16954295337200165, -0.053636349737644196, -0.08464618027210236, -0.09543458372354507, 0.4978196322917938, -0.2310183346271515, -0.02221722900867462, 0.009420344606041908, -0.038936395198106766, -0.1627415120601654, 0.23542597889900208, -0.1583518087863922, -0.11137526482343674, -0.4582427144050598, 0.02356179989874363, 0.02526736445724964, -0.13004395365715027, -0.02771892212331295, 0.12545762956142426, -0.21689926087856293, -0.1346382051706314, -0.2663101553916931, -0.06809113174676895, -0.10069817304611206, 0.16193632781505585, -0.22024168074131012, -0.132838636636734, -0.18883667886257172, 0.20906150341033936, -0.08912323415279388, 0.0029731797985732555, -0.06292709708213806, 0.04647606611251831, -0.09912395477294922, 0.02157413400709629, 0.006738265044987202, -0.08726190030574799, -0.3096716105937958], [0.00657315831631422, -0.06948462873697281, -0.1697407364845276, 0.20725154876708984, 0.2451617419719696, -0.36166146397590637, -0.1447145789861679, -0.19584901630878448, 0.17548905313014984, 0.0369337759912014, 0.27548468112945557, 0.22179679572582245, -0.25858166813850403, 0.029399000108242035, -0.11118020117282867, 0.050590552389621735, -0.1510223001241684, -0.2482813149690628, 0.0865790843963623, -0.12283049523830414, -0.15606066584587097, -0.14637398719787598, 0.1380445510149002, -0.13311611115932465, 0.14209133386611938, 0.15516535937786102, -0.0322396457195282, -0.22067639231681824, 0.03700339421629906, -0.10212287306785583, -0.16017386317253113, 0.2528776526451111, 0.17805060744285583, 0.29835426807403564, 0.06464637815952301, -0.028852194547653198, 0.38946637511253357, -0.12733305990695953, 0.07456047087907791, 0.06696555763483047, 0.07915452867746353, 0.1555623710155487, 0.0996680036187172, 0.18684332072734833, -0.1297798603773117, 0.30603504180908203, -0.1915934681892395, -0.28830382227897644, 0.05658300966024399, -0.13521350920200348, -0.10128997266292572, 0.0753738209605217, 0.1460128128528595, 0.087704136967659, 0.20350812375545502, 0.1780426800251007, 0.31074827909469604, 0.032651204615831375, -0.2469133585691452, -0.018028412014245987, 0.05242122337222099, -0.33364641666412354, -0.2539675831794739, -0.21681499481201172], [0.03363414108753204, 0.21979565918445587, -0.3274625539779663, -0.11113475263118744, -0.2368871420621872, 0.14061635732650757, -0.06458573043346405, 0.05614706501364708, -0.05158685892820358, -0.0198122039437294, 0.14673790335655212, 0.07367490231990814, -0.1409558206796646, -0.014868549071252346, -0.024033639580011368, 0.22032134234905243, -0.07355281710624695, 0.02181578241288662, -0.042014483362436295, 0.23766422271728516, -0.06999849528074265, -0.4167502522468567, 0.02145783230662346, -0.3341047465801239, 0.02915644831955433, -0.22288119792938232, 0.017867278307676315, -0.30484047532081604, 0.18002508580684662, 0.058387234807014465, -0.2595650553703308, 0.04571697488427162, -0.2770996689796448, 0.1518050879240036, -0.03609299659729004, -0.004245940130203962, -0.39971745014190674, 0.1258280724287033, -0.06441865116357803, -0.011604036204516888, 0.3755606710910797, -0.2853948175907135, -0.004559013061225414, -0.289323091506958, 0.23541052639484406, -0.30186331272125244, -0.08624415099620819, -0.0607120543718338, 0.09048151224851608, -0.020156899467110634, 0.06965123116970062, 0.04352772608399391, -0.16889120638370514, -0.020599564537405968, 0.2655918300151825, -0.13037307560443878, -0.1184205636382103, -0.11579715460538864, 0.086439348757267, -0.13790719211101532, -0.09663578867912292, -0.29306939244270325, -0.18425850570201874, -0.061187971383333206], [-0.1259613335132599, -0.027864627540111542, -0.16731205582618713, 0.2010491043329239, 0.17824043333530426, 0.5589420795440674, -0.03502696752548218, -0.10481400787830353, 0.11256055533885956, -0.16462619602680206, 0.22003276646137238, -0.05687510594725609, 0.1161465272307396, -0.294780433177948, 0.27387335896492004, -0.1313544064760208, -0.07828561961650848, 0.02193964086472988, 0.1961127370595932, 0.09734266996383667, -0.14182116091251373, 0.14911456406116486, 0.1755797564983368, -0.1617000550031662, 0.17162609100341797, 0.06561797112226486, 0.09049253910779953, -0.009844688698649406, -0.0846065953373909, -0.2338564544916153, -0.08054833859205246, -0.10812823474407196, -0.0978444516658783, 0.017989108338952065, 0.4753541350364685, -0.14126239717006683, 0.14524175226688385, -0.014996705576777458, -0.5028505921363831, 0.10870285332202911, 0.12908539175987244, 0.02498650923371315, -0.14383454620838165, 0.11851859092712402, -0.07608282566070557, -0.0505327545106411, 0.14297954738140106, -0.2330668717622757, 0.12378035485744476, -0.22458681464195251, -0.1299145221710205, 0.10492400079965591, -0.3755943179130554, -0.18342149257659912, -0.10201409459114075, -0.04338584095239639, -0.053337935358285904, 0.03458377346396446, -0.11300400644540787, -0.13599757850170135, -0.11233623325824738, 0.30759841203689575, 0.05816372483968735, 0.019589591771364212], [0.4101707935333252, 0.07003714144229889, -0.04549100622534752, 0.10901504009962082, 0.03362351655960083, -0.0599849671125412, -0.14227283000946045, -0.19104737043380737, 0.2715449631214142, -0.1258009821176529, -0.2184072881937027, -0.23429761826992035, -0.004592852666974068, 0.19457660615444183, 0.0895366296172142, 0.05992542952299118, 0.19701996445655823, -0.2689671814441681, -0.10668321698904037, 0.15066510438919067, -0.14107270538806915, -0.2597777843475342, -0.21111325919628143, 0.16758447885513306, -0.06379427760839462, -0.17558465898036957, 0.21107561886310577, 0.06694068759679794, -0.1680309772491455, -0.0033884509466588497, 0.14538916945457458, -0.19223779439926147, 0.08429794758558273, -0.19666306674480438, 0.18446612358093262, -0.010185723192989826, 0.10023445636034012, 0.09159357845783234, 0.09167686104774475, 0.5233027935028076, 0.1367219090461731, 0.2036914974451065, 0.0670764148235321, 0.16776128113269806, 0.12223870307207108, -0.2132793366909027, -0.3649810254573822, -0.04404670372605324, -0.055441711097955704, -0.2858523428440094, 0.03628779575228691, 0.13049501180648804, -0.007999930530786514, 0.04464798793196678, 0.10928787291049957, -0.21860787272453308, -0.029040904715657234, 0.062184691429138184, 0.05407751351594925, -0.2970142364501953, 0.29188963770866394, 0.06696997582912445, 0.04690171033143997, 0.14825555682182312], [-0.02585560828447342, -0.10959365218877792, 0.17488224804401398, 0.21107858419418335, -0.0942455381155014, 0.13120730221271515, 0.1550820767879486, 0.12300961464643478, -0.13378211855888367, 0.10098753869533539, -0.06033339723944664, -0.17676401138305664, -0.27212509512901306, 0.13550958037376404, 0.005129145924001932, -0.022917483001947403, -0.23397046327590942, 0.26542896032333374, -0.23069466650485992, -0.4291127324104309, -0.3511827290058136, -0.23619987070560455, -0.2532266676425934, 0.2589765787124634, -0.13644376397132874, 0.04585634917020798, 0.3048948645591736, -0.2868381142616272, 0.02300923317670822, 0.042284879833459854, -0.025514237582683563, -0.19052450358867645, 0.04318438842892647, -0.13098184764385223, 0.08985508978366852, -0.031563229858875275, 0.04623263329267502, -0.1984807699918747, -0.10949493944644928, -0.0642356276512146, -0.12130940705537796, 0.009805831126868725, -0.3152923285961151, 0.07066415995359421, -0.3302766680717468, -0.027911387383937836, 0.22804899513721466, -0.16605877876281738, -0.005544206593185663, -0.17991551756858826, 0.11848760396242142, 0.052817583084106445, 0.1283881813287735, 0.08064506202936172, -0.2076338529586792, 0.1473821997642517, -0.24824973940849304, -0.017343370243906975, -0.10687597841024399, -0.22606515884399414, -0.09884640574455261, -0.43156206607818604, -0.11802944540977478, 0.20213718712329865], [-0.2371017336845398, -0.19216211140155792, -0.17251157760620117, 0.04750466346740723, 0.04615283012390137, 0.09938143938779831, 0.01122654601931572, -0.21221832931041718, -0.005087010562419891, -0.044833630323410034, 0.027974823489785194, -0.30490604043006897, -0.10149781405925751, 0.0770474299788475, -0.16172292828559875, 0.008834530599415302, 0.20357871055603027, 0.20843668282032013, -0.06161027401685715, 0.13839218020439148, -0.19927768409252167, 0.019221898168325424, 0.4623599946498871, 0.1076757162809372, -0.07314471900463104, -0.023395150899887085, 0.27211570739746094, -0.00037646578857675195, 0.05878404155373573, -0.10221323370933533, -0.10518106073141098, 0.15138675272464752, -0.03215707093477249, -0.1837308406829834, -0.39743977785110474, -0.3776874244213104, 0.4834216833114624, -0.0544629767537117, 0.21696875989437103, 0.03916650637984276, -0.018638338893651962, -0.1225196123123169, -0.370004266500473, -0.3743113875389099, 0.06408217549324036, 0.189543217420578, -0.14237971603870392, 0.1936413198709488, -0.04398500546813011, 0.017032727599143982, -0.010335071012377739, -0.08629296720027924, -0.16658224165439606, 0.01150667853653431, 0.17150135338306427, -0.04164569452404976, -0.1089554876089096, -0.020226096734404564, 0.1540587693452835, -0.19300314784049988, 0.05418790131807327, 0.11257627606391907, 0.1831136792898178, -0.13472649455070496], [-0.15279990434646606, 0.059297338128089905, 0.08204303681850433, 0.13477399945259094, 0.054961226880550385, 0.2460700273513794, -0.19107437133789062, -0.15194576978683472, 0.03230457007884979, -0.06515549123287201, -0.3118938207626343, 0.4037638008594513, -0.2288530170917511, -0.12438672035932541, -0.025495320558547974, -0.06772756576538086, 0.060123514384031296, 0.02312956377863884, 0.2973288595676422, -0.28060030937194824, -0.09695464372634888, -0.008823543787002563, 0.025005817413330078, -0.1453336775302887, -0.29309767484664917, -0.04781346395611763, 0.15461541712284088, -0.03924914449453354, 0.09710336476564407, -0.010001045651733875, -0.09089156240224838, -0.13422858715057373, -0.08838223665952682, -0.14603658020496368, -0.20492148399353027, 0.23744304478168488, -0.12146210670471191, -0.2599745988845825, -0.1494341492652893, 0.07847906649112701, 0.19366440176963806, -0.2703206539154053, 0.10982581973075867, 0.12622234225273132, -0.013406203128397465, -0.14351430535316467, -0.16590569913387299, 0.3135250210762024, 0.022362802177667618, -0.06053469330072403, 0.33695390820503235, -0.23059087991714478, -0.09193267673254013, 0.29267245531082153, 0.053804364055395126, 0.2268640697002411, 0.33991697430610657, -0.18281710147857666, -0.02995421551167965, 0.10666187107563019, 0.259380578994751, 0.1396653950214386, 0.3150384724140167, -0.062300313264131546], [0.16556912660598755, 0.15829701721668243, -0.09042578190565109, -0.07282468676567078, -0.3677215874195099, -0.009174622595310211, 0.045518212020397186, 0.014590064063668251, 0.22383634746074677, -0.20849180221557617, 0.21346086263656616, 0.00039580510929226875, 0.08842276781797409, 0.02184569090604782, 0.11790704727172852, -0.22483526170253754, 0.04260184243321419, -0.28466925024986267, -0.03472968935966492, 0.11579975485801697, 0.17501400411128998, 0.3002529740333557, 0.0956111028790474, 0.1976340264081955, 0.08236190676689148, -0.2175392210483551, -0.2241029441356659, -0.4114997982978821, 0.33002763986587524, -0.13868628442287445, 0.05309196561574936, -0.32629063725471497, -0.0029295366257429123, -0.04738480970263481, -0.21814845502376556, 0.3528231978416443, 0.10558902472257614, -0.2922734022140503, -0.0497979000210762, 0.08441280573606491, -0.04194821044802666, -0.013359757140278816, -0.25993719696998596, -0.1828925609588623, -0.4110848307609558, -0.06603328138589859, -0.0781402513384819, 0.12112482637166977, 0.02950860746204853, -0.2609182894229889, -0.21028496325016022, -0.03030937723815441, 0.12507694959640503, 0.04578623175621033, -0.004326928872615099, -0.026783796027302742, -0.10639926046133041, 0.08613228797912598, -0.005340258125215769, 0.21405768394470215, -0.13524790108203888, -0.05572264641523361, 0.12505196034908295, -0.21314236521720886], [-0.13613398373126984, 0.015343932434916496, 0.38236820697784424, -0.021678639575839043, 0.08817470073699951, 0.011483119800686836, -0.07988148182630539, -0.08967828750610352, 0.02631571516394615, 0.10380763560533524, 0.14419756829738617, -0.07032397389411926, 0.22638921439647675, 0.08351810276508331, -0.06425610184669495, -0.07360345870256424, -0.17334769666194916, -0.1848287731409073, 0.0008409535512328148, 0.26261812448501587, -0.11501657217741013, 0.10991464555263519, -0.2369486540555954, -0.4382772445678711, -0.2971045970916748, 0.04186137393116951, -0.11413413286209106, 0.27848535776138306, -0.03740682452917099, -0.11836476624011993, -0.2294476330280304, 0.018675707280635834, -0.004514229018241167, -0.46411311626434326, -0.198235422372818, -0.09988225996494293, -0.041307978332042694, -0.40239572525024414, 0.14621876180171967, -0.20050840079784393, 0.1419198364019394, -0.005994128994643688, 0.10182603448629379, 0.02626067027449608, -0.09418030828237534, 0.07245860993862152, 0.11731874197721481, -0.09647522866725922, -0.23168282210826874, -0.10924658924341202, -0.09481588006019592, 0.24824205040931702, -0.11046749353408813, 0.11239224672317505, -0.05110760033130646, -0.2697715759277344, -0.23327961564064026, -0.13539284467697144, -0.3175724744796753, -0.12191113829612732, 0.05562082678079605, -0.19169192016124725, 0.012433629482984543, -0.20541128516197205], [0.1174236387014389, 0.361956387758255, 0.27231746912002563, -0.05106427147984505, -0.07717135548591614, -0.03364105522632599, 0.0011576547985896468, 0.05355729162693024, -0.0015441853320226073, -0.18258774280548096, 0.1415797472000122, -0.38325580954551697, -0.1386476308107376, -0.14693711698055267, -0.04813414439558983, -0.03479557856917381, 0.24170301854610443, -0.033787280321121216, -0.1772419661283493, 0.0504227876663208, -0.051799044013023376, 0.1742658019065857, 0.25107312202453613, -0.1536378264427185, -0.20557332038879395, -0.1368160992860794, -0.003268968313932419, -0.2608112096786499, -0.28328025341033936, 0.27327102422714233, 0.34094884991645813, 0.11632200330495834, 0.07797833532094955, -0.0021232080180197954, -0.2759295403957367, 0.00032995600486174226, -0.22879022359848022, -0.09752145409584045, -0.21776996552944183, -0.04442339763045311, 0.2984783947467804, -0.0699983686208725, 0.09456007182598114, 0.385390043258667, 0.18149204552173615, 0.26111313700675964, 0.08938005566596985, 0.007501660380512476, -0.06218346580862999, -0.07446013391017914, 0.010124045424163342, -0.129776269197464, -0.030372466892004013, -0.16900208592414856, -0.030164748430252075, 0.3418335020542145, 0.2612206041812897, 0.1440332978963852, 0.08132398873567581, -0.3206019401550293, -0.06595693528652191, -0.12988035380840302, -0.10444586724042892, -0.10720211267471313], [-0.013958021067082882, -0.3331325352191925, -0.24381116032600403, 0.32073676586151123, 0.17250514030456543, -0.08525048196315765, -0.360284686088562, 0.0902029424905777, -0.17573097348213196, 0.3120073676109314, 0.09858535975217819, -0.08704645931720734, 0.033146634697914124, 0.047854553908109665, 0.08282849937677383, -0.06344995647668839, 0.010736959055066109, -0.2225082516670227, -0.024790065363049507, 0.14830170571804047, -0.041599154472351074, 0.28387290239334106, -0.2789002060890198, -0.18129324913024902, 0.34009286761283875, 0.025361526757478714, -0.06909424066543579, -0.11118201911449432, -0.006505320779979229, 0.5136885643005371, 0.0991048589348793, 0.05534841865301132, -0.36481332778930664, -0.19897311925888062, 0.12425074726343155, 0.09986382722854614, -0.13388879597187042, -0.08605324476957321, 0.03790327161550522, -0.0489053800702095, -0.11656885594129562, -0.18873710930347443, -0.2625470757484436, 0.0360567681491375, -0.09995853900909424, 0.07691672444343567, -0.025159824639558792, 0.10226220637559891, -0.11149009317159653, -0.04031555354595184, 0.04235757887363434, -0.39634397625923157, 0.2482471615076065, -0.11161283403635025, 0.06227114796638489, 0.08517394214868546, -0.08990488201379776, 0.12388825416564941, -0.07527929544448853, -0.17312587797641754, 0.2909260392189026, 0.02553657628595829, 0.0243955310434103, 0.14003562927246094], [0.19593608379364014, 0.08175309747457504, -0.22751924395561218, 0.18237337470054626, -0.1553504914045334, -0.0019496140303090215, -0.03055741637945175, 0.32783108949661255, 0.14728640019893646, -0.014426552690565586, 0.24375243484973907, 0.13895614445209503, -0.09484561532735825, 0.2738651633262634, -0.18838109076023102, -0.4675959646701813, -0.34982967376708984, 0.06726440042257309, -0.011618589982390404, -0.056756991893053055, 0.17485001683235168, 0.22704914212226868, 0.04173436388373375, -0.07264930754899979, -0.17391835153102875, -0.12343883514404297, 0.14703524112701416, 0.014123628847301006, -0.007821391336619854, -0.059920784085989, 0.3018224835395813, 0.18083752691745758, -0.09319228678941727, -0.06732285767793655, 0.07288224995136261, 0.06915227323770523, -0.13909761607646942, 0.3526102602481842, 0.1223999559879303, 0.103022001683712, -0.12422768771648407, -0.10426332801580429, -0.002232846338301897, -0.01716332510113716, -0.25414156913757324, 0.16469983756542206, 0.01304079033434391, 0.03928175941109657, -0.058305129408836365, 0.06141161918640137, 0.17771442234516144, 0.42166563868522644, -0.29541680216789246, 0.1556854099035263, 0.06343425065279007, 0.16404977440834045, -0.14554186165332794, -0.23669065535068512, 0.0020100302062928677, -0.10483910888433456, 0.3847956955432892, 0.0424363799393177, -0.12371595948934555, -0.05798789858818054], [-0.6557155847549438, -0.037716343998909, -0.2872689664363861, -0.10187343508005142, 0.05757064372301102, -0.041872017085552216, 0.16552533209323883, 0.07510939985513687, -0.133666530251503, -0.18079592287540436, 0.2880595326423645, -0.30649039149284363, -0.1650935560464859, 0.0679667741060257, 0.20944112539291382, 0.3067963421344757, 0.06732125580310822, -0.061698026955127716, -0.0031565448734909296, -0.012645564042031765, 0.15549984574317932, 0.03728138282895088, -0.12192007154226303, -0.02989003248512745, -0.10707446932792664, -0.28729426860809326, 0.12085255980491638, 0.17915078997612, -0.2492542564868927, -0.07601681351661682, -0.16952627897262573, 0.03567110002040863, 0.01891240105032921, 0.015705566853284836, 0.01648814231157303, 0.09090390056371689, -0.07664930820465088, 0.22791746258735657, -0.12472885847091675, -0.1249990463256836, 0.02315298095345497, -0.09555046260356903, -0.13536573946475983, 0.24701544642448425, -0.28318527340888977, -0.07854856550693512, -0.4206627905368805, -0.05851668864488602, -0.2855508327484131, -0.07255949079990387, 0.18832162022590637, 0.18048547208309174, 0.18423785269260406, -0.0029108314774930477, 0.033306509256362915, 0.10552547127008438, 0.026768306270241737, -0.2748647630214691, 0.08253675699234009, 0.2319037914276123, -0.1359328031539917, 0.09300965815782547, 0.2352205216884613, -0.024809565395116806], [0.10273800790309906, -0.1577308177947998, 0.2599087059497833, -0.09681162238121033, 0.16683964431285858, -0.058002498000860214, 0.5900284051895142, -0.05666506290435791, 0.23326683044433594, 0.031237538903951645, 0.2400289922952652, -0.027758397161960602, 0.02263244241476059, -0.127150297164917, -0.2865505814552307, 0.12780341506004333, -0.1009630486369133, -0.26103466749191284, -0.06220540031790733, -0.11444450169801712, 0.154305562376976, 0.10252014547586441, 0.17452573776245117, -0.22133152186870575, 0.18503491580486298, 0.22643588483333588, 0.13980315625667572, 0.010949218645691872, -0.03030942566692829, 0.1439809948205948, 0.157230943441391, -0.18330985307693481, 0.018416576087474823, 0.043717510998249054, -0.004593696910887957, -0.26378974318504333, -0.2785601019859314, 0.15266549587249756, -0.3584095239639282, 0.1306997537612915, 0.10032501816749573, -0.059975191950798035, -0.03613637387752533, -0.27723249793052673, -0.051255594938993454, 0.10831552743911743, -0.03539242967963219, 0.16635248064994812, 0.03335382416844368, -0.23240843415260315, 0.265306293964386, -0.04530829191207886, 0.17904849350452423, 0.3428739905357361, 0.28384527564048767, -0.23583297431468964, 0.06314326077699661, -0.0027488458435982466, 0.034365493804216385, 0.03320717066526413, 0.018515324220061302, -0.03548588976264, 0.17614640295505524, 0.13119257986545563], [0.15664906799793243, -0.09232590347528458, 0.06420265883207321, -0.2980085015296936, 0.0809636116027832, -0.11345287412405014, -0.3334803581237793, 0.13183486461639404, 0.028405683115124702, -0.014569705352187157, -0.08281752467155457, -0.053569890558719635, -0.0314529612660408, 0.009875808842480183, 0.23833687603473663, -0.04040013998746872, -0.18889006972312927, 0.16839411854743958, -0.10465380549430847, 0.1180087998509407, 0.25967416167259216, -0.06864099949598312, -0.060611624270677567, -0.15493927896022797, 0.16901497542858124, -0.04001105576753616, 0.36232370138168335, 0.1594860553741455, -0.0067529622465372086, 0.33907508850097656, -0.1891799122095108, 0.02078596130013466, 0.25057560205459595, 0.11328073590993881, -0.10689972341060638, 0.3255031108856201, 0.26939311623573303, -0.04520224779844284, -0.45317575335502625, 0.2462405413389206, -0.10767577588558197, 0.0925590842962265, 0.008432320319116116, -0.24376869201660156, 0.039440739899873734, -0.04156866297125816, 0.0897911787033081, 0.18511128425598145, -0.30329421162605286, 0.18511062860488892, 0.0374915637075901, 0.09449955821037292, -0.10697556287050247, 0.20181705057621002, 0.13680166006088257, 0.19363078474998474, -0.04364556819200516, 0.16166914999485016, -0.2856362462043762, -0.19038408994674683, -0.1969747692346573, -0.18161673843860626, 0.11987336724996567, -0.15219560265541077], [0.09177016466856003, 0.013555662706494331, -0.08046575635671616, 0.04207199066877365, -0.15832433104515076, -0.042989056557416916, 0.24525359272956848, -0.12228549271821976, -0.021675467491149902, -0.1984204202890396, -0.08639559894800186, 0.20569929480552673, -0.052033327519893646, 0.10616464167833328, 0.22612006962299347, 0.007033981382846832, 0.12617631256580353, -0.4737977683544159, 0.042333707213401794, 0.05015931650996208, -0.32168349623680115, -0.09110806882381439, 0.09834502637386322, -0.14355714619159698, -0.10883579403162003, -0.010205546393990517, 0.3343445956707001, 0.21765100955963135, 0.163212388753891, 0.15495169162750244, 0.03470870107412338, 0.2280564159154892, 0.08984796702861786, 0.37469595670700073, 0.07623175531625748, 0.012473367154598236, -0.006754220463335514, -0.05801801383495331, -0.13669295608997345, -0.4070901572704315, -0.200872004032135, -0.06520610302686691, -0.07838490605354309, 0.11811073124408722, -0.19575616717338562, -0.0519200898706913, 0.08793362975120544, 0.4590670168399811, -0.13297215104103088, 0.017791327089071274, -0.12820880115032196, -0.06950291991233826, -0.07544645667076111, 0.13572032749652863, -0.24958908557891846, -0.0963202714920044, -0.2899385690689087, 0.17589087784290314, 0.024823950603604317, -0.04391464591026306, 0.24267666041851044, 0.035565298050642014, -0.3508050739765167, -0.06825646013021469], [-0.3158838748931885, 0.06361361593008041, 0.3257599472999573, 0.15356773138046265, -0.07220873981714249, -0.13696153461933136, 0.002505498006939888, 0.1239992156624794, 0.30315518379211426, 0.15687625110149384, 0.10156041383743286, 0.23703427612781525, -0.10286114364862442, -0.15739917755126953, 0.18199294805526733, 0.023342376574873924, -0.09608946740627289, 0.22224314510822296, -0.0832865908741951, 0.24432148039340973, -0.15577764809131622, 0.048786461353302, -0.2135215401649475, 0.13891616463661194, -0.14615775644779205, 0.13590353727340698, 0.17806673049926758, -0.38097891211509705, 0.14869025349617004, 0.0728829950094223, 0.199771910905838, 0.47657594084739685, 0.04151320829987526, -0.15150822699069977, 0.08038968592882156, 0.038660794496536255, 0.08723344653844833, 0.13769495487213135, -0.015485999174416065, 0.055872593075037, 0.2620290219783783, 0.0008155617979355156, 0.31538790464401245, -0.18641743063926697, -0.23664355278015137, -0.10840269923210144, 0.001453366014175117, 0.09310981631278992, -0.15447062253952026, -0.08931055665016174, -0.07990647107362747, -0.19959518313407898, -0.06777074933052063, -0.05506732687354088, 0.18958322703838348, -0.050382666289806366, -0.20272821187973022, 0.2893791198730469, 0.02253740467131138, 0.3136000633239746, 0.051885928958654404, 0.06890233606100082, 0.11212284117937088, 0.2220296859741211]], "mlp_extractor.policy_net.2.bias": [0.0046801334246993065, 0.0014968785690143704, -0.013181967660784721, 0.023947011679410934, -0.009174838662147522, 0.015336764045059681, -0.037643399089574814, 7.663504220545292e-06, 0.005299166310578585, -0.0016197115182876587, 0.001404737588018179, 0.0019749386701732874, -0.00032804463990032673, -0.002795694163069129, -0.009936260059475899, -0.00875889603048563, -0.011807394213974476, 0.021325882524251938, 0.021275147795677185, 0.005202985368669033, -0.0029311422258615494, 0.0034217184875160456, 0.003205933142453432, 0.01439373567700386, -0.023411238566040993, -0.021780196577310562, -0.0069762105122208595, 0.0075420658104121685, -0.00587803777307272, -0.019463060423731804, 0.00044345081551000476, -0.009762312285602093, -0.003174347337335348, 0.007726265583187342, -0.01712367683649063, -0.02186455950140953, -0.008015315979719162, 0.006696791388094425, -0.019761377945542336, -0.0021074030082672834, -0.011615891009569168, 0.02206738479435444, -0.014590785838663578, 0.00011367032129783183, 0.007428616750985384, 0.009629120118916035, 0.005922224838286638, -0.002145393518730998, -0.007460440043359995, 0.020018883049488068, 0.008747238665819168, -0.02139720879495144, 0.023951053619384766, -0.018094690516591072, -0.022611435502767563, -0.008783752098679543, 0.011515711434185505, -0.022523490712046623, -0.01392384897917509, 0.010786314494907856, -0.005288014188408852, 0.00010220072726951912, -0.01930752396583557, 0.0023357076570391655], "mlp_extractor.value_net.0.weight": [[0.31166887283325195, -0.3299487829208374, 0.18495440483093262, -0.27476149797439575, -0.01871330291032791], [0.07159750908613205, 0.019495191052556038, 0.11251552402973175, -0.2803567051887512, -0.19380031526088715], [0.27849042415618896, 0.12220729142427444, -0.015569042414426804, 0.17469064891338348, 0.03192467987537384], [-0.21506209671497345, -0.1653333604335785, -0.405572772026062, -0.43463411927223206, -0.002908739261329174], [-0.10565962642431259, 0.18525411188602448, -0.0619075782597065, -0.08618044853210449, 0.06098538637161255], [-0.09277412295341492, 0.12209882587194443, 0.09140285104513168, -0.11009697616100311, -0.22664043307304382], [-0.3713591396808624, -0.4681633412837982, -0.29376697540283203, 0.0943741723895073, 0.2813045382499695], [-0.32727670669555664, 0.14512312412261963, -0.24477550387382507, -0.3162285089492798, -0.3261674642562866], [-0.10644643753767014, -0.1640726625919342, 0.14570097625255585, 0.13814491033554077, -0.023398280143737793], [0.09247029572725296, -0.01839287579059601, 0.06310220807790756, 0.31131118535995483, -0.2986328601837158], [-0.08608230948448181, -0.13034099340438843, 0.3746156096458435, -0.08811222016811371, 0.1581355780363083], [-0.20002129673957825, -0.02459821291267872, 0.07005272805690765, 0.08425707370042801, -0.10181458294391632], [-0.0020446365233510733, 0.06294680386781693, 0.06648129224777222, -0.061989571899175644, 0.17226004600524902], [0.3140830397605896, 0.5499120354652405, -0.1088913306593895, 0.39361342787742615, 0.5066934823989868], [-0.13276872038841248, 0.17249445617198944, -0.012178082019090652, 0.05813753604888916, 0.1251930296421051], [-0.13905519247055054, 0.12600815296173096, 0.33669865131378174, -0.0680137425661087, 0.13940207660198212], [-0.22592473030090332, -0.10891315340995789, 0.1312522292137146, -0.09987889230251312, 0.15549468994140625], [0.0034709088504314423, -0.15182200074195862, 0.10347583889961243, 0.36699479818344116, 0.01307387463748455], [0.013964375481009483, 0.12302204221487045, -0.020788321271538734, -0.01005468238145113, -0.2158656120300293], [0.23825804889202118, -0.16981244087219238, -0.4984329342842102, 